var english_network = {"layers":[{"0":{},"1":{},"2":{},"3":{},"4":{},"5":{},"6":{},"7":{},"8":{},"9":{},"10":{},"11":{},"12":{},"13":{},"14":{},"15":{},"16":{},"17":{},"18":{},"19":{},"20":{},"21":{},"22":{},"23":{},"24":{},"25":{},"26":{},"27":{},"28":{},"29":{},"30":{},"31":{},"32":{},"33":{},"34":{},"35":{},"36":{},"37":{},"38":{},"39":{},"40":{},"41":{},"42":{},"43":{},"44":{},"45":{},"46":{},"47":{},"48":{},"49":{},"50":{},"51":{},"52":{},"53":{},"54":{},"55":{},"56":{},"57":{},"58":{},"59":{},"60":{},"61":{},"62":{},"63":{},"64":{},"65":{},"66":{},"67":{},"68":{},"69":{},"70":{},"71":{},"72":{},"73":{},"74":{},"75":{},"76":{},"77":{},"78":{},"79":{},"80":{},"81":{},"82":{},"83":{},"84":{},"85":{},"86":{},"87":{},"88":{},"89":{},"90":{},"91":{},"92":{},"93":{},"94":{},"95":{},"96":{},"97":{},"98":{},"99":{}},{"0":{"bias":0.25492077246577743,"weights":{"0":-0.8153404984405516,"1":-0.7750108599265303,"2":0.587355995717604,"3":0.3913617781194121,"4":-0.295761736788281,"5":-0.5544109252098797,"6":-0.15737001293127112,"7":-0.05438428234143283,"8":-0.4078164420190279,"9":-0.7246524556630146,"10":-0.45008718878784265,"11":-0.27380127098514695,"12":0.9591650512068314,"13":0.3740689339995126,"14":-0.01945189790491501,"15":-0.37772282956884995,"16":0.5321112281379268,"17":0.5242418738593292,"18":0.5086281644785073,"19":-0.08098660926167671,"20":1.3511811895950827,"21":0.05665536957773757,"22":-0.5989643120252075,"23":1.0042950545193865,"24":-0.41089602150846954,"25":-0.4454926086887722,"26":0.03244354645086945,"27":0.4340712284604996,"28":0.6877624682097263,"29":0.29698003465181355,"30":0.19926061323012237,"31":-0.26338661714063055,"32":-1.210993565823171,"33":0.16658573054991543,"34":0.43275338043548955,"35":0.20861987617773664,"36":0.5770626686990884,"37":0.30323450117824285,"38":0.22500603269349934,"39":0.22618639130065268,"40":-0.6088943221839719,"41":-0.207613086296862,"42":0.20945821096640016,"43":0.3272083826148973,"44":0.9860996481178568,"45":-0.2152064236242288,"46":0.3082796313297422,"47":-0.38447898742604975,"48":-0.2018201426013459,"49":0.3343274868456911,"50":-0.29079462291862346,"51":0.5997720601400081,"52":-0.17049103480852273,"53":-0.4895916200386788,"54":-0.051497983614470735,"55":0.04099478677007578,"56":0.060653208846958684,"57":-0.2596397982482165,"58":0.20183301707009954,"59":0.24468731268361366,"60":-0.8535879780299239,"61":0.3230594950603448,"62":-0.2624756823457274,"63":-0.7382564322382671,"64":0.3359879742931424,"65":0.34273599555824186,"66":-0.44158314546499,"67":0.2865810342690317,"68":-0.04963774353310749,"69":-0.2222835228409192,"70":-0.3397562679840543,"71":0.28076043048301474,"72":-0.4980826823883307,"73":-0.7581284967767828,"74":0.2206665318624598,"75":0.32099673660404393,"76":-0.36596186389161156,"77":-0.1623422313378524,"78":-0.5175079332087288,"79":-0.4126230437929998,"80":-0.5776326549193245,"81":0.13177657585294447,"82":-0.06292795247681124,"83":0.17162040179807858,"84":-0.07379866740884206,"85":-0.0643764031003344,"86":-0.2946512321973025,"87":-1.0839231333621564,"88":-0.37508075048804745,"89":-1.1546148247771597,"90":0.634850766417444,"91":0.672635680952289,"92":0.7222069852011007,"93":-0.2577416202801623,"94":0.6240340819861918,"95":-0.03151827187491919,"96":-0.06342335445771985,"97":-0.9613506695343784,"98":-0.43554068298946247,"99":-0.5281057252530715}},"1":{"bias":-0.19039768011404387,"weights":{"0":2.326666846315375,"1":0.813346701411971,"2":0.22264642409153612,"3":0.2766583685870857,"4":0.7949459199348108,"5":0.14992204003278922,"6":2.1456996192284032,"7":1.358905233456508,"8":0.13679265781410452,"9":0.13544496312682325,"10":0.09148101882332325,"11":-0.6928456166951421,"12":-0.4247167543416849,"13":0.28462306987002856,"14":-0.38384315469360974,"15":-0.44318101147009564,"16":0.004330720177451255,"17":0.7744586152879415,"18":-0.43905215956176896,"19":0.560724238375153,"20":-1.3640978208159429,"21":-0.882531001788612,"22":-0.3206942947026479,"23":-0.5371265424511144,"24":-0.09944229582392243,"25":-0.8936846651902507,"26":-1.003908131434918,"27":-0.0009984967125881996,"28":-0.5816394839897934,"29":0.48669846857575244,"30":-0.8888545630114902,"31":-0.8746291352244504,"32":0.15767775108222984,"33":0.02244314620666793,"34":-0.3542053652184276,"35":0.3435761825400983,"36":-0.3469392100270174,"37":0.021774633707995348,"38":-0.11272582706014332,"39":1.1233359013348057,"40":0.6398458191360422,"41":0.4965825185624949,"42":-1.1433008306882557,"43":-0.7956617318930742,"44":-0.7403669779281566,"45":0.936228571838358,"46":0.4970273289051634,"47":0.26093787343783414,"48":0.5812799039581618,"49":0.147773032517581,"50":1.3055411021072758,"51":0.15142568666169362,"52":-0.9339504609665623,"53":-0.5044864037278504,"54":-0.5526103010895506,"55":0.12506897929280902,"56":0.4412664940114521,"57":0.4711925451288258,"58":0.6632812264569728,"59":-0.2787938420397603,"60":0.0025232881590913155,"61":0.8908143618561227,"62":-0.39808343265069523,"63":-0.33403541460890607,"64":0.3725492024995224,"65":1.214011096908682,"66":0.3169662298211472,"67":0.6118256644526999,"68":0.4032083220100084,"69":0.07665057684219348,"70":-0.12944220051024874,"71":-0.5262143077637162,"72":0.1662476711670243,"73":-0.12680810391178352,"74":-0.2171795003789413,"75":-0.3990283798323472,"76":-0.0683694078476627,"77":-0.24510632223519002,"78":-0.4294295135197359,"79":-0.3655995476175735,"80":-0.5156577044487705,"81":0.26943839449040224,"82":0.3249057452187164,"83":0.057609872666722226,"84":0.3261191181461767,"85":-0.4231229634735733,"86":-0.5107069842239764,"87":-0.9493365961704865,"88":-0.536946870784923,"89":-0.2502862637942082,"90":0.3296151257136422,"91":-0.23900447619548804,"92":1.0237611873317536,"93":0.5649974994174407,"94":0.9043711592971619,"95":-0.474813477113927,"96":-0.551727753171949,"97":-0.3647260406091617,"98":-0.8366119687372486,"99":-0.20375681750708988}},"2":{"bias":0.8977351502611173,"weights":{"0":-0.2179033926540997,"1":0.39206795175993847,"2":-0.16518920209314206,"3":1.2346181982871787,"4":0.9142610895577934,"5":1.4260546641269514,"6":0.7013746652210492,"7":0.6969158639096538,"8":-0.12575981001731507,"9":0.1175248225676389,"10":0.6545511139543946,"11":-0.7802509047232447,"12":-0.3748322301731688,"13":0.10069212091084755,"14":0.3019340548699785,"15":0.8553016935201324,"16":-1.1758352938523973,"17":-0.6128406013571562,"18":-0.17899035114890882,"19":-0.2219877822133453,"20":0.08915587431196413,"21":-0.28641195032473327,"22":-0.9130291366688779,"23":-0.9449810536337412,"24":0.0071837172489751895,"25":-0.37532188124554955,"26":-1.2132557975433824,"27":-0.557160780474387,"28":-0.6737563376418758,"29":-0.17117889392609775,"30":0.8068368292356639,"31":0.3211041612623722,"32":-0.005516749302910415,"33":-0.4205234915536726,"34":-0.07530069817250004,"35":0.14498519470399837,"36":-1.0469384156135044,"37":-0.09459200638281431,"38":-0.37359447063622353,"39":0.23890222208110395,"40":1.571853723410349,"41":0.09814249678464097,"42":-0.7328341552245154,"43":-0.7895162652254469,"44":-0.6340208322848482,"45":0.12892983505254166,"46":0.15933835318220402,"47":0.822385347778038,"48":1.2865271172645178,"49":0.41990371098611057,"50":1.53010117984719,"51":-0.22354412227496173,"52":-1.017677306269327,"53":0.08284579010571849,"54":-0.3359551894428694,"55":-0.44570493131572453,"56":0.3277387732587758,"57":0.3091707086059466,"58":0.45765769763885455,"59":0.6051456131640538,"60":0.056224578355787556,"61":-0.11074346490191403,"62":-0.39301067045608545,"63":0.7681333963269995,"64":-0.33122237962997364,"65":-0.9850493169743104,"66":-0.1886222382580568,"67":0.3525229108879991,"68":0.23274686498741656,"69":0.5085453543093277,"70":-0.11796166160153689,"71":-0.7497004832930152,"72":-0.09962600333168672,"73":0.03148616201952623,"74":0.0006908589170047034,"75":-0.6359396286386644,"76":0.37354465411404125,"77":-0.45870343115850987,"78":-0.5572864641156271,"79":0.029235275615709547,"80":-0.7800180136450943,"81":-0.4752560936008051,"82":0.4076050249782391,"83":0.5211897346108242,"84":-0.137510898265639,"85":-0.4130159010511369,"86":-0.24279199904637597,"87":-0.39657571058549557,"88":-0.5721262644671693,"89":-0.7705271864813202,"90":-0.8096479276204801,"91":-0.5820321566359786,"92":-0.1584094945839709,"93":0.5005351167752479,"94":0.9598456866672539,"95":0.7269865871287586,"96":-0.13430907774252077,"97":-0.11940212157747178,"98":-0.1669218989824183,"99":-0.30688744517570243}},"3":{"bias":0.6340002902838041,"weights":{"0":1.1471431867298496,"1":0.11365559794275197,"2":-0.027176077022507867,"3":-0.12232480655262455,"4":-0.3325085731890225,"5":-0.16571343351434886,"6":0.11801188166647346,"7":0.022002502711188334,"8":0.1704620558970847,"9":-0.9253049892449792,"10":-0.4831712826893255,"11":0.42696723915652113,"12":0.5338081818853749,"13":-0.24187540964899948,"14":-0.09046227556055927,"15":0.8647676106563086,"16":-0.20106931565294622,"17":-0.17709186076552172,"18":0.11519185615319213,"19":-0.20184546165069114,"20":-0.46929037300008425,"21":-0.1957470407125687,"22":-0.17771714103298258,"23":0.08031560229939873,"24":0.025380823798457137,"25":0.33550625781527205,"26":0.41620470301674123,"27":-0.8383617677707773,"28":-0.3594376071281085,"29":-0.5015197092251842,"30":-0.9844172764891745,"31":-0.22054928023013465,"32":-0.27500000023457566,"33":-0.3039460614643246,"34":0.3655060756781111,"35":0.273502080986804,"36":0.648156141093855,"37":0.12450945140357733,"38":0.007484667376981473,"39":0.5283639769858309,"40":-0.6683429900432651,"41":0.04845481194967962,"42":-0.28211981148405324,"43":-0.46341779528872007,"44":-0.10537003715916125,"45":-0.013011761759255426,"46":-0.0011644494066957768,"47":-0.40287251733531576,"48":0.07138960137538017,"49":0.043402534111597633,"50":-0.05225656967728164,"51":0.6469331618788948,"52":0.4336150750886816,"53":0.6057390374542776,"54":-0.049324618605351846,"55":-0.7856239890068936,"56":-0.7591239308639948,"57":-0.07055018094952197,"58":-0.1171232429701521,"59":0.07081143564067485,"60":0.02848704404840609,"61":0.039035068943099764,"62":0.8617582026365962,"63":1.1765047331532463,"64":0.4099027991283393,"65":-0.8104385671429121,"66":-0.5531749394666311,"67":0.3848981687102881,"68":0.8411837398016181,"69":0.494592279413516,"70":-0.8053884014212632,"71":0.20177896344920296,"72":1.1607233331396383,"73":0.3239300959547271,"74":0.5974042036911007,"75":-0.3035458764857012,"76":-0.40582414039574566,"77":0.24654050616339174,"78":0.03198860742283571,"79":0.2349935794313953,"80":-2.0324165863643615,"81":0.063887573109249,"82":0.012507709563818229,"83":0.46402816634606464,"84":-0.6491928890595586,"85":-0.13030739486054482,"86":0.02054672202774805,"87":0.15828003393099305,"88":-0.15811271361564644,"89":-0.5401833726911901,"90":-0.5672904751486708,"91":-0.5379253370756779,"92":-0.9107826121233642,"93":-0.3202190945540175,"94":0.4169573820568308,"95":1.035128741582112,"96":0.24807748856368156,"97":0.35761359555059985,"98":0.1641271478076224,"99":-0.4837216792664625}},"4":{"bias":0.44013157101295763,"weights":{"0":-0.7800420448957123,"1":-0.02814696288495111,"2":0.23002364578040316,"3":-0.4006317392803788,"4":-0.268925083934917,"5":-0.09692994140464373,"6":0.6196800209864303,"7":-0.06432192537303694,"8":0.30371517740948784,"9":-0.45669881453012084,"10":-1.4523110440846483,"11":-0.5193786115444273,"12":1.3446484676112722,"13":0.5276528974011633,"14":-0.4067038637742217,"15":-0.4247927483155149,"16":-0.3456733657236767,"17":0.17649448948964724,"18":0.2401409178403493,"19":-0.5612269550295917,"20":-0.16406636716910622,"21":-0.4227894668301582,"22":-0.5599189018064769,"23":0.25246665746405406,"24":0.04623315026986906,"25":-0.7113652773943074,"26":-0.78247006786165,"27":-0.46080919257170816,"28":0.11188949512506977,"29":0.031199760571120394,"30":-0.10279059898561561,"31":-0.9030950589142738,"32":-1.2565922951221895,"33":0.2946898796672159,"34":0.26778061115211016,"35":0.4969304553805736,"36":-1.066762979629747,"37":-0.3945584989118355,"38":0.0858388177384949,"39":-0.12517355334555155,"40":0.706376670954559,"41":-0.4145611893275079,"42":0.22747006433967779,"43":-0.982107922530995,"44":-0.34270817062865666,"45":0.19263810907599604,"46":0.04038479993889963,"47":0.30339330193941655,"48":0.584089546154427,"49":0.26419806661553674,"50":1.6312830221598738,"51":0.609422439596276,"52":-0.04016839630866269,"53":-0.16150303758693346,"54":0.22550942300816249,"55":0.9922276796710279,"56":0.0996701309009626,"57":0.3822674396761667,"58":0.6088997679768672,"59":0.41610750315745537,"60":1.363521049578248,"61":0.49288076267791964,"62":-0.5041311056751866,"63":0.37826445740534814,"64":1.2541153126750215,"65":0.8825756188418835,"66":-0.6178529208466127,"67":-0.2812216346891671,"68":-0.3176244076022791,"69":-0.32569488483997777,"70":1.4314587412859021,"71":-0.2840729498822337,"72":-0.6382467387881153,"73":0.13551557411098986,"74":0.7872423687873058,"75":0.2851114927708853,"76":-0.22783356317542977,"77":-0.40046331645308386,"78":-0.21715163270917784,"79":-0.15490851220421012,"80":0.10739130133648597,"81":0.17363770980039833,"82":-0.26223771533577495,"83":-0.49795408621145915,"84":0.5979647424239373,"85":0.23508268163463406,"86":-0.220301260598225,"87":-0.5081712841404254,"88":0.3138885363483488,"89":0.36675574915330444,"90":0.06657444688677423,"91":-0.22448394244299222,"92":-0.8487863047640131,"93":-0.46641545881943264,"94":0.019143223559129865,"95":-0.6101606175264306,"96":-0.10203332021048017,"97":-0.07718092602066152,"98":0.17287498257591621,"99":0.041953005281379005}},"5":{"bias":0.33976647414784483,"weights":{"0":0.9661519691589894,"1":-0.6679513352570106,"2":-1.0807224183018,"3":-0.07384791845193789,"4":0.580485247533822,"5":0.5346543783930978,"6":0.306982137856115,"7":-0.06957031465796992,"8":0.23597699776827746,"9":0.2554514116244741,"10":1.443184313534288,"11":-0.09982442749259775,"12":-0.3838844074789273,"13":0.3815921362224196,"14":0.543266332978107,"15":0.5131631412534705,"16":-0.12153795731717294,"17":0.28243241930084084,"18":0.2131037811199863,"19":-0.06853865398550824,"20":-1.0037742716768803,"21":0.35442030109499917,"22":-0.6655786505876132,"23":0.19266618827953153,"24":0.175160621266767,"25":-0.2961902675377315,"26":-0.06463158800104006,"27":0.1710709645894769,"28":0.18497442987994533,"29":0.03188787429344176,"30":-0.5661570824364709,"31":-0.060501122048781136,"32":0.0039060624556424835,"33":0.03938483942747701,"34":-0.04635086462283048,"35":-0.5122765536469269,"36":-0.4071498288203506,"37":0.10465115509610923,"38":-0.04488797446103162,"39":-0.020318984795888225,"40":0.6631987357617194,"41":-0.012699120506020728,"42":0.244915669886968,"43":-0.5542269105266102,"44":-0.27356118170862986,"45":-0.06495898596499029,"46":-0.09777142743113315,"47":0.14382498871601504,"48":0.25277559918290216,"49":0.338597524835103,"50":-0.5484618914879238,"51":-0.45477377964998666,"52":0.28132752776347303,"53":-0.013534138345176104,"54":-0.33504217724310076,"55":-0.37299250936043726,"56":-0.17610558330528175,"57":0.21337416609997475,"58":0.09535625749121746,"59":0.024589330679294873,"60":-0.06742138553136338,"61":0.13316122396797997,"62":0.39552486064676906,"63":0.6304291176232082,"64":0.8415412533011003,"65":-0.010376469493903123,"66":-0.23264435005374698,"67":0.13110386892632786,"68":0.19338137604932762,"69":-0.058730409836451794,"70":-0.20360007360447438,"71":0.6040623130342464,"72":0.42191584375117336,"73":0.03296331045279743,"74":0.3445785239246542,"75":-0.10034457006402416,"76":0.13190102561906045,"77":-0.27687126203691426,"78":-0.08096465167649917,"79":-0.0971909723134604,"80":0.45792862181699173,"81":-0.31098292455702925,"82":-0.737089454054567,"83":0.12410759160370256,"84":0.28918190636501195,"85":0.7943017682148182,"86":0.009310977436747674,"87":0.15958133963553733,"88":-0.0036648131804325,"89":-0.10137640359102407,"90":0.8340804769641079,"91":-0.2815365855158438,"92":-1.1900660206754587,"93":-0.7684686003079952,"94":0.6529118519555962,"95":0.4913459535608968,"96":0.43863793232359183,"97":0.036306361426432635,"98":0.08043161838659266,"99":0.07526258094791788}},"6":{"bias":0.5284340553125175,"weights":{"0":-0.470264159597947,"1":-0.30527970991329384,"2":0.057516003262047706,"3":0.7667084109287337,"4":-0.21397278466676664,"5":-0.231323101478072,"6":-0.37240990446055566,"7":-0.5101935338909435,"8":-0.009128626491792309,"9":-0.31547053453171536,"10":0.31665468600167374,"11":0.35968884322436057,"12":0.19434887882582516,"13":-0.18404548926556577,"14":0.08092651121214794,"15":-0.40528230358727696,"16":0.08685452421965249,"17":0.7860352624090376,"18":0.3786000319311143,"19":0.6555369330694457,"20":0.25791388212418914,"21":0.49211292678880086,"22":1.3873090833727957,"23":0.2056459464963896,"24":0.2128069979653055,"25":-0.7833078766474059,"26":-0.7872501561842767,"27":0.09701157860233944,"28":-0.21339525279720944,"29":0.5406883246608737,"30":0.33051102078103667,"31":1.1318989769229888,"32":1.0326397039091049,"33":0.29125739161825265,"34":-0.10332882808306985,"35":-0.9599028540978278,"36":-0.7534697758890394,"37":-0.2273948972319077,"38":-0.18669820011141877,"39":-0.23619672728591098,"40":-0.2297050047295578,"41":1.028315628118901,"42":0.23724262463261842,"43":-0.3302601065860683,"44":-0.3582141448546106,"45":-0.5594233612191024,"46":-0.5175037040281949,"47":-0.26439471730310254,"48":-0.32219691872141276,"49":-0.026637199130410176,"50":-0.5587581141351943,"51":0.1294187124305773,"52":-0.073003048800666,"53":-0.5787522284339142,"54":-0.15026839445231197,"55":-0.0729425245071612,"56":0.06582301156655009,"57":-0.21433188971150985,"58":0.1923642685156167,"59":-0.38394817771539647,"60":-0.4076362149558116,"61":-0.881145230393588,"62":0.338102952273636,"63":-0.9674296530084903,"64":0.4409328181231577,"65":0.6254626602440513,"66":0.78944426833217,"67":0.3268181786282339,"68":0.22541521449337434,"69":-0.3492950476970418,"70":-0.812552778863194,"71":-0.6334576318008146,"72":-0.23808551999717847,"73":0.2014932389365126,"74":-0.23019993042889292,"75":0.1911828735323176,"76":0.4046248639141468,"77":0.52808730981715,"78":0.08525037243588748,"79":0.32508788896920127,"80":-1.337077746911874,"81":-0.19643424763164927,"82":0.3087106608155963,"83":-0.1365664562892482,"84":0.40020694916898647,"85":0.03070097462231788,"86":0.12970068985517716,"87":0.06996367682254197,"88":0.06268952644298491,"89":-0.17734462398233428,"90":-1.807524215001063,"91":-1.2395750373291041,"92":0.45712335467471643,"93":-0.16219393724146097,"94":0.757999625136944,"95":0.6585367707057201,"96":0.34825487185085985,"97":-0.049316252884124896,"98":-0.43129015417305794,"99":0.03285486283366127}},"7":{"bias":0.07416746298570838,"weights":{"0":-1.2002791630394658,"1":0.0025428610822807447,"2":-0.04321529536850965,"3":-0.5493288136112746,"4":-0.3354268756549426,"5":0.5201290803018904,"6":0.005897067301126528,"7":-0.3268817011141877,"8":0.04020791125164317,"9":-0.0809402222698555,"10":0.34107282001146605,"11":-0.060941418691219496,"12":-0.725485326210049,"13":0.035426715820365634,"14":0.22783520602350113,"15":0.15890976829545164,"16":0.1455621969294512,"17":-0.2764426500806965,"18":-0.18960475931993706,"19":0.3080919088396315,"20":1.059120146847328,"21":0.3037101038029799,"22":-0.1483545416781698,"23":-0.18519546031549122,"24":0.07151775795872888,"25":0.4688766207144699,"26":0.6334095818482004,"27":-0.13689540768145464,"28":-0.49446188974766203,"29":0.09332049608956865,"30":0.6016216288953753,"31":0.5952287751421763,"32":-0.035633407498394304,"33":0.3071228068846866,"34":0.11532670367987029,"35":0.28284697323824953,"36":0.11492292303275646,"37":0.36863265161382863,"38":-0.4515321136310361,"39":0.23290033442988642,"40":0.6258963452400783,"41":0.2261494415568789,"42":-0.2461938716482071,"43":0.1262509833886973,"44":-0.4840460217943698,"45":0.009405559940203602,"46":0.09288847774915783,"47":0.7118546474953803,"48":-0.047605279344679695,"49":0.08039426186140898,"50":0.18507879314284217,"51":-0.6756218592765724,"52":-0.19890108451436433,"53":-0.11875953549400983,"54":-0.4860191075887354,"55":0.14534510094785955,"56":0.36575711882127254,"57":0.4031581808707808,"58":-0.026172941640832812,"59":0.028026975101293816,"60":-0.03088075546861458,"61":-0.782228055509473,"62":-0.28239671840157715,"63":-0.4106449858033812,"64":0.28627733645166087,"65":-0.29037988745752863,"66":-0.03785177154358607,"67":0.23927682735659925,"68":0.2886724975469314,"69":0.330840055331115,"70":0.015361725065478737,"71":0.06906314974729226,"72":0.29795264669769844,"73":0.004657709049465473,"74":0.1986520311433234,"75":0.12752762334168913,"76":-0.0038508054492998583,"77":0.23817635809999563,"78":0.3531741370246994,"79":0.18052420576459258,"80":-0.015720176321810015,"81":-0.45766419038054,"82":0.49742981932427477,"83":1.0024183785276635,"84":0.592963387618604,"85":-0.9122728298734667,"86":0.2696128019368957,"87":0.07077867922195144,"88":0.05862960639676733,"89":-0.00843323993371892,"90":-1.2205214597416048,"91":-0.16766525165055982,"92":0.8509578971384303,"93":1.230277509727371,"94":-0.239381987682427,"95":-0.21162605688825004,"96":-0.2052765195867396,"97":0.17705881029789763,"98":0.20433758785139672,"99":0.013803344428182068}},"8":{"bias":0.17707861100089625,"weights":{"0":-0.5283350731468535,"1":-0.5270571177878101,"2":-0.9110489793987585,"3":-1.1031864923730172,"4":-1.4263485897389452,"5":-0.7236855843853786,"6":-0.655551063728236,"7":-0.37397563486662677,"8":-0.3653733916061895,"9":0.42193286972369914,"10":1.0202446805095196,"11":0.09425099493472314,"12":0.22572152266584763,"13":-0.9040610820595407,"14":-0.9411826981024648,"15":-0.09434248150889875,"16":0.27162578570162477,"17":-0.13237671203820317,"18":0.29765538078412346,"19":0.42557879036823537,"20":0.7354514033474787,"21":0.44599219666729284,"22":-0.20641392763015906,"23":-0.20521735300593683,"24":-0.11268991737952239,"25":0.6463868966493242,"26":0.8416723327012771,"27":-0.20175184268396162,"28":-0.12483721572032622,"29":0.000029589229622445113,"30":-0.456099660697693,"31":0.22016345177561886,"32":0.5774216838933071,"33":-0.26286061277235667,"34":0.03343005646862549,"35":0.4188332045252903,"36":0.6772960844964457,"37":0.4445517831122817,"38":-0.05301738587376171,"39":-0.10426421959666221,"40":-1.6201706455660962,"41":-0.07252812395435622,"42":0.14128123843206436,"43":0.6531474559660495,"44":0.8353345969029612,"45":0.208561206737405,"46":0.3431362129800113,"47":-0.43174806743023925,"48":-0.930291078459263,"49":-0.6192333490871599,"50":-0.8700308958934958,"51":0.13430456526829357,"52":0.6143998201695571,"53":1.2454117866620722,"54":0.8283838159828127,"55":-0.46465843105592985,"56":0.8993429335767934,"57":-0.22658711490479969,"58":-0.3748224601603853,"59":-0.9557429499421426,"60":-0.961983911173506,"61":0.08506225920996674,"62":-0.48033394671488333,"63":1.2380073831938008,"64":-0.14417855946355682,"65":-0.5891172848966323,"66":0.7620040675842955,"67":0.3772786988375808,"68":0.34387756885317294,"69":-1.0542218935262861,"70":-0.7674774420098738,"71":0.5780958410219865,"72":-0.26149001180658654,"73":0.17946215623189138,"74":0.3492315288374326,"75":-0.10427040490189236,"76":0.26421465474193734,"77":0.15165673249020742,"78":0.6282144429478727,"79":-0.7270911657552173,"80":0.3389972454116829,"81":0.06143765391915746,"82":0.7774317865607555,"83":0.6192182928464215,"84":0.268927448656112,"85":0.007102143844267508,"86":0.7427606541769136,"87":0.5088340715931632,"88":0.5450327034274131,"89":-0.08656441089474552,"90":0.48966657875996655,"91":-0.16778811021346787,"92":-0.028011334861549025,"93":-0.13800071929545782,"94":-0.7311064986784408,"95":-0.2030538888929337,"96":-1.0618611387742722,"97":0.03304454919269841,"98":0.5755010406919183,"99":0.2978311631447479}},"9":{"bias":0.21134620216267114,"weights":{"0":0.3075502104112951,"1":0.4153409892091,"2":0.4885414404487754,"3":0.0761300658317312,"4":0.4334187638083933,"5":0.38209980153396017,"6":0.9820230792116581,"7":1.1569422866839532,"8":0.7269988220222764,"9":0.3268796124333827,"10":-1.1256824110315506,"11":-0.11403574672706182,"12":0.9470586778106876,"13":-0.6039378779969767,"14":-0.22405475205265796,"15":-0.21769540822360592,"16":0.5084344289920956,"17":-0.026212149542979613,"18":-0.008959624743044644,"19":-0.6304493898872552,"20":-1.1699982782405476,"21":-0.764999885501503,"22":-0.2615595611988462,"23":0.14936077994728716,"24":-0.6623169420033304,"25":-1.2267689054462043,"26":-0.4416145701538222,"27":-0.24402891918761282,"28":-0.3392599464357582,"29":-0.2489988418854269,"30":0.14833153123140908,"31":0.384825687728927,"32":0.5210105005996872,"33":0.24675318278400096,"34":-0.09981958874808976,"35":-0.5794261320654013,"36":0.22483422859703406,"37":-0.503615997633392,"38":-0.5977953407296619,"39":0.6974349321629283,"40":1.4066484940125483,"41":1.2610384679016942,"42":1.5055479285381186,"43":0.4624294462370161,"44":0.842499332304732,"45":-0.41216229153876244,"46":-0.5220637707351438,"47":-0.809280994149279,"48":-0.644251828151241,"49":0.216774608904143,"50":0.5076950758021308,"51":0.5462244723599458,"52":0.06398177456553363,"53":0.6098212584120408,"54":0.4262112460037493,"55":-0.3874952059307643,"56":-0.4440169369950117,"57":-0.2400726312142119,"58":-0.633512815684087,"59":-0.3542240902823591,"60":0.9920067120783063,"61":0.2679081863595599,"62":0.2654623406911426,"63":-0.44601581986272715,"64":-1.172410208307169,"65":-0.9159616843471038,"66":-0.3121751020865758,"67":-0.130363988084324,"68":0.11616252603895892,"69":0.7232911194062913,"70":-0.3263140481284512,"71":-1.2465496504347624,"72":-0.8844589734955337,"73":0.04284460930876121,"74":0.0775519449666184,"75":-0.15056461211758002,"76":-0.34760656591193545,"77":-0.06779159148637871,"78":-0.09829208273556249,"79":0.49501265614770595,"80":-0.9339828993791763,"81":-0.24554733017507943,"82":-0.18777941250667723,"83":0.268663520878577,"84":0.559900165792108,"85":0.493021502122493,"86":0.2301455133667056,"87":0.1782070219019752,"88":-0.23929466700934818,"89":-0.1870672080785677,"90":-0.5096583336051145,"91":-0.08163579403808546,"92":0.06931167288143394,"93":-0.12920559251828181,"94":-0.10758570814231089,"95":0.36283926558687,"96":0.5023908120455177,"97":0.0035911537843774832,"98":0.136909251984007,"99":-0.27693723344087584}},"10":{"bias":0.2964946805854693,"weights":{"0":1.0103264005550057,"1":0.740623614285325,"2":0.2012872016655705,"3":-0.4872468468147793,"4":-0.8883636083426864,"5":-0.5216612152879837,"6":-0.4038117498667702,"7":0.1762352582226691,"8":0.2147205171830434,"9":0.9005358719527934,"10":1.4310089031873352,"11":0.9529517478846697,"12":-0.6930541498305528,"13":-0.1370280464559538,"14":-0.8121691715759004,"15":-0.4333673220324618,"16":-0.6476335585778624,"17":-0.4246365845244671,"18":0.4931735562712847,"19":1.1722668688302595,"20":0.8975538747350964,"21":1.0298961611012858,"22":0.42249162887202474,"23":0.09942166179008692,"24":-0.49065034581948014,"25":-0.9256657152196202,"26":0.4414051785232871,"27":-0.35128741631871396,"28":0.42877215504920196,"29":0.29509806093968555,"30":-0.05189298445688517,"31":-0.3314943171732343,"32":-0.6478603712014731,"33":0.06437221336650607,"34":0.07570154047308865,"35":-0.6164204462730959,"36":-0.23702582419016285,"37":-0.14956900044053711,"38":-0.20800024265646727,"39":0.3077678160793187,"40":0.40585073663786825,"41":-0.8327025202861964,"42":-0.9961899813150964,"43":-0.08357207822790819,"44":0.4611163520431576,"45":-0.15866844333240201,"46":-0.5930534532280074,"47":-0.39726587255360524,"48":0.7827494526811921,"49":-0.06861548295491367,"50":-1.3036151934226234,"51":-1.1215018240540005,"52":-0.9209618511423492,"53":0.017740016018752656,"54":0.396740162279659,"55":-0.27629067034325966,"56":-0.09911701508233721,"57":0.18713530377924853,"58":0.4122729044096978,"59":0.028384587968519604,"60":0.33168548332207326,"61":-0.15836335665973164,"62":0.12575676799552185,"63":-0.011351888057135287,"64":0.38238100274900927,"65":0.8854908824354446,"66":-0.1530245535895102,"67":0.18848690139739235,"68":0.21467430900789913,"69":-0.14544040296471544,"70":0.7853465354885142,"71":0.6267614546635919,"72":-0.1464536893462388,"73":0.9814778184194719,"74":-0.26934830596579756,"75":0.5768248081303042,"76":0.2839487917065348,"77":0.3525572367049933,"78":-0.005341776290244726,"79":-0.4671419140221959,"80":-0.6365235860624927,"81":0.061175120365945516,"82":0.5058874567112934,"83":0.3354095015260848,"84":0.5765881319443515,"85":0.5452752888495467,"86":0.8394866636710748,"87":0.4101691290852462,"88":0.37352197331696463,"89":0.022923932260318188,"90":-0.7334295677728271,"91":-0.8489749509710457,"92":-0.07110909980772001,"93":-0.3871172310282154,"94":-0.14816297300182157,"95":0.5353971791284381,"96":0.4871996816584909,"97":0.48095657102676354,"98":-0.7556691563474766,"99":-0.5369464740818882}},"11":{"bias":0.3237725778737197,"weights":{"0":0.2782425061657601,"1":-0.15177720036082074,"2":-0.9550022930480594,"3":-0.8307813978234427,"4":-0.1077415148532641,"5":0.07180481299271906,"6":-0.18715383640183716,"7":0.14146294795206818,"8":-0.22707458352933618,"9":-0.5338319865609386,"10":-0.3454749476680022,"11":0.22511280699011163,"12":-0.7460777637207158,"13":0.29766912275795726,"14":0.184463032875302,"15":-0.19539197589146548,"16":-0.19731157594700924,"17":-0.5636424083266305,"18":0.03785424134721981,"19":-0.3372978049646205,"20":0.7043630683475226,"21":0.3901815415070001,"22":0.3679308553103404,"23":-0.12272509803829187,"24":-0.10147965308325654,"25":-0.10077602276660574,"26":0.18218299169266244,"27":-0.690792069922415,"28":-0.4828801419484878,"29":-0.5583130575523291,"30":-0.5004499540451791,"31":-0.32531840664881545,"32":-0.06978342873433556,"33":0.07246158357731293,"34":1.7312399906615852,"35":0.5018793488981884,"36":0.5194310761847518,"37":-0.2552208736208881,"38":0.15642845768660188,"39":-0.0021459175631529694,"40":-0.3764382236632018,"41":-0.9453635172322404,"42":0.10280336416370313,"43":0.7632104275180457,"44":1.6162875339419456,"45":0.1855632938599234,"46":-0.5021077919348516,"47":-0.8907347565703293,"48":-0.15740397108632778,"49":-0.29932705588974845,"50":-0.3036168138511621,"51":-0.4301141624071911,"52":-0.12744829324055093,"53":0.9128870930880971,"54":0.8761926572010829,"55":0.2246243423887228,"56":-0.46250945791322995,"57":-0.07367765900609259,"58":-0.5589962741161406,"59":-0.5249943793295317,"60":0.7399507233851812,"61":-0.37072523920913886,"62":1.1551113137646132,"63":0.0944506620414298,"64":-0.10898115448012105,"65":-0.40386576493997944,"66":-0.8381901922169365,"67":-0.44019438909480413,"68":-0.5603954830477551,"69":-0.1883695214887563,"70":1.0387405282914473,"71":0.6513269230650284,"72":1.1703699499779807,"73":-0.19046065431276515,"74":0.21692374853448773,"75":-0.1606911292573121,"76":-0.2563151237070185,"77":-0.20959492639098806,"78":0.34868372360079763,"79":0.11554673728429438,"80":0.3654721955954731,"81":0.02624802813243357,"82":-0.13277039684123548,"83":0.5220811150494923,"84":0.660688435512875,"85":0.290254362156564,"86":0.4928931295278943,"87":0.15461944186468313,"88":0.7319263497561178,"89":0.1664171386828099,"90":0.10891372136186157,"91":-0.14593513664632238,"92":-1.399144958508242,"93":-0.5154633578400427,"94":0.598269514774001,"95":0.6464002142623618,"96":0.11085925379361476,"97":-0.09801570948535168,"98":0.6249173713476797,"99":-0.08974504248291308}},"12":{"bias":0.8155369565928449,"weights":{"0":0.4004903028961096,"1":0.6973241706763914,"2":0.21787296598863742,"3":-0.4904534641209896,"4":-1.0258298154263974,"5":-1.0729156252566834,"6":0.2605391618949177,"7":-0.10491608754511339,"8":0.7546713408846127,"9":-0.4632469727817942,"10":1.527254458757776,"11":0.9420328359253796,"12":0.2342325029273671,"13":0.20201945999543652,"14":-0.5541419597368885,"15":-0.7234978180533672,"16":0.7048465901141903,"17":0.38031609244401565,"18":0.5991064306569,"19":0.04586439582662572,"20":0.37028085551708745,"21":0.7404078105743123,"22":0.4559379111443821,"23":0.9558690944539879,"24":0.24204317955235383,"25":-0.1267831148345578,"26":-0.0025795359331915652,"27":0.4124506764895025,"28":0.6395442870093075,"29":-0.46333971036918087,"30":-0.6661578987198118,"31":-0.11225043255480235,"32":-0.7016193627243957,"33":-1.390136874274371,"34":-1.3709935660308614,"35":-0.38858766066307154,"36":-0.8604018012304625,"37":-0.5773145460626629,"38":-0.35973246847166546,"39":-0.7722277435200395,"40":0.11441088604002843,"41":0.012301845139864988,"42":-0.6423888725082246,"43":-1.3525723488187043,"44":-0.8237826972813551,"45":0.04164155025859917,"46":-1.0023328142778074,"47":-0.14266203683678208,"48":-0.2108838532403729,"49":0.15356052640964324,"50":0.32327145530654283,"51":-0.16112976271057697,"52":-0.699949710078072,"53":-0.2637284274055296,"54":-0.3273311488560391,"55":0.6819078869161869,"56":0.048868693545029734,"57":-0.39582122914220325,"58":0.669258449585281,"59":0.4603988179208658,"60":0.1962867197750464,"61":0.4985066362360175,"62":-0.5498954186577033,"63":0.19718503352125213,"64":0.37865042128538956,"65":1.2423221686721992,"66":-0.6424579547467756,"67":-0.22133605025892966,"68":0.35468867565001627,"69":-0.10236096587151494,"70":0.3882229368373472,"71":0.10930325225414918,"72":-0.5202068441784817,"73":1.0317632768267424,"74":0.8046652466204621,"75":0.20207178407540566,"76":-0.01615802155388715,"77":-0.05918081703966146,"78":-0.012659069603375536,"79":-0.16017982083331028,"80":0.34379708202779197,"81":-0.6829630236941446,"82":0.2985663942352857,"83":-0.010191783342633192,"84":0.2726917318317463,"85":-0.31468800141806286,"86":-0.20322694729755145,"87":0.3285255822828921,"88":0.5331551956525584,"89":0.1266141009772045,"90":-1.047998075293342,"91":-1.2614461521841749,"92":0.05372547569866419,"93":0.1664951532655541,"94":-0.14913336368407026,"95":-0.5842693625177032,"96":0.1406418661423794,"97":0.2621116441724865,"98":0.5018315516326844,"99":-0.00864127568853077}},"13":{"bias":0.1933674083453438,"weights":{"0":-1.5716980660885207,"1":-0.25871873276824797,"2":1.5249007180574898,"3":0.05708798057756481,"4":0.6063793023170192,"5":1.0571277363849867,"6":0.6153647864983394,"7":0.7370002259755073,"8":0.5897430547608101,"9":0.29298536747108483,"10":-0.8223014954756744,"11":-0.4793739186155031,"12":-0.2981021261630901,"13":1.109974638169188,"14":0.8195547139874652,"15":0.8514795548831205,"16":0.798265946721473,"17":0.09214755634681145,"18":0.038930435217788044,"19":-0.1449609347800501,"20":0.8973020289607142,"21":-0.1875537693119924,"22":-0.04985299846026854,"23":1.1742271289894557,"24":0.6165537483896936,"25":0.08850182579384418,"26":0.7479572345206282,"27":0.3705917145956887,"28":0.5169990564176693,"29":0.32085576776264546,"30":0.11123688505143516,"31":-0.2271171444247456,"32":-0.4843809656290087,"33":0.4317407016287785,"34":0.003170287891806828,"35":-0.5288475046418594,"36":0.2568169237660175,"37":0.1477659337159511,"38":-0.14360641608598396,"39":0.04742834273567489,"40":-0.2872113185264038,"41":-0.3881159990593656,"42":-0.4963419657854863,"43":0.13297432433062464,"44":0.3550201310030938,"45":-0.34203150365586404,"46":0.3644967080809312,"47":0.3067032534366472,"48":-0.15716452840156156,"49":-0.3353628046058748,"50":-1.4701930756805466,"51":-0.5913948706518131,"52":-0.5588663570757575,"53":-0.8561362133246904,"54":-0.7920759217041452,"55":-0.10958327773413232,"56":-0.3343363707117893,"57":0.05785473219859445,"58":-0.23480183549377517,"59":-0.0983707228502323,"60":0.36644773591738616,"61":-0.7642008972418963,"62":-0.6308088171111905,"63":-0.8932931489350072,"64":-0.4713159778375784,"65":-0.5957798092659295,"66":-1.0669708566091594,"67":-0.6103250066935314,"68":-0.1661073287263228,"69":0.014562982946403236,"70":1.1100323163163666,"71":0.0743745719515778,"72":-0.34373901891810016,"73":-0.2841324249788485,"74":-0.345356656110289,"75":-0.007236833150127112,"76":-0.27089698624308095,"77":-0.7613383642773537,"78":0.09287265044422545,"79":-0.5555090502033053,"80":1.5396642092273125,"81":0.32213437313137255,"82":0.2679809308178308,"83":0.14088618999136718,"84":0.11175224586141823,"85":-0.3418860752248662,"86":0.3041913573279323,"87":-0.3416656110306857,"88":0.09585323098703172,"89":0.016949310579627574,"90":0.003114129653156554,"91":0.7051157297746437,"92":1.4264599970363727,"93":-0.6989422909171668,"94":-0.40152112847641963,"95":-0.9691794497589028,"96":-0.3429360374027354,"97":-0.83265729865985,"98":-0.3379606395753204,"99":-0.3534587045459973}},"14":{"bias":-0.00018605116021148087,"weights":{"0":0.413744351143806,"1":0.6674161953705663,"2":0.9493829139823442,"3":-0.14381245661167893,"4":0.47619655361662944,"5":0.34816893308851293,"6":0.020371766015138626,"7":0.6618495016564035,"8":0.1988483813532332,"9":-0.04755159523255541,"10":0.11572461785166338,"11":0.0927246626738311,"12":0.21736827809737558,"13":0.6169595047939453,"14":0.5283665409196446,"15":-0.10741051092044344,"16":0.7229916055352409,"17":0.4662808550935408,"18":0.18048373944344387,"19":-0.1808299351823896,"20":0.035697339214778155,"21":0.5341759829134979,"22":1.1116780914479747,"23":1.603111554113653,"24":0.4742662935447206,"25":0.15928345752627604,"26":-0.21628332793254854,"27":-0.007037627586201086,"28":-0.1469908171412252,"29":-0.34997363988493413,"30":-1.1215033400760863,"31":0.08384359720745947,"32":0.2491857440674486,"33":0.6698984216393461,"34":0.7070985458698082,"35":0.5701211212561011,"36":0.17039398776637252,"37":-0.2942810070246739,"38":-0.3409328639658054,"39":-0.1389532283036858,"40":0.029134432683162036,"41":0.2431007429747103,"42":-0.014354146386162092,"43":-0.906862425746573,"44":-0.08917085142625142,"45":0.7140983746436352,"46":-0.6029840493572287,"47":-1.253667563642462,"48":0.002533039069162702,"49":0.3698347680391392,"50":0.9412420526601356,"51":-0.38681055031517564,"52":-0.5757970512945044,"53":-1.0135893358040398,"54":0.020551338294468636,"55":0.43676188780513436,"56":-0.2529794272387192,"57":-1.251572388311698,"58":-0.3035572860240489,"59":-0.06032828201815133,"60":-0.23368410754805505,"61":0.25847427836169906,"62":-0.5401479005641547,"63":-0.6099097275281353,"64":-0.3617465874265169,"65":0.6039954792102274,"66":-0.2480357888225381,"67":-0.020340565589005113,"68":-0.24358842796640806,"69":0.0797252656660095,"70":1.5275888822035322,"71":0.23329474190221366,"72":-0.6341927772555533,"73":-0.7356944647588046,"74":-1.2043339434941183,"75":0.46465871490237426,"76":-0.35144895738572673,"77":-0.23237487865715784,"78":0.6600473599549523,"79":0.5804934079395982,"80":1.3067436925660083,"81":-0.20764449713694005,"82":-0.7679378597883328,"83":-1.4780878745455028,"84":-0.9499664509495088,"85":-0.4149851086949693,"86":-0.6222118550018653,"87":0.12857258473570524,"88":0.36605383016434156,"89":1.0842330486348137,"90":-1.2204080188396442,"91":-0.524816230129656,"92":-0.05340531862284074,"93":-0.3663509387371194,"94":-0.7276197896679224,"95":-0.27715291980276924,"96":0.2499474887609349,"97":0.19286454646034545,"98":0.38969399898619883,"99":0.3498870113282551}},"15":{"bias":0.4005408743770741,"weights":{"0":-1.527803308516745,"1":0.46546727974089164,"2":0.9912747911767753,"3":1.3729957499677097,"4":0.7481899514744952,"5":-0.030484212320494784,"6":0.4362445188235032,"7":0.13503841311173706,"8":0.17490742787769692,"9":-1.0978713658242383,"10":-0.3668530257523308,"11":0.02133424501319783,"12":0.44673741842551845,"13":1.1963043321079887,"14":0.5761642389752233,"15":-0.18740177229393812,"16":0.25033131283238963,"17":-1.0498994590864124,"18":-0.664513736919281,"19":-1.0737105446379616,"20":-0.49546907398509055,"21":-0.4261429452027969,"22":0.5697030378162076,"23":-0.13458497218566506,"24":-0.17280187232925065,"25":0.2791254550325637,"26":0.45473418408627553,"27":-1.0682699850414563,"28":-0.7716442189628397,"29":-0.6930079449461121,"30":-0.977748686844153,"31":-0.33687377871437774,"32":0.28913827945505977,"33":-0.5557645549036959,"34":-1.225336810346826,"35":-0.5349669488872646,"36":-0.2294982968247707,"37":-0.836234260222166,"38":-0.62425231951345,"39":-0.25497816912830823,"40":-1.7270654712516686,"41":-1.1809959863122548,"42":-0.8656626708241416,"43":-0.5750646199491146,"44":-0.5157321819393056,"45":0.02021569346743023,"46":0.7249513288568395,"47":0.5755400618305365,"48":0.013914420994465767,"49":0.25650340489094386,"50":-0.5107760701917488,"51":0.22540956244262192,"52":-0.9078161046604464,"53":0.1343177157286155,"54":0.33733334350168354,"55":0.6501462680114071,"56":0.5098007744013507,"57":0.5277723619049695,"58":0.43747476335922725,"59":0.7989612647694571,"60":1.16573200844398,"61":0.5613324407023148,"62":0.08150833896099026,"63":-0.054599056314577406,"64":0.2453025010600129,"65":0.17706016805911154,"66":0.627826811491833,"67":0.666911292132263,"68":0.4565131828878739,"69":0.3444623865241418,"70":0.22251277985914528,"71":0.6636219803368366,"72":1.5720917377388481,"73":0.37181360545636166,"74":-0.2440806383335722,"75":-1.1100628489291502,"76":-0.44652490222062474,"77":0.10639209419249879,"78":-0.7636655827660697,"79":0.25287464337462445,"80":-0.34150530730443646,"81":0.580685404443439,"82":0.7161185092100443,"83":-0.22159003292133156,"84":-0.6830501633823414,"85":-0.5734318404799293,"86":-0.21679310020367912,"87":-0.09763876474666311,"88":-0.3281358925931896,"89":-0.05922812229748767,"90":-0.4704999877601904,"91":0.28838704324463127,"92":0.10810495045731254,"93":-0.9287852691832242,"94":-0.14401913425251278,"95":-0.13822446917848616,"96":0.5582678412567914,"97":0.3468962811083837,"98":-0.5024896928947186,"99":-0.4295539119102218}},"16":{"bias":0.13873427694152182,"weights":{"0":0.3296154830537033,"1":0.6010762738100585,"2":-0.039471544137753965,"3":0.18657974404055547,"4":0.5931666765456323,"5":0.5688806845704305,"6":0.0769524442839916,"7":0.5862081783240847,"8":0.6642503303893759,"9":1.285924109288297,"10":-0.486954968196729,"11":-0.5561410723542666,"12":-0.004263516855391941,"13":-0.06740572658653332,"14":0.32784481274643484,"15":0.6209998836692946,"16":-0.03918530768740709,"17":-0.2701879106204625,"18":-0.23511703025486855,"19":0.4244331458624489,"20":0.36155871362729086,"21":-0.3269563854571045,"22":-0.1009441115774702,"23":0.3425431764329674,"24":0.4452320593828455,"25":1.0274562297821153,"26":0.33166907199271634,"27":0.07455725028848552,"28":-0.19439708998614327,"29":0.1467945068239711,"30":-0.2822470613910409,"31":0.5386464374066877,"32":-0.01143953142690257,"33":0.008678379283463015,"34":-0.05328604023509776,"35":0.19564204033269036,"36":-0.020783560809531497,"37":0.04925418689776128,"38":-0.32394573046264674,"39":-0.28506642798870224,"40":0.2603318221746149,"41":0.7834911172426908,"42":0.31637108506846184,"43":1.035865794734795,"44":-0.3437101487189162,"45":-0.26449906640464627,"46":-0.22964891299342513,"47":-0.4582054689354008,"48":-1.2733574645562407,"49":-0.7378964819401969,"50":0.6775865703228212,"51":-0.2935083408637204,"52":-0.38226080745226737,"53":0.883651477843264,"54":0.02429819567022011,"55":-0.6507878042016519,"56":-0.5656637110297144,"57":-1.1767799199352058,"58":-0.8370996489412128,"59":-0.8572862177933245,"60":0.5527245555534748,"61":0.25156209628795095,"62":0.9092711352494772,"63":0.8465096976242031,"64":-0.49525526033768946,"65":-1.2250614959901986,"66":-0.351029840373145,"67":-0.2305597302945757,"68":-0.6149591597714043,"69":-0.7003097742286155,"70":0.6987759161980994,"71":-0.5176191462884635,"72":0.0036223128796516717,"73":0.38344771118075216,"74":-1.1241400618236612,"75":-0.8721314389778786,"76":0.04204974164076212,"77":0.2112571303537366,"78":0.342023812476571,"79":-0.22671263861122887,"80":0.6944367079396825,"81":-0.8133967659448461,"82":-0.12555331783495033,"83":-0.1434627885681568,"84":-1.751429469735577,"85":-0.47355836302557996,"86":0.037238157093540246,"87":0.587349675675494,"88":0.3850862146029832,"89":0.48851043363883356,"90":-0.28915712627513934,"91":-0.8958281143834593,"92":-0.22786345289011692,"93":-0.23445002928246628,"94":-0.9677702614600747,"95":0.015233776812237062,"96":0.26103112565869163,"97":0.15273143141652748,"98":0.3633928304356165,"99":0.6755056556270767}},"17":{"bias":-0.2075191584709478,"weights":{"0":-0.9633739456423347,"1":-0.1587502711175243,"2":0.02435649724842248,"3":-0.37938003826992345,"4":-0.8933544789728789,"5":-0.3211275412275274,"6":-0.45759880842603845,"7":0.9058713571480694,"8":0.2669286992376982,"9":0.6501961015169726,"10":0.4850363226614995,"11":0.7649002120426401,"12":0.254805294555658,"13":-0.13624207330759316,"14":-0.427444899894618,"15":-0.07493804866714242,"16":-0.476820782036425,"17":0.6572021102226125,"18":0.01868076862588099,"19":0.9828467190288369,"20":0.8455604610264187,"21":0.2623860770909375,"22":-0.2519051492007282,"23":0.034424388042110336,"24":0.9715948719673887,"25":0.09974672710752545,"26":-0.7929140039765498,"27":0.17686786202105562,"28":0.9723215804980755,"29":0.7939929241604258,"30":0.8006845279685113,"31":-0.052614680789800174,"32":-0.46346113919790877,"33":0.30818393642608205,"34":0.6121890215948335,"35":-0.1884544954532016,"36":-0.6411403680606891,"37":0.3296487759521384,"38":0.1140688213764899,"39":0.23514355975872453,"40":0.35298912742003036,"41":0.29007064237735347,"42":-0.05238278038865244,"43":-0.4465405694287079,"44":-0.2171608803350189,"45":-0.7431284730636241,"46":-0.11276271883182379,"47":0.17397191771988557,"48":-0.11401097044963086,"49":-0.28453903000155956,"50":-0.0852170588745578,"51":0.9415250684843565,"52":0.6236351300979188,"53":-0.7799811458178441,"54":-0.2852877355972501,"55":-0.43936096548860426,"56":-0.7872582742972314,"57":-0.08853664325196176,"58":-0.4819551654312048,"59":-0.06774772813036976,"60":0.5117517840948748,"61":0.04743815218636916,"62":0.8113430071301707,"63":-0.2282540958654164,"64":-0.04348192952841949,"65":-1.0705818548986128,"66":-0.694754274610998,"67":-0.4118284195197887,"68":-0.001887572954449931,"69":0.2190228478556776,"70":0.34426262411057973,"71":-0.048269237258387214,"72":-0.17768275921864315,"73":0.4954687693785218,"74":0.04065991847122105,"75":-0.5040851627788477,"76":-0.7438161887814004,"77":0.060181948869327866,"78":0.3883344073878019,"79":0.13847690501234133,"80":-1.3564507387838851,"81":-0.605487072943427,"82":-0.45402889080554193,"83":-0.05449481757775665,"84":0.638451879607849,"85":0.6025667582958212,"86":1.2659548528512783,"87":0.06877536438390887,"88":0.20032439965527365,"89":-0.09764014677138133,"90":-0.7253481949604673,"91":-0.19070083091563603,"92":-0.4254463085419697,"93":0.05310994093360036,"94":0.7181047770082658,"95":1.5755846383190104,"96":1.2894885990299476,"97":0.6956538013008334,"98":0.1362969391417441,"99":0.032569401340963346}},"18":{"bias":0.10629958306546773,"weights":{"0":-0.16982836898162812,"1":-1.0988736720306993,"2":-0.5373962604136292,"3":0.5457845179438179,"4":0.11269266335733336,"5":-0.7355208690940789,"6":0.12366504428716131,"7":-0.342021440359088,"8":-0.4780825540365175,"9":-0.4085887208846119,"10":0.08520059360425075,"11":-0.09382631634742983,"12":0.3203518816443789,"13":0.11463644455316314,"14":-0.4969698199129974,"15":-0.6241270913294003,"16":0.3944827486777447,"17":0.4250542786929222,"18":0.272798360725512,"19":-0.2715880096537749,"20":-1.1365569406627103,"21":0.03711163723394806,"22":0.4876898589368613,"23":0.3579517614281783,"24":-1.0833727870587777,"25":-0.2053222364141949,"26":-0.17982109336793378,"27":0.6957299413905952,"28":0.04478798249659374,"29":0.49999879007539333,"30":-0.3708414801537061,"31":1.033486836065732,"32":1.5748148771706183,"33":1.27476422038924,"34":-0.14911658993835242,"35":-0.25679287362703423,"36":0.6707628265908112,"37":-0.019740205528552848,"38":0.3242473568108818,"39":0.20303728834428222,"40":-0.02351111297835569,"41":0.7786292235282606,"42":1.0211464938158628,"43":0.7759244100011736,"44":-0.0964797567751172,"45":-0.3739202475683147,"46":0.10511333559508294,"47":-0.592952106550217,"48":0.244297891346811,"49":0.21846662722879998,"50":0.03283637388731368,"51":0.6194432544717994,"52":0.16127122149183992,"53":-0.7766222948791356,"54":-1.0621378237588008,"55":-0.07107532146678577,"56":-0.045312470666258625,"57":-1.0101401318880077,"58":0.02460387719756247,"59":0.22957268545823495,"60":-0.5434501073380307,"61":1.0394344861401297,"62":-0.7533139508480562,"63":-1.6500600399430436,"64":-0.11653279664572763,"65":1.1707747465947609,"66":-0.19399752284412472,"67":-0.3189976008364056,"68":-0.30525431820806265,"69":0.02565898358090429,"70":-0.6278790801250889,"71":-0.012331189566156541,"72":-1.0188470246600019,"73":-0.760241206006053,"74":-0.3682689152361383,"75":0.9021488247408967,"76":-0.3815626799015498,"77":0.2497100971987386,"78":-0.0159228433709301,"79":-0.04189723270850475,"80":0.159771238007486,"81":0.21282043350696472,"82":0.10134766116776485,"83":-0.21984629724617205,"84":0.08605805264603782,"85":0.750337823763027,"86":-0.05355684924284631,"87":-0.24516448457285098,"88":-0.0994747199700155,"89":-0.1330446430794654,"90":0.00729029572757614,"91":-0.3876859140880185,"92":0.03333544623700707,"93":-0.3985624630887298,"94":-0.44427229651930905,"95":-0.25756702658881997,"96":0.11824621713799768,"97":-0.044638766992421385,"98":-0.058425605285683996,"99":0.06050766150219279}},"19":{"bias":0.1473031673882121,"weights":{"0":-0.6050982891266512,"1":0.3726887752329479,"2":-0.5994381608270966,"3":0.3052476031652342,"4":0.6913545501501351,"5":0.9040743805693358,"6":-0.6740240016833624,"7":0.2332739387732602,"8":0.4869163327912646,"9":0.4690931014653848,"10":0.5518121044222635,"11":-0.4751122388016718,"12":-0.5656577239291625,"13":-0.28730416297028866,"14":0.5294700438086485,"15":1.044140643059957,"16":0.13498334985326585,"17":0.5181480174563504,"18":0.7873957744380069,"19":0.4988911289074676,"20":0.2874474653545914,"21":-0.18111343457104795,"22":-0.6781507322308279,"23":-1.0785767197125833,"24":0.6069749872355489,"25":1.3131280153715208,"26":0.3137495008308069,"27":0.2714126384837544,"28":0.6196344786255988,"29":0.6692640189768956,"30":0.40067741644693766,"31":-0.8034734601283684,"32":-0.4427494785692682,"33":-0.10480848492371404,"34":-0.20166222744284953,"35":0.10175325906496754,"36":-0.3449776507333293,"37":-0.10120091792827253,"38":-0.06946546228844054,"39":0.11916837198023737,"40":0.05968640524471758,"41":-0.20075008323362187,"42":-0.19576416073194586,"43":0.053122886196078266,"44":0.04763244797811046,"45":0.047168593578330587,"46":-0.6056294669048976,"47":0.057118738014735396,"48":-0.8819137767195838,"49":-0.0694030661246666,"50":0.2502913255724494,"51":-0.07641737831971272,"52":0.3719197917756611,"53":0.10791966579476592,"54":-0.26540686933281155,"55":0.3497086806765544,"56":-0.026919862713911634,"57":-0.28392320979349145,"58":-0.6403634882809202,"59":-0.7113252688679282,"60":0.11555929751131744,"61":-0.03892693545759622,"62":-0.7101422096814092,"63":0.09749828000142341,"64":0.38344663988127575,"65":0.612902396238632,"66":0.4781466484187751,"67":-0.30902364371251173,"68":-0.4873960900653262,"69":-0.5767130680699066,"70":0.24537147128916095,"71":-0.36931114367240175,"72":-0.6296027247313037,"73":-0.3934353555823034,"74":0.7209391273361624,"75":0.7975308527494853,"76":0.4732954725978026,"77":-0.4460655393745557,"78":0.13731768409309858,"79":0.07962076915129719,"80":-0.9610394221677929,"81":-0.7081177683666596,"82":-0.4376112424595195,"83":-0.004353347981847189,"84":0.23507788732140936,"85":0.349561674098782,"86":0.9310425131155475,"87":0.6263370706736666,"88":0.01345610682290775,"89":-0.5909905245621274,"90":-0.7205025549361381,"91":-1.5476573815456334,"92":-0.2584281223868168,"93":0.1497114433141635,"94":0.3659172407404763,"95":0.5559573240370156,"96":0.6916990853257069,"97":0.2403532836241214,"98":0.2664306089630235,"99":-0.2630506762922574}},"20":{"bias":0.6901900722700368,"weights":{"0":-2.2116654525951653,"1":-0.42194540923696355,"2":0.323072510035545,"3":0.7495924694461297,"4":-0.21395074314186033,"5":1.1240578891922945,"6":0.29530640414760323,"7":0.33867543335646627,"8":0.4282368569425787,"9":0.15230919178876678,"10":-1.8760353239215313,"11":-0.6124688483551484,"12":1.2108317979343337,"13":-0.2916536942754416,"14":-0.06704969153487678,"15":0.24106833805984332,"16":-0.2114360307163667,"17":0.794316488266237,"18":0.4773005252217567,"19":0.43583622819309575,"20":-0.7310232836558593,"21":-0.6322411628314791,"22":-0.9126811228608787,"23":0.30527366900066455,"24":-0.9794365994806286,"25":0.056467451910850716,"26":-0.012528221005804002,"27":0.5984524690077152,"28":0.7068556576774295,"29":0.4928891811826111,"30":-0.481797146779009,"31":-0.5351401613042799,"32":-1.728595128845764,"33":-0.28256714368324526,"34":0.3821689460163022,"35":-0.7431483656070484,"36":-0.7149088341516944,"37":0.47249126494988003,"38":-0.010520802273572155,"39":0.22072391085905763,"40":0.524576317667612,"41":0.27998440866214214,"42":0.15103973730026896,"43":0.25468951754196834,"44":0.7344225410550013,"45":-0.595290694822258,"46":-0.25114008759988676,"47":0.5131692688837213,"48":-0.20131313693344227,"49":0.21108028063950726,"50":0.13281012538625284,"51":0.4415181446746682,"52":-0.014128753388626566,"53":-0.36225639501177886,"54":-0.22259115625812353,"55":0.19522308281472844,"56":-0.3733041501773169,"57":0.6960072533174063,"58":-0.32044592768751107,"59":-0.24372493006422122,"60":0.7828970145212231,"61":0.26951352050269667,"62":0.017432594553220156,"63":0.31927125912871945,"64":0.5263413240045626,"65":0.6633219927302526,"66":-0.34918674242072073,"67":0.11402935714705059,"68":-0.20667124980557758,"69":-0.17159634632064036,"70":1.3833424756493191,"71":0.8003311791551497,"72":-0.14502744707376866,"73":0.2855932243855817,"74":-0.7756325432976823,"75":0.2463737631932664,"76":-0.2083120856841584,"77":-0.11655000713739962,"78":0.36613215306860986,"79":-0.023323023982482646,"80":0.36206425315029056,"81":0.1822418429747275,"82":0.16707074576917377,"83":-0.29392237589641645,"84":-0.49775344516901865,"85":0.1999742476904203,"86":-0.29590621038265535,"87":-0.14766553159532544,"88":0.4032856024111643,"89":0.07911641801697887,"90":0.305484602657564,"91":0.0971324292083257,"92":0.06729516173203537,"93":-0.37847100567607944,"94":-0.2617010446498521,"95":0.22259683409366046,"96":0.5624026819203046,"97":0.6448476750803103,"98":0.21575296449961387,"99":-0.052709439319039944}},"21":{"bias":0.022508692323524593,"weights":{"0":-1.366417853420816,"1":0.18620383020334988,"2":0.18177444393489675,"3":-0.6518762565564545,"4":0.26857951101725697,"5":0.7745801659846692,"6":-0.07522947418023088,"7":-0.3189883471217429,"8":-0.033058742950851226,"9":0.01580625704092886,"10":-0.3673657658760121,"11":0.09293152128600758,"12":-0.2866591653978454,"13":-0.3056778303039181,"14":-0.32887015835234706,"15":0.7395228921387274,"16":-0.1131171342922121,"17":-0.24527733101488572,"18":-0.5127742383193281,"19":-0.31934212350730984,"20":0.3208761341961818,"21":0.3808307797799611,"22":-0.5641616937837214,"23":0.5696176867455595,"24":0.9442880396227138,"25":0.8378683717214345,"26":0.36665029129057664,"27":-0.5060772297712336,"28":0.06306411924052811,"29":0.3461492525916475,"30":-1.581999401452444,"31":-0.5985072453220003,"32":-1.1729998192489801,"33":0.2643046206790613,"34":-0.415186576369993,"35":-0.2806066777674873,"36":-0.37942706805929755,"37":-0.7836626223153194,"38":-0.4906290616467785,"39":0.1711954948338756,"40":-0.7901434566263908,"41":-1.055929318643658,"42":-0.14327465028889905,"43":-0.8840528669095934,"44":-1.5885577850452337,"45":-0.18526970492064057,"46":-0.9714753470802191,"47":-0.4621221842158386,"48":-0.024992084437039326,"49":0.2903034538767907,"50":0.28025386340805386,"51":-0.6013736998395706,"52":-0.453506687067801,"53":-0.5861281524598871,"54":-0.8746814698503107,"55":-0.9268024988199686,"56":-0.2802416347494367,"57":-0.4218635532582996,"58":-0.5616363979475799,"59":-0.05336132838092726,"60":0.9376032616913059,"61":0.5425568770206647,"62":0.09928318822568945,"63":0.005117512485549734,"64":-0.1718670235133876,"65":-0.10258552864809782,"66":0.2535060522037286,"67":0.30250991594358845,"68":-0.30084416755363214,"69":0.17988123242406442,"70":1.1310520116775182,"71":1.1498381055336386,"72":1.4380181065587676,"73":-0.20395681516800837,"74":0.9110145878323054,"75":0.5840094201761897,"76":0.41604666761155507,"77":0.30131573266200007,"78":0.2496001259299631,"79":-0.26409595434000205,"80":1.4836772456816676,"81":0.8649589425822396,"82":-0.40197842685003105,"83":0.5233605263854078,"84":0.5305016834182076,"85":0.44253622323728165,"86":0.24213771060579667,"87":0.44529423893234504,"88":0.3867176040873121,"89":0.245841835445479,"90":0.3296526343803983,"91":0.17897803600108989,"92":-0.559872159518641,"93":0.903611505847057,"94":0.4031193415676774,"95":0.136456538499182,"96":0.6746026496316413,"97":-0.1145926201267838,"98":0.3341834790402158,"99":-0.2799063366551726}},"22":{"bias":0.533307258782941,"weights":{"0":1.6415348066231388,"1":0.4249452472906249,"2":-0.025079027885770492,"3":-0.03453327029955557,"4":0.4630091569772411,"5":0.17764903703046867,"6":-0.7604925573284224,"7":-0.2809761676826583,"8":-0.049497747544601504,"9":0.5637361490273,"10":2.10940396792903,"11":0.32965728554538204,"12":-0.16638111481881723,"13":0.3663332872836192,"14":0.11880874491574607,"15":0.4651855767640053,"16":-0.04000298902840922,"17":-0.2084083126181211,"18":-0.2150384471971748,"19":0.4997493690732982,"20":-0.15522980054123456,"21":-0.0007611578868222701,"22":-0.46032776588745844,"23":0.1258590159799079,"24":0.6310263145337034,"25":0.3982713549942201,"26":0.7118192928674881,"27":0.27316285677196434,"28":0.16108327272981637,"29":-0.1370867184227069,"30":-0.09475022382972963,"31":-0.3164034548147011,"32":-0.3823029099592211,"33":-0.07988073915288788,"34":0.024750787634538276,"35":-0.5053223997378553,"36":-0.4208363628170919,"37":0.8237532022289874,"38":0.3270527782151829,"39":0.30440711505617213,"40":-0.09666623295166997,"41":-0.41204211834525456,"42":0.03978270479608248,"43":0.42307215608539633,"44":-0.4079388603042564,"45":-0.45967128980599026,"46":-0.3571198260540016,"47":1.1363189457381182,"48":0.32590197663331194,"49":0.11768602918199249,"50":-1.0160683772603798,"51":-0.23404622129651728,"52":0.5877683433061958,"53":0.49501929021560853,"54":-0.4729677421024418,"55":0.2782236053592196,"56":-0.19620105775244528,"57":0.8181389062140251,"58":0.09724420127851768,"59":-0.15165079608818924,"60":-0.40339224552687475,"61":-0.21453394413302493,"62":0.41020906179689665,"63":0.7059744921437705,"64":0.10362022940580798,"65":-0.24669970534386218,"66":-0.28872950018130056,"67":-0.2998780576129783,"68":-0.3633676564781563,"69":-0.43636149360871457,"70":-0.457502581680336,"71":-0.44993846965980205,"72":-0.3255830108268369,"73":0.32344038397140706,"74":0.7886439304419195,"75":0.037745975134494104,"76":0.22072236847730084,"77":-1.043243862566016,"78":-1.2088292838856065,"79":-0.6234837829270834,"80":0.2325896861125387,"81":-0.6101712075741753,"82":-0.39010876320178656,"83":0.20040106326266932,"84":-0.0715936731620912,"85":-0.4192157376550311,"86":-0.7953961231843618,"87":-0.7793305731875166,"88":-0.7955144317987545,"89":-0.6364550461392614,"90":0.299710208324028,"91":-0.2106860476274438,"92":0.39071148755909146,"93":-0.35513519278422656,"94":-0.5418252000922169,"95":-1.3516129998050688,"96":-1.0360974964912717,"97":-0.9750165308758441,"98":-0.28983627567145864,"99":0.021027502702587582}},"23":{"bias":0.5506766763630707,"weights":{"0":-0.11025056543110862,"1":0.4066452609685991,"2":-0.03039862746285854,"3":-0.3003574970764736,"4":-0.5585464686438403,"5":-0.30221573773332483,"6":0.12948283726965132,"7":-0.49407250640913025,"8":-0.48808591235797183,"9":-0.5671076143498276,"10":0.18259871528341654,"11":0.785216906046513,"12":0.9728775750032892,"13":-0.31933144543772385,"14":-0.13283873855009035,"15":-0.4407353730580157,"16":0.08200740248230155,"17":-0.5667597359575283,"18":-0.3058919917361629,"19":-0.3139092187688241,"20":1.406672812680214,"21":0.37013344630415107,"22":0.8539208958555692,"23":0.005104375367816328,"24":0.27428854655567275,"25":0.01450193502747835,"26":0.3711668106329148,"27":-0.034975011678153436,"28":0.2322450230280527,"29":0.20213671722254384,"30":-0.10040982999215724,"31":0.061521128368723234,"32":-0.15228029235323473,"33":-0.15466691012060654,"34":-0.16712432633774887,"35":-0.4529544714176683,"36":-0.057890816958269926,"37":-0.3893623720422855,"38":0.013551498934639862,"39":-0.2388005494731785,"40":-0.7005531364700675,"41":0.45027378379153177,"42":0.49321548329538417,"43":0.5925808517043348,"44":0.27306625201465656,"45":-0.056729520684849155,"46":-0.32807688601722934,"47":-0.20986434717967284,"48":-0.007610490758613279,"49":0.11660164679901716,"50":-0.5479033999856605,"51":-0.20387688850396954,"52":0.4097744561330201,"53":0.3154909896265454,"54":0.6920380589228935,"55":0.1469970369235297,"56":0.3092922282597258,"57":-0.23125081366459802,"58":0.38803812530305776,"59":0.11467755687403125,"60":0.07407315782540928,"61":-0.7054765111493175,"62":-0.18203050336428783,"63":-0.7203187951604303,"64":0.08888328580864165,"65":0.22375081495628704,"66":0.7053258122877257,"67":0.8744412013404962,"68":0.22157527557559564,"69":0.21639846979715932,"70":-0.1799828761647301,"71":-0.6829411811230325,"72":-0.7587253601819215,"73":0.14728828995881796,"74":0.47639241251494036,"75":0.5069399718889187,"76":0.5818070229218384,"77":0.32752754754902436,"78":0.23747494179142634,"79":0.4009430023655446,"80":-0.7579996919254942,"81":-0.05581946984922714,"82":0.1142869408683953,"83":0.2820384388180636,"84":0.4000634754653453,"85":-0.16057873980699144,"86":-0.15240835232228847,"87":0.08436014240017817,"88":-0.19402881131099695,"89":0.038967565130325704,"90":-2.528161878347994,"91":-0.8991510850958959,"92":-0.36330545724704877,"93":0.21672406143657924,"94":-0.285820936861824,"95":0.1520576443279889,"96":-0.43217195690798416,"97":-0.0692280646601057,"98":-0.3174302784047862,"99":-0.38199246680620824}},"24":{"bias":0.31712140437448527,"weights":{"0":-1.123708902272446,"1":-0.628348672250418,"2":-0.23968151570361743,"3":0.7058210718501613,"4":0.07283851702807012,"5":-0.2783309140806155,"6":0.12877804273990998,"7":0.12533478746962176,"8":-0.03256622907000095,"9":0.08879494778687404,"10":0.5136485284007107,"11":0.15132233360159902,"12":-0.4749121536448599,"13":0.14698496997843888,"14":-0.9412437630678725,"15":-0.9835734612661615,"16":-1.1341534924967733,"17":-0.5626519639961147,"18":0.18955554979825018,"19":-0.24527878940960435,"20":0.12518175240539248,"21":0.11088130013221859,"22":-1.8548050249600265,"23":-0.024926584802469138,"24":-0.5054754094814067,"25":-1.1079967315434465,"26":0.20979780876486503,"27":-0.8790016539976563,"28":-0.3895754813967622,"29":-0.29488634453924656,"30":0.1268826409832834,"31":-0.9903689665739982,"32":-0.896054074059253,"33":0.33776762061393567,"34":0.11490590572430154,"35":0.10392745727508135,"36":-0.3379745756253373,"37":-0.6300065692167279,"38":0.07359442854200889,"39":-0.007688000401590467,"40":0.5157078498610609,"41":-1.777841385217518,"42":-0.5374065800731272,"43":0.2026520060973324,"44":-0.14488582088724153,"45":0.8284932525745354,"46":1.058072620332584,"47":0.39515803497895247,"48":0.6465638224831308,"49":0.0824849017381486,"50":-0.5214578073261443,"51":-0.6129902163876574,"52":-0.437293515930576,"53":0.4717522367009687,"54":-0.1665649555788782,"55":0.8447515149743022,"56":0.8182953360137217,"57":0.9326407112526803,"58":0.996181107628822,"59":0.24951578557295584,"60":0.876343469644124,"61":0.2675371683996484,"62":-0.3088245521863424,"63":1.91336981583415,"64":0.5290946958015409,"65":0.0174555957154053,"66":0.7039061711068341,"67":0.46245066395065165,"68":0.7109695526660718,"69":0.4685145867920234,"70":1.0628064118767107,"71":0.244997455693327,"72":0.7837519527351974,"73":0.32340101061977394,"74":-0.45449791004307677,"75":-1.5974736084388406,"76":0.09259189247556235,"77":-0.09407674597914165,"78":-0.08101164588611254,"79":-0.30945828633271777,"80":-0.19107574419122308,"81":0.5996554986441619,"82":0.8431556268391149,"83":1.3137919584555384,"84":-0.2905141475461785,"85":-0.48895779849406545,"86":0.22112008547903958,"87":-0.5460366964842289,"88":0.08824855622389148,"89":-0.23013192223005588,"90":0.15406038238183475,"91":0.80918402235226,"92":1.1370586826317388,"93":0.014599955860021241,"94":0.2954957087111403,"95":-0.1517697235385643,"96":-0.9267626973219842,"97":-0.16462739673147656,"98":-0.4430466204732951,"99":-0.36331188401611375}},"25":{"bias":0.48500540011493437,"weights":{"0":-0.45444986531879644,"1":0.11221210210610212,"2":0.002923899817624445,"3":1.342975286312744,"4":1.1420712014707164,"5":0.40858751506645047,"6":0.35220690526625437,"7":0.19432133075362448,"8":0.6294058167020299,"9":0.6469554735620651,"10":0.14328490873604258,"11":-0.6034756520422183,"12":-0.26786281190319655,"13":0.7122331310695552,"14":0.007970846727909889,"15":-0.42124596121568286,"16":-0.2576384885711534,"17":-0.2888994676373086,"18":-0.11422977933520255,"19":0.06362120624225694,"20":-1.0476432409349217,"21":-0.5944654248501757,"22":-0.7937445748365619,"23":0.35336187192863383,"24":-1.0850368976835847,"25":-1.6217221323845707,"26":-1.2928766233530868,"27":-1.1403604318622984,"28":-0.5492048935756988,"29":0.0004709898369533095,"30":-0.7689309778168903,"31":-0.055614588735587445,"32":-0.18407775140616847,"33":0.3761441384498706,"34":0.4028007829910522,"35":-1.4735306543606037,"36":-1.356432780320202,"37":-1.5848546043332514,"38":-0.49813087498039643,"39":0.05790852156646582,"40":-0.2956088696966331,"41":0.4286965683015802,"42":0.3560632452622641,"43":0.6851904812943316,"44":-0.7620710739744582,"45":-1.1177072738719935,"46":0.016960797963731126,"47":-0.41009606161043466,"48":-0.15345183127585393,"49":0.13587540705119291,"50":-0.488409984516086,"51":-0.20634067432895728,"52":-0.005000642043957743,"53":-0.06747040228000926,"54":-0.2691235940960161,"55":0.19152878044182794,"56":0.9781789986704167,"57":0.11486457599384003,"58":0.5780403173504352,"59":-0.11314244917680982,"60":-0.007374249481088333,"61":-0.48906949743562805,"62":-0.2969825392485148,"63":-0.8011568161656893,"64":0.1751645635936471,"65":0.6109014660704982,"66":0.9820370485845075,"67":0.07977301888422736,"68":0.17773945158689042,"69":-0.008186249670081386,"70":0.20987115541967216,"71":-0.6814831606212098,"72":-0.6912054894829284,"73":-0.19274821507674603,"74":0.3167503223100796,"75":0.9401743280272372,"76":1.0989420433414632,"77":0.3974639686729469,"78":0.10644929448369858,"79":-0.5284210022460913,"80":-0.011037645485822428,"81":-0.07147877944473512,"82":0.7129881878218114,"83":0.8491682501409588,"84":0.14399606929852019,"85":1.2497129712372135,"86":1.327198103283492,"87":0.7263060809381491,"88":0.39768698611338055,"89":0.21257143411488386,"90":0.5815319701061098,"91":-0.22756610821248507,"92":0.47184632417613703,"93":0.7104434884288136,"94":0.5269562991899807,"95":0.43095157221504193,"96":0.2559874695507026,"97":0.9302233281116862,"98":0.2750732380223862,"99":-0.286923699183055}},"26":{"bias":-0.08336023023547241,"weights":{"0":-0.4436811361244104,"1":-0.13815976547263756,"2":-0.5968909997446299,"3":0.6503443104794792,"4":1.1093813073645904,"5":0.6683387533122841,"6":-0.12289175572361777,"7":0.49527233558333117,"8":0.47535375963347637,"9":0.11990062859656117,"10":-0.7772602799197065,"11":-0.6231531223204319,"12":-0.8037022700351074,"13":0.22202382302514945,"14":1.2024105563002576,"15":1.0600779227390982,"16":0.21797498991180686,"17":0.5247862544382325,"18":0.22049811054555016,"19":-0.007729946299198422,"20":-0.4102296346162481,"21":-0.5624865170847428,"22":-0.42075745109851537,"23":-0.4083709776115498,"24":-0.3378788181272172,"25":0.3856371232610392,"26":0.33177101641740014,"27":0.5125078877161335,"28":0.17655287903741343,"29":0.10949327805575865,"30":0.10612435510845308,"31":0.8258042632584,"32":0.11840449766318502,"33":-0.7232042955283178,"34":-0.38697762558665344,"35":-0.3026982513863209,"36":-0.0832078549779233,"37":-0.02737761154907684,"38":0.04445413862020538,"39":-0.2904747935331933,"40":0.8190466121386748,"41":1.1808684852566727,"42":0.3550279010512109,"43":-0.07083692551445873,"44":-0.14957858481214717,"45":-0.41378658268540036,"46":-1.1262030965421248,"47":0.3566927661554138,"48":-0.0368407630238093,"49":0.24371521803783291,"50":0.9502002077090965,"51":0.8840054761160193,"52":0.24684163460315284,"53":0.8505039279660476,"54":0.5837797184556973,"55":-0.29562595061967956,"56":-0.09063928364900513,"57":0.1421694458738258,"58":0.031946327499912976,"59":0.4038346637600886,"60":0.46352141508579514,"61":-0.045001783028147654,"62":0.32496735584245795,"63":-0.1634969169797718,"64":0.022692960953263036,"65":0.19156382466333913,"66":0.37181281475515326,"67":-0.08945477948144787,"68":0.07239723046658411,"69":0.3080013204611685,"70":-0.039258027959943896,"71":-0.13522512723483904,"72":-0.2314323528629423,"73":-0.7876403943500553,"74":-0.9154736051826012,"75":-1.0665800134757144,"76":0.17893290994233949,"77":-0.027218487723861373,"78":-0.043002185876014405,"79":0.16255372708451857,"80":-0.6046425282449538,"81":-0.29499699473057145,"82":-0.7660729994209386,"83":-1.0200007238121505,"84":-0.3521621058088731,"85":-0.20399351437345437,"86":-0.10959149586455527,"87":0.25771421351824975,"88":-0.4609216280728605,"89":0.2595273815695327,"90":0.6387759108869324,"91":0.15252878850437857,"92":-0.7642521356625922,"93":-0.2822606743624138,"94":0.17352527481324773,"95":-0.21162044163514096,"96":0.2274971132461721,"97":0.6148416483629773,"98":-0.25377752909288326,"99":-0.04664775749480799}},"27":{"bias":1.0646896367153051,"weights":{"0":1.3604651327812078,"1":0.22275996184186841,"2":-0.9107823995715196,"3":-0.4127746891928984,"4":0.15626630838011585,"5":0.7816996793095888,"6":0.463757253862973,"7":0.36037163682443984,"8":0.30767962549216205,"9":0.5017827608723446,"10":-0.27793254637151177,"11":-0.051044336760002924,"12":-0.07446472452834212,"13":0.33234916449680507,"14":-0.11355028048991779,"15":0.5756082660284212,"16":0.7287878685725337,"17":0.5041912260035338,"18":0.06228703729905311,"19":0.3163873428225215,"20":0.24564980827858707,"21":0.40084872213556594,"22":0.9303337203725665,"23":0.10553465149931518,"24":-0.3238723305015725,"25":-0.22578246572436358,"26":0.23859011408214506,"27":-0.38869806155643605,"28":-0.4348187189446325,"29":-0.08044893844037733,"30":-0.0027772915544792094,"31":-0.026337470516009227,"32":-0.30130222009554947,"33":-0.9307494951186458,"34":-0.7418490329011925,"35":-0.4661446262126678,"36":-0.0010322917620418537,"37":-0.3783207800579326,"38":-0.01715067761108421,"39":-0.20225350047468094,"40":-0.8981890411478188,"41":-0.5490910456921541,"42":-0.5033555527976389,"43":-1.059157109699549,"44":-0.7399915551021754,"45":-0.7900272235408498,"46":-0.27401231236038426,"47":-0.8478121033921838,"48":-0.7252150978927814,"49":-0.24413937814399872,"50":-1.1358060926610154,"51":-1.2756836322405567,"52":-0.4499082042312013,"53":-0.46744342396617494,"54":-0.548730859385092,"55":-0.7828352293056741,"56":-0.7913706534214748,"57":-0.6856307565859787,"58":-0.3689755062834783,"59":-0.40695112380008197,"60":0.1691343026788167,"61":-0.6277491457520218,"62":0.17603026961355459,"63":-0.16982546990320654,"64":0.569049203683597,"65":0.5958100895758546,"66":-0.10686298323331447,"67":-0.33089467444155973,"68":0.33521029090234006,"69":-0.23970505035678355,"70":0.08142440726304309,"71":0.276753012761175,"72":0.865777855533729,"73":1.1157433826212542,"74":0.866358405900984,"75":0.6253397977559826,"76":0.00727511213870286,"77":0.2920192805367249,"78":-0.21736283952201563,"79":-0.17994533511767538,"80":0.30188013985738876,"81":0.31412835579286463,"82":0.5243043099354953,"83":-0.02482045819714352,"84":0.547342717301614,"85":0.368793510354467,"86":-0.02086246461214105,"87":0.4461963852141865,"88":-0.053291000168604864,"89":-0.17637661363094775,"90":1.6629156797159668,"91":0.014768859610986698,"92":-0.2570164401649586,"93":0.4984392227138551,"94":-0.3623037494622472,"95":0.05689585659777762,"96":0.6492869862170848,"97":-0.01222472946900262,"98":-0.2926074975045593,"99":0.11790488448141727}},"28":{"bias":0.5936358639650403,"weights":{"0":1.9868771765938709,"1":-0.023081997519559486,"2":-1.2553978085404243,"3":-0.10107822689122814,"4":-0.2866437269543198,"5":0.031692392572321815,"6":0.33488536885073655,"7":0.6256245268519071,"8":0.7563150552449011,"9":0.9452565136815713,"10":1.1842286994908793,"11":-0.3155116977012716,"12":0.07713851951987763,"13":0.018661789748829878,"14":0.2913203544420742,"15":0.4958497411876894,"16":-0.024517893256139643,"17":0.2271252823346826,"18":-0.18287802406610948,"19":0.3309550771460559,"20":-0.8439055341686716,"21":-0.46883653328058683,"22":-0.6086493032282315,"23":-0.22802785330999523,"24":0.6833880340068423,"25":0.4744812996261254,"26":-0.5085646316276103,"27":0.27652501204267377,"28":-0.6862304343245901,"29":-0.6826244984430695,"30":-1.2988684012727951,"31":-1.0999011786722548,"32":-0.20435786276852005,"33":-0.04836362069368326,"34":-0.32551370907945465,"35":-0.2011393935568489,"36":-0.42240222628765434,"37":0.03249250771647821,"38":-0.2230532459450922,"39":-0.18781939261325636,"40":-0.2977462634469716,"41":-0.4259924433507143,"42":0.7648031476762421,"43":-0.28496266889284977,"44":-0.25022764175726925,"45":-0.3217163815091322,"46":-0.13134853684603895,"47":0.05689661706077198,"48":0.13356225247136722,"49":-0.4532437208292721,"50":0.3657015347259532,"51":0.4305408128253631,"52":0.9460035326403062,"53":0.5587966355318043,"54":0.1662392291346791,"55":-0.3731449992733315,"56":0.21396745245364795,"57":0.2765653530521302,"58":0.3124079681717287,"59":-0.4194364032917971,"60":0.70100595810016,"61":1.0357384370829443,"62":1.2012185053142004,"63":1.2065049553495186,"64":-0.19434384265305857,"65":0.015752740851218097,"66":0.236479156315342,"67":0.19544206219333768,"68":0.26562024691622976,"69":-0.6276461153894806,"70":0.10337050548397889,"71":0.05416191308574391,"72":0.27817695426182987,"73":0.37538762923960267,"74":-0.8750266014680693,"75":-0.37670962395028684,"76":0.026199784966678612,"77":0.10609263839435092,"78":-0.5587600047143483,"79":-0.8184667004493381,"80":0.9384309646837411,"81":-0.38187638278484115,"82":-0.32951043360674603,"83":-0.9713507270451686,"84":-0.4514178052233657,"85":-0.5687144829894082,"86":-0.09055484799435902,"87":0.18220843146675086,"88":-0.4565824079906066,"89":0.48682142265165457,"90":0.8523144780466668,"91":-0.5637839226686888,"92":-1.537736706403232,"93":-0.7155054829944492,"94":-0.8909752731885113,"95":-0.2845257444338094,"96":0.16923886889863385,"97":0.3543486965741052,"98":-0.26923410545162113,"99":0.35193291062780513}},"29":{"bias":0.3241188515732492,"weights":{"0":1.0601492761525582,"1":-0.13897304823259865,"2":-0.38520421306937996,"3":-0.3686767781005868,"4":-0.5252003085512493,"5":-0.09881417705495417,"6":-0.38937883906396903,"7":-0.7529741089569274,"8":-0.010985036421554968,"9":0.4219006281379971,"10":-0.39582365144273945,"11":-0.8245529571911344,"12":-0.24364251333480857,"13":0.053131779372690174,"14":-0.04719735719171729,"15":-0.4475636164012098,"16":-0.7043675359730377,"17":-0.6727125503524639,"18":-0.20536575845926647,"19":0.13644650693538657,"20":-1.4278411341545172,"21":-0.3049371769121977,"22":0.5742113612226069,"23":0.47998566588189634,"24":0.1585806970499203,"25":-0.1429683755830462,"26":0.5926179439162118,"27":-0.17261154350108518,"28":-0.24952326916026152,"29":-0.09879671281550992,"30":-1.947045130563432,"31":-0.7407375696801505,"32":0.44166675809849787,"33":-0.09508671336850036,"34":-0.549682503064197,"35":-0.7758758760818834,"36":-0.45999623095332903,"37":0.6119487040977802,"38":-0.07436088499516941,"39":-0.27198053586241144,"40":-0.26781229491147157,"41":-0.3199374963879225,"42":0.568282911652286,"43":-0.17230950571135334,"44":-0.7633164652130386,"45":-0.8025972148718241,"46":0.3822720228057581,"47":0.5578077129887489,"48":0.9790700792763964,"49":0.22596755516218606,"50":0.5147412730009208,"51":0.19080178075431217,"52":1.2757408653798108,"53":-0.0726757977821048,"54":-0.4854488132134451,"55":-0.01501860756340389,"56":0.6904153161523803,"57":0.524640373820956,"58":0.6371060186627137,"59":0.30517413527682097,"60":0.15038281216813984,"61":0.12907825792766378,"62":0.5400725892827477,"63":-0.4184449643929043,"64":-0.22319398947523442,"65":0.29600159110517593,"66":0.7745571421653712,"67":1.0291862973654802,"68":-0.002450885278924386,"69":0.14185724498797636,"70":0.08493566255406926,"71":0.13187925615732524,"72":0.9878028544217081,"73":0.21562036217601996,"74":0.38101911054389315,"75":0.37685877744432655,"76":0.6431645757793935,"77":0.3634193985902156,"78":0.23836857010757906,"79":0.1659073831939188,"80":0.8254822726060091,"81":0.05899046135725764,"82":-0.6903731581589893,"83":0.3182214063421685,"84":0.1342519982620072,"85":-0.11404627159287985,"86":-0.07398874390749706,"87":0.18849231103217257,"88":-0.25574446863759054,"89":0.2950327978770363,"90":0.41084130491177767,"91":0.44594140822589423,"92":-0.8216251276977942,"93":-1.1115140600331017,"94":-0.4840856065660024,"95":0.10183932732487931,"96":0.12081951236731149,"97":0.47384425839776323,"98":0.3359732458980983,"99":0.13221910146857305}},"30":{"bias":0.8712706293361175,"weights":{"0":0.31199967791046035,"1":-0.10123495532674429,"2":-0.4796227494263395,"3":-1.7015135914048967,"4":-0.7364299500195142,"5":0.11702918514290069,"6":-0.6748664950808093,"7":-0.38401519901913866,"8":-0.022913991762121607,"9":0.6516356498145301,"10":-0.7869563409235155,"11":-0.8179666066418245,"12":-0.9362606721531249,"13":-1.335636207981897,"14":-0.9984111338380011,"15":0.07367123059521875,"16":-0.47267338496499206,"17":-0.1586415038896445,"18":-0.400253033075037,"19":-0.18769062411368345,"20":-0.3388721560401485,"21":-0.2682741795529734,"22":-0.7149636775693502,"23":-0.17243507622199328,"24":0.4720730975388386,"25":0.48996466662565125,"26":-0.08510520552570715,"27":-0.45268621633023803,"28":-0.7035659654807392,"29":-0.10390997895001644,"30":0.6030764593696663,"31":-0.229664455013366,"32":0.5561981332226925,"33":0.6171737352989302,"34":0.7258278119299697,"35":0.11538103711163074,"36":-0.12976048957905528,"37":-0.7236281978279502,"38":-0.18480106699538254,"39":-0.22202062960213725,"40":0.34496734865724926,"41":0.0015164054896622202,"42":0.9436887887271135,"43":0.36401530737336363,"44":0.2543714771162958,"45":-0.3072550256612618,"46":0.04214796438870537,"47":0.25558947820491346,"48":0.06460073052712034,"49":-0.06007471727947123,"50":0.28622591814420356,"51":0.32333467664504906,"52":1.060240044997372,"53":-0.0015330462814504946,"54":0.21093890743840646,"55":0.1964713033608544,"56":-0.5812952718504274,"57":-0.058807546582113776,"58":0.1713386027632127,"59":-0.05158327842561175,"60":-0.21067836937901915,"61":-0.786179452987321,"62":0.2534249854752011,"63":0.5072515043234851,"64":-0.016898924144178762,"65":-0.2973367719581337,"66":-0.39412825477462604,"67":-0.21451809610152234,"68":0.35591561622864626,"69":-0.299127953236223,"70":-0.8660638906764432,"71":-0.6140195702711775,"72":-0.660859661550431,"73":0.16166574396723898,"74":0.47548024647295506,"75":-0.39469311578109045,"76":-0.17324171587361992,"77":-0.03959214468107118,"78":0.5745292974046688,"79":-0.1236747130923391,"80":1.0895514670691377,"81":0.35431216047739345,"82":0.32408944534737083,"83":-0.10731103746160434,"84":0.4842299684411822,"85":0.23573109285234523,"86":0.41161247177037924,"87":0.2320418367472236,"88":0.6499358994428729,"89":0.747012076881747,"90":1.656034640894216,"91":0.6714104366913476,"92":0.6311296654944872,"93":0.1022593421203154,"94":-0.12440973447134274,"95":-0.6008105757296557,"96":-0.12453544422485016,"97":0.046018438598701236,"98":0.7013421958336744,"99":0.23610187792899903}},"31":{"bias":0.14924734696507633,"weights":{"0":0.32184351597988115,"1":-0.16520671785074234,"2":0.2449301713219522,"3":0.7901829343316856,"4":0.17928907829695176,"5":-0.06635631638427496,"6":0.29901632745349843,"7":0.4010906203787387,"8":-0.09903548771997017,"9":0.05306430370467066,"10":-0.37779248015401123,"11":0.15108029432288037,"12":0.6739423645345786,"13":-0.29546977503625943,"14":-0.4898526222506292,"15":-0.6244734433833863,"16":0.35543075792636514,"17":0.8197489402466699,"18":0.0789441660570226,"19":-0.2457247782694201,"20":0.21128141695990194,"21":-0.13072400272260368,"22":0.02291235696789896,"23":-0.27064314732736483,"24":-0.25068413933270756,"25":-0.3117195623450229,"26":0.5924565060929589,"27":0.6138373057177321,"28":0.11124710376897855,"29":0.3028450768850057,"30":0.8059116762233005,"31":0.15087442839715184,"32":-0.4782348495951973,"33":-0.11125112032918597,"34":0.26352958429004764,"35":-0.8410671904588141,"36":0.06568098319574678,"37":1.0535179028870614,"38":0.8881541138580649,"39":-0.09534366423809247,"40":0.6955087878703329,"41":0.2907343328520997,"42":0.4102215488882904,"43":-0.3348017772939796,"44":-0.020704131150182502,"45":-0.26602331552003916,"46":0.46629759100808343,"47":0.3573511493457317,"48":0.6606624977749168,"49":0.044890033181583,"50":0.12273503698720044,"51":0.6270523361230073,"52":0.2938473339312056,"53":-0.7483041890781396,"54":-0.6612725648297947,"55":-0.06675080329318855,"56":0.7583902031945814,"57":0.8113329861022384,"58":0.5250117224342794,"59":0.38896684122515024,"60":0.20148861728799558,"61":1.1205293734203294,"62":-0.39005335119528806,"63":-1.5804469173651436,"64":-0.8309666964061169,"65":-0.8034991144977175,"66":-0.19182582406852605,"67":-0.6027936861468877,"68":-0.08872966296455731,"69":0.21444542052859566,"70":0.6685808507542619,"71":0.38871482226478815,"72":-0.5307729926584994,"73":-0.3152871319841493,"74":-1.2004871133317598,"75":-0.7412816155580654,"76":0.21920452331726475,"77":-0.5498016307516894,"78":0.26968167392852055,"79":0.4955728046669802,"80":-0.4349625965014209,"81":-0.15339572246366906,"82":0.4575974411225933,"83":-0.7856307772255255,"84":0.5588985029800804,"85":-0.17894510118666734,"86":-0.5651968511357229,"87":-0.23559526331565087,"88":-0.29090086038925084,"89":-0.10497087679717206,"90":-0.26130482210815836,"91":-0.42497159600567463,"92":0.4664111191975762,"93":0.1539712755993375,"94":-0.3335449213654479,"95":-0.24223582600438376,"96":-0.41344555345862305,"97":0.326876315376079,"98":-0.29656494650403986,"99":-0.24126684564928877}},"32":{"bias":0.807593580470644,"weights":{"0":-0.6861029018556599,"1":-0.38871654519095244,"2":0.010095052967530178,"3":0.9690848943865822,"4":-0.23269599422807338,"5":1.6069638588727515,"6":-0.4203082397529758,"7":-0.10308447822313654,"8":0.3748584952631198,"9":-0.77083206884334,"10":0.4908092252828929,"11":0.1709040870416852,"12":-0.30275998025678985,"13":0.5455606497055073,"14":-0.13866407865707153,"15":0.2698742034382433,"16":0.15637415533157836,"17":-0.6378234873765227,"18":-0.34285675784539477,"19":-0.552807391837247,"20":1.8109852948027347,"21":0.8816099331787519,"22":0.5279320407483754,"23":0.9570514589310279,"24":-0.13520006518013605,"25":-0.1779439763502875,"26":0.6012432488505165,"27":-0.14847699793384186,"28":-0.41626163175835623,"29":-0.3389395835733972,"30":-0.20515669965550015,"31":0.24766293990822882,"32":-0.48184481347728547,"33":0.2329804298210458,"34":-0.40862664363787005,"35":0.11383433111020605,"36":0.8421442947139764,"37":-0.04592532931280426,"38":-0.2564455315870256,"39":-1.0705068871407002,"40":-1.2198560675283217,"41":-0.8186249839787272,"42":0.2383820185329885,"43":1.196066987856246,"44":0.5992064731858152,"45":1.0298369586550398,"46":1.227192170649577,"47":-0.0938696688097333,"48":0.24698392242433398,"49":-0.04065022782937419,"50":0.7788686709614611,"51":-1.0375681864021615,"52":-0.36825175059901716,"53":0.18617603226062332,"54":-0.8876640336454515,"55":0.18273157328818151,"56":0.5645331584601674,"57":-0.30241235985671383,"58":0.6405898875054293,"59":0.044179078450518036,"60":-0.5245167450974261,"61":-0.9350087213454262,"62":-0.5039178326994681,"63":-0.1748121102721011,"64":-1.8017124721686115,"65":0.11905207034720366,"66":0.29410827315568144,"67":-0.4499599304536213,"68":0.35192687496511066,"69":0.12878554050818616,"70":-0.32422396415628735,"71":-0.12830476029517093,"72":-1.100659106218169,"73":-0.8912380516670081,"74":-0.8347471149904319,"75":0.11743106651690821,"76":-0.40334165153559504,"77":0.09956823002484812,"78":0.6225997909384412,"79":0.6896832174579836,"80":-0.3086495674504333,"81":0.10528060014167862,"82":-0.13589629217948682,"83":-1.0980811804122952,"84":-0.4225939381943949,"85":-0.48309587510289353,"86":-0.3429338040953949,"87":-1.1583960645351405,"88":-0.31883986453393176,"89":-0.17822439302383605,"90":0.01967896798137651,"91":0.24970619823475917,"92":0.522919869760039,"93":0.9333132091701536,"94":0.3500502208946491,"95":2.004318990065709,"96":0.2999968650380397,"97":-0.5642051253781006,"98":0.4980644016848191,"99":0.22023890034668958}},"33":{"bias":0.10456214232477154,"weights":{"0":-0.2569834422562283,"1":-1.2704917052106859,"2":0.04695280020344705,"3":-0.20588453693927303,"4":0.28163496253517756,"5":-0.046294169941253016,"6":-0.2610493972513619,"7":-0.3466100581419513,"8":-0.9396688458897365,"9":-0.015657984557978462,"10":0.2999016697563277,"11":-0.5339407942328945,"12":-0.5375436983534676,"13":0.7323002974632147,"14":0.8614119983158306,"15":-0.09346998601761372,"16":-0.04265625010980078,"17":0.17942640284003006,"18":0.6501611166473026,"19":0.12203170137778767,"20":-0.7840103535559259,"21":-0.16316360058115906,"22":0.5238782565384743,"23":-0.28225937836718196,"24":0.5544668900502742,"25":-0.056635828617219615,"26":-0.5061988062980033,"27":0.6441252908378288,"28":0.021477591343110215,"29":0.15929011568556606,"30":0.005331622303881629,"31":-0.02752888401700113,"32":0.793913375681889,"33":0.18018962656893484,"34":1.873154565068731,"35":1.087518075538107,"36":0.8044808078119006,"37":0.5737984792915356,"38":-0.28634527535046417,"39":0.6843051280767941,"40":-0.257405071986342,"41":-0.2949678652313685,"42":-0.6644068995154004,"43":-1.4686844722908179,"44":0.575380738250871,"45":0.3335824096583615,"46":0.5082000189114977,"47":-0.5582957648404424,"48":0.9420876916064251,"49":0.502513424643804,"50":0.8094202374342205,"51":-0.39446356965527285,"52":-0.1514641519218432,"53":-1.737542340150679,"54":-0.024694116051429207,"55":-0.30017340071480153,"56":-0.6061405799917342,"57":-0.9085624749777905,"58":0.15081033451888365,"59":0.20005393872403732,"60":-0.7218702471930937,"61":0.7353994877558258,"62":0.5006529087966195,"63":-1.2650470839971502,"64":-0.1935855306712497,"65":-0.703534230784626,"66":-0.8580090987423938,"67":-0.3027705149171748,"68":-0.17468351997425224,"69":-0.2127391876435097,"70":-0.7308334834271563,"71":0.20523427648103473,"72":-0.5023711590180738,"73":-0.035959639631843995,"74":-0.5614987575818288,"75":-0.2805211835473201,"76":-0.4388669616722982,"77":0.17694774365301838,"78":0.28692283778011424,"79":-0.10589294875558641,"80":0.8720623936017953,"81":-0.16456708172749526,"82":-0.03529095239398169,"83":0.48380407472161435,"84":0.6235547860083659,"85":0.21298131568803588,"86":0.12236182195077282,"87":-0.1884422495416877,"88":0.9842753638143477,"89":-0.004596938916277603,"90":0.7558463722336621,"91":1.3762885807899528,"92":0.3233465915253521,"93":0.29593839319781173,"94":1.183981413040023,"95":-0.5370870949540448,"96":-0.6731234459660284,"97":-0.5797349121645718,"98":1.0572422195240259,"99":-0.33803774523167657}},"34":{"bias":0.783117612262382,"weights":{"0":0.01194167066403679,"1":0.471681198575344,"2":0.11064232339365893,"3":0.5782951811116387,"4":0.5237738667517229,"5":0.23766009682534653,"6":-0.9684523203643858,"7":-0.23439789626360488,"8":0.2134035870969978,"9":0.8792543190729,"10":0.5517108096996752,"11":0.6149356823306747,"12":-0.03083205747340737,"13":-0.3250438843450274,"14":-0.5830829140247047,"15":-0.44926141886167564,"16":-0.41742193666985655,"17":0.05969590708188607,"18":-0.40120355059198914,"19":0.497922275393423,"20":0.1921842833999306,"21":0.4792875437763014,"22":0.13312631170852615,"23":-0.6350225301079122,"24":-1.539306881646719,"25":-0.6687525567659712,"26":-0.6112752769537768,"27":0.3687841526846861,"28":-0.528454303311911,"29":0.41952429338084946,"30":0.6228108866076146,"31":-0.13691442447438734,"32":-0.5251240769110311,"33":-0.35082260747856964,"34":-1.1850600810307121,"35":0.15872278435247003,"36":0.23016655890999158,"37":0.06698226629504346,"38":-0.5873906247157987,"39":-0.7480700883014008,"40":0.7044442183326578,"41":-0.5152047236568889,"42":-0.2274927862221042,"43":0.19279493602302475,"44":-0.4004914819738056,"45":0.9838809166953996,"46":0.6956437820448305,"47":-0.0639374984567341,"48":-0.5968511590218791,"49":-0.6145989532296742,"50":0.9955923660145428,"51":0.30512264620750396,"52":0.18938806225782098,"53":-0.26028618049343527,"54":-0.6618164086372612,"55":0.22966173374932466,"56":0.28830133812121,"57":0.1578621783747864,"58":-0.197280292012456,"59":-0.47859473896115573,"60":0.20179917008913956,"61":0.6087797282262716,"62":1.3722862233086892,"63":0.04379722174777403,"64":-0.8070627269955645,"65":-0.5533203403454229,"66":-0.22851438559522652,"67":-0.9121511702934666,"68":-0.34416697470863,"69":-0.454251546699753,"70":0.4478222885517156,"71":-0.24922563726749908,"72":-0.02201811664562984,"73":-0.1389100681552212,"74":-1.0763581093377688,"75":-0.6112725021073658,"76":-0.31171611206171645,"77":-0.4007344882354436,"78":-0.5464449484291065,"79":-0.5107316039375049,"80":0.5579684097481918,"81":0.3237200614349339,"82":0.2215887744240825,"83":-0.4390147022740423,"84":-0.36142790680564935,"85":0.3620499915047273,"86":0.10436881729509609,"87":-0.4451687241658647,"88":-0.3367939352610677,"89":-0.12090466859152954,"90":0.08956367135151624,"91":0.09678467663855099,"92":0.139349100833162,"93":0.6482635032082499,"94":0.7313276442053916,"95":0.6558979379641368,"96":0.5423073139914216,"97":-0.6339592215824866,"98":-0.2105431197144723,"99":0.21156252000772896}},"35":{"bias":0.060838867231093614,"weights":{"0":0.49131947934134657,"1":0.9928198589313226,"2":1.1038022750881316,"3":0.29745134438271553,"4":0.12175626248148505,"5":0.38754227439597333,"6":-0.3372629514469564,"7":-1.2071140429565927,"8":-0.4215539440757944,"9":-1.0698114881690766,"10":0.8955576748298972,"11":0.13455840423414528,"12":-0.4159316649719623,"13":-0.07036576650023832,"14":0.2048207141393861,"15":0.5175582999142831,"16":-0.32717902730787324,"17":-0.6938188073021981,"18":-0.4503143301218353,"19":-0.6650502755285052,"20":0.05729920762511214,"21":0.1644053835961428,"22":-0.16259000778054655,"23":-1.27957085586778,"24":-0.07068473734672141,"25":-0.03511007864394888,"26":-0.53726585353955,"27":-0.4735102878891612,"28":-0.28448404100900615,"29":-0.3732074112804156,"30":-0.38513379972547196,"31":0.2574470091532339,"32":0.6763531428428595,"33":-0.561798605116071,"34":-0.5666360768032258,"35":-0.01946866964677295,"36":-0.4136627293140079,"37":-0.19919060420922569,"38":-0.09249006006110026,"39":0.550514359541715,"40":-0.27286596328729107,"41":-0.2215777875597229,"42":-0.6832254231717588,"43":-1.439615530120896,"44":-0.17024427084805044,"45":0.5173790184741272,"46":0.07955500973252799,"47":0.9600278420194249,"48":0.48231937240446804,"49":0.54973789249765,"50":-0.7368495298585506,"51":0.20832910429029378,"52":0.1365670125034599,"53":-0.810082773473304,"54":0.6040275598338968,"55":0.7643251208163562,"56":0.8501593649723419,"57":0.46864571200248484,"58":0.5236465680408773,"59":0.2460943991825742,"60":-1.1384744306277388,"61":-0.45349946753213777,"62":-0.44452955576732883,"63":-1.217459903758307,"64":0.7023473041551497,"65":1.236128030432339,"66":1.5981847418491524,"67":0.6855904672908003,"68":0.5362364887492069,"69":0.24560352533822852,"70":-1.0210393411777343,"71":-0.5445629782229691,"72":-0.4406032323417911,"73":-0.7411078140749598,"74":0.930133775530454,"75":0.2242310387507263,"76":0.8956784650366933,"77":0.6582319871390623,"78":-0.175960051506549,"79":-0.5124888931339528,"80":0.5463084822436414,"81":0.1585188386783305,"82":-0.529665956929633,"83":-0.07573399825015945,"84":-0.04117449125411627,"85":0.09288924962124391,"86":0.5696530538308434,"87":0.14982249810474385,"88":-0.006477604596782695,"89":-0.49020210103860046,"90":0.9310126379381702,"91":0.8369668648555193,"92":0.06306250790748401,"93":-0.38834114058379177,"94":-0.14742472695247735,"95":-0.7596114215981237,"96":-0.07910981071313357,"97":-0.056649419783017955,"98":-0.3618722996402047,"99":-0.04441536484612902}},"36":{"bias":-0.06787297796650792,"weights":{"0":-0.48936460161002077,"1":-0.5945012292504546,"2":0.5206442433603631,"3":0.10075810211441867,"4":-0.02433071255222356,"5":-0.24956217663433422,"6":0.5020658416463498,"7":0.5146659084704927,"8":-0.1305720664891602,"9":-0.5295112558528878,"10":-0.621479737190365,"11":-0.5090347655820013,"12":-0.22852635238232702,"13":0.34359300174953805,"14":0.21488800782241016,"15":-0.33393722969922995,"16":-0.1713206483047572,"17":0.16774580782169454,"18":0.3596645843982165,"19":0.02602423808785942,"20":0.27605878169785936,"21":-0.04725273485605793,"22":0.550663158397031,"23":0.709964199541534,"24":0.370074982661904,"25":0.17424787594628643,"26":0.08661386835043496,"27":-0.21094071240897028,"28":0.10816160501235868,"29":0.1665809539976135,"30":0.19506309615786596,"31":-0.15220502178429057,"32":0.031670221129706654,"33":0.47079627270906854,"34":0.367866588511798,"35":-0.01983033450820999,"36":-0.12149640819369102,"37":-0.21716673410827456,"38":0.040920518981257474,"39":0.6113970808489193,"40":0.7859295961556725,"41":-0.2276128799155551,"42":-0.35440171692732503,"43":0.6458443176874464,"44":0.0790956983370455,"45":-0.5243113080527393,"46":-0.5086874302089044,"47":-0.5793238539835458,"48":-0.5424676662271674,"49":0.35553149849359905,"50":-0.817361308281675,"51":-0.34926027694710543,"52":-0.3277250961230866,"53":0.43753155340058786,"54":-0.2052163850739524,"55":-0.2564676936715515,"56":-0.04089862895596551,"57":-0.5640420701121278,"58":-0.3792426808348139,"59":0.6201895295216241,"60":0.07281898692247273,"61":-0.438427309113807,"62":0.05973353137580366,"63":-0.11305143688286011,"64":0.48856065525600384,"65":0.6140291455464274,"66":0.24530911288758692,"67":0.024672823525179622,"68":-0.2005124236470303,"69":0.7480745238635131,"70":0.32167785602034576,"71":0.19599180032903127,"72":0.09656454965799675,"73":0.10138779168319716,"74":0.38483032110205967,"75":0.6889071859660383,"76":0.2441454732168963,"77":-0.6725375769010723,"78":-0.07109088082213197,"79":0.08200421901355524,"80":0.13085506245814318,"81":0.5552970436749537,"82":-0.16425160449154866,"83":-0.4952998336358186,"84":0.11966895627469701,"85":0.09040117679190854,"86":0.2914292438603321,"87":-0.766976858381297,"88":-0.7122696933174992,"89":-1.0590703136413473,"90":0.3801931347999259,"91":0.2532640386630027,"92":0.5485933181607301,"93":-0.1220697974393129,"94":0.46799819960787503,"95":0.08787685461197313,"96":0.12058772974589155,"97":-0.5525236544022862,"98":-0.6415119154636997,"99":-0.5356448861195222}},"37":{"bias":0.137162516261794,"weights":{"0":1.1189567600926777,"1":0.7722590254746848,"2":0.12044324000866709,"3":-0.002995036253343744,"4":-0.9730504841615107,"5":-0.7380336836781077,"6":0.8350394531078209,"7":0.866564284275446,"8":0.5251730282299837,"9":0.22840581092225837,"10":0.5170692746961129,"11":0.16895073447012404,"12":-0.1639505275845011,"13":-0.44057380768703414,"14":-0.18065667988034279,"15":-0.7093483701347458,"16":0.8351584659883237,"17":0.15795099779536062,"18":0.27251506299000267,"19":0.15068581413241447,"20":0.06777389520697887,"21":-0.5218429822807242,"22":-0.37582272480811163,"23":-0.5165080131564757,"24":-0.45505083518367223,"25":-0.8792886105881771,"26":-0.3458936507831013,"27":-0.4744260737628949,"28":-0.5020972663716307,"29":-0.46344211830690857,"30":-0.13127364120950952,"31":-0.36539687198924475,"32":0.21328114292312061,"33":-0.2055149415897649,"34":-0.2104886160640369,"35":-0.2044587899705466,"36":-0.3027901767079801,"37":-0.5611449133382194,"38":-0.35927745002650124,"39":0.3028691695124486,"40":0.8159599294001436,"41":-0.09282778290568416,"42":-0.055524442497845446,"43":-0.20595269708818428,"44":0.051108520575976195,"45":-0.3211983453592312,"46":-0.38945418603974946,"47":0.1410476345344748,"48":-0.5184593983992117,"49":-0.0927942346228502,"50":0.5817368388326857,"51":-0.032611214762632554,"52":-0.058700751279495166,"53":0.4123519651708336,"54":0.3761162595377445,"55":0.03635420185915648,"56":0.196001635970811,"57":0.7964444125881458,"58":-0.6153506066383421,"59":-0.2631880360363582,"60":0.33506763771816594,"61":0.5027963100712967,"62":-0.4779108993557453,"63":-0.27069223058849784,"64":1.9779698562459485,"65":1.4876405064822371,"66":0.9490731572698237,"67":0.3901339693279937,"68":-0.6642313098047412,"69":-0.10705760009455868,"70":-0.31681231925676273,"71":-0.0787700769705156,"72":0.49558966329959836,"73":1.0570529845184211,"74":1.0445534017015023,"75":-0.0015841513229371213,"76":0.3663227456168664,"77":-0.14724005748495403,"78":0.030816575458622375,"79":0.21271529984007828,"80":-0.7385404399883234,"81":-1.3216530489974843,"82":-0.558863802535666,"83":0.47751454673247146,"84":0.5211727682874556,"85":0.5747845516771609,"86":-0.24402846191280186,"87":-0.13484441669457067,"88":-0.14420350853767708,"89":1.0764167655421675,"90":-1.3127611627411657,"91":-1.5643919442446101,"92":-0.9363460387202462,"93":0.09897762465408079,"94":-0.49907508257481664,"95":-0.2744869245648128,"96":0.6149312036481732,"97":1.0475272805356524,"98":0.683774374816089,"99":0.5331308646847276}},"38":{"bias":0.50029054766194,"weights":{"0":-0.7268337673195867,"1":0.3101814187425578,"2":0.09254545411971186,"3":0.3310215826707541,"4":0.09127784192451753,"5":0.09031679703889964,"6":0.4196127195065873,"7":-0.24252633118869782,"8":0.017413701741715512,"9":-0.31908986558097907,"10":-0.2392029223046721,"11":0.058321157566156405,"12":0.318071795655388,"13":-0.29470813697346154,"14":0.9606586344994856,"15":0.2968035648382247,"16":0.8691172036479162,"17":0.17343061238801988,"18":-0.27518895887492323,"19":-0.5907702784319627,"20":-0.22509040944773656,"21":0.3030435732658956,"22":0.613151322279972,"23":-0.47092373907996904,"24":1.3969992027018767,"25":0.6987094591388691,"26":0.7912225401239765,"27":0.5566272225715989,"28":-0.4073402171135059,"29":-0.044635318024177695,"30":-0.6885871252837823,"31":0.12856447279468386,"32":-0.5395415223914044,"33":-0.9799271599902198,"34":-0.9651616365618659,"35":-0.3370299958951274,"36":-0.3699105523479922,"37":-0.7602073671187534,"38":-0.9013757109860909,"39":-0.7402750850113795,"40":0.5164557418631034,"41":0.9628050587296152,"42":-0.2904706156761934,"43":-0.12080357304153312,"44":-0.6863579414263622,"45":0.1617075957294838,"46":-0.09791980513430167,"47":-0.10802051925893519,"48":-1.1469271055896226,"49":-0.1714112527562157,"50":0.2769555685088139,"51":0.8098325926963825,"52":0.5410065778432309,"53":0.18504449424951555,"54":-0.15449614602468809,"55":0.3335185488867132,"56":0.3381661463536645,"57":0.21592755964355145,"58":0.37220713371464575,"59":-0.1796450993820394,"60":-0.6808229958136905,"61":0.8744697783165056,"62":-0.5156393406436205,"63":0.21217879170850856,"64":0.7528957524868848,"65":0.33203086539725807,"66":-0.019164139248671917,"67":0.3172380264092233,"68":-0.03497084546023874,"69":-0.0915068857080675,"70":-0.5373015829094953,"71":0.1498560030553638,"72":0.3064967060108642,"73":0.4006098273427669,"74":0.46051536380451447,"75":0.1430955356067313,"76":-0.18295335671321747,"77":-0.21419437207698136,"78":0.2704749759345133,"79":-0.09662917004992518,"80":-1.154104983399635,"81":0.15670254300425338,"82":0.3515011743472841,"83":0.08925528133270516,"84":-0.3867599409606316,"85":-0.3037999056051097,"86":-0.5005661830745237,"87":-0.2019000650633922,"88":0.3274712782921182,"89":-0.1444162430500707,"90":-1.8362403058268326,"91":-0.9160670899847706,"92":0.3034791900306189,"93":-1.074841923170495,"94":-0.8373640384410886,"95":-1.7257070353866002,"96":-0.7773604895000924,"97":-0.3702729192815944,"98":-0.1408790117200467,"99":0.01791967603821785}},"39":{"bias":0.6100754685963244,"weights":{"0":-0.02443703490039099,"1":-0.5016682459982285,"2":-1.7199804374779146,"3":-0.07021963853354939,"4":-0.3523908294406147,"5":-0.032039833712410745,"6":-0.7751618728375699,"7":-0.4310565930629181,"8":-0.13087834449320024,"9":-0.12823557822673362,"10":0.4021844514809668,"11":-0.6730537033139858,"12":-0.19388415683419372,"13":-0.5917924585025901,"14":-0.07769198336960996,"15":0.0696633904226128,"16":0.19839691464185424,"17":0.0743592285549955,"18":0.00778002216678405,"19":0.4513305824843364,"20":-0.31810770215933915,"21":0.02754278991437172,"22":0.04258817976613812,"23":0.3216016307689133,"24":-0.4523242733985094,