var english_network = {"layers":[{"0":{},"1":{},"2":{},"3":{},"4":{},"5":{},"6":{},"7":{},"8":{},"9":{},"10":{},"11":{},"12":{},"13":{},"14":{},"15":{},"16":{},"17":{},"18":{},"19":{},"20":{},"21":{},"22":{},"23":{},"24":{},"25":{},"26":{},"27":{},"28":{},"29":{},"30":{},"31":{},"32":{},"33":{},"34":{},"35":{},"36":{},"37":{},"38":{},"39":{},"40":{},"41":{},"42":{},"43":{},"44":{},"45":{},"46":{},"47":{},"48":{},"49":{},"50":{},"51":{},"52":{},"53":{},"54":{},"55":{},"56":{},"57":{},"58":{},"59":{},"60":{},"61":{},"62":{},"63":{},"64":{},"65":{},"66":{},"67":{},"68":{},"69":{},"70":{},"71":{},"72":{},"73":{},"74":{},"75":{},"76":{},"77":{},"78":{},"79":{},"80":{},"81":{},"82":{},"83":{},"84":{},"85":{},"86":{},"87":{},"88":{},"89":{},"90":{},"91":{},"92":{},"93":{},"94":{},"95":{},"96":{},"97":{},"98":{},"99":{}},{"0":{"bias":0.15546853604141203,"weights":{"0":0.15435743238460717,"1":-0.09998813402223887,"2":-0.10258497977945508,"3":-0.07837441312465371,"4":0.06341218165737089,"5":0.11292592519578037,"6":0.007981273621883977,"7":0.02710291193481981,"8":0.08048233678248223,"9":-0.1326023678326935,"10":-0.15821156641784614,"11":-0.07440164946335853,"12":0.14211328830253775,"13":-0.14712232267800276,"14":-0.009227882887604838,"15":-0.030844242594572916,"16":-0.006949859208795426,"17":-0.19306672308910197,"18":-0.017292208227697035,"19":0.19794308067914543,"20":-0.06377237132135333,"21":0.014355250724223256,"22":0.19161882679593265,"23":0.09373546922263204,"24":0.0996778636207849,"25":0.17427409933563767,"26":0.14574257302713092,"27":0.04959885952678023,"28":-0.1226449148761064,"29":0.1936125544799536,"30":-0.10700211869868936,"31":-0.19484654767754978,"32":-0.01662947004977167,"33":0.1868852435579568,"34":0.07757277199682294,"35":0.1911917843824297,"36":0.04371289517414271,"37":0.03132098205071388,"38":0.06888156095203457,"39":-0.03753578942585289,"40":0.18808426893931326,"41":0.12672964827772673,"42":-0.012025355178299552,"43":0.16500290818196237,"44":0.07818025042918025,"45":0.14767747874986822,"46":-0.08291658256519141,"47":0.048502500445213904,"48":0.15652625495251712,"49":0.14780246792044935,"50":0.1695043421318799,"51":-0.17329411208945816,"52":-0.12873918041903085,"53":0.02497777416985927,"54":-0.09110532217043937,"55":-0.040105755257788304,"56":0.10107466969322859,"57":0.1329941655477553,"58":0.0766676099007994,"59":-0.013859189584287996,"60":-0.16359553058016604,"61":-0.18729328858051006,"62":-0.1818977034682364,"63":0.003608934112456443,"64":-0.07754084756914081,"65":-0.1341361194880635,"66":0.008615103453960998,"67":0.09669495531972944,"68":0.19624907392692267,"69":0.023388413709220287,"70":0.1557099047085315,"71":0.16315085775834023,"72":-0.1242710419962138,"73":-0.1761770258689255,"74":-0.10834329072702231,"75":-0.006550572350057958,"76":-0.1094856791229874,"77":-0.12682201797458834,"78":0.03998618023153842,"79":0.04905571620595157,"80":-0.1061321373129219,"81":0.11357618337180914,"82":0.15496282772776185,"83":-0.013502739093634497,"84":0.06637126719262898,"85":-0.05596197750735581,"86":0.19606033423599298,"87":0.09551656273808778,"88":-0.13246614337283677,"89":-0.1282497607203156,"90":0.19626604010966117,"91":-0.07686746595743599,"92":-0.0448737123081416,"93":-0.1995209317685992,"94":-0.10976654412541093,"95":0.1399450775204271,"96":0.18463492393177447,"97":0.027435680382516977,"98":0.1802115173047453,"99":0.1044424629738599}},"1":{"bias":0.05290912939234137,"weights":{"0":-0.03524332057221146,"1":0.07937140901105191,"2":-0.009140935740455096,"3":0.060822116569594444,"4":-0.056499343565686665,"5":-0.018411196130349358,"6":-0.16255592435134858,"7":0.09431419091762691,"8":-0.10880883551670524,"9":-0.005719459722771347,"10":-0.08415390794633242,"11":0.055402396698460844,"12":-0.027181308357997837,"13":0.16799271589608583,"14":0.1578167272591749,"15":0.09728872634933974,"16":0.17424271375404388,"17":-0.029117484497859194,"18":0.19532602251039538,"19":-0.013458437486573181,"20":0.09753780931697872,"21":-0.03539250196425527,"22":0.0330945466505149,"23":0.11324938562230855,"24":-0.13384129099084346,"25":-0.11766797612889024,"26":-0.14962234340144603,"27":0.17467368541748912,"28":-0.12359922138510557,"29":0.10662669212089568,"30":-0.09861015418080898,"31":-0.1267623529909393,"32":-0.08611840104220721,"33":-0.17933503092734426,"34":0.029778171223566827,"35":-0.03166131713895411,"36":0.047213296485112,"37":-0.09482607181651803,"38":-0.08349850281609508,"39":-0.04544198281599492,"40":-0.05076435554309102,"41":-0.17757561571432562,"42":0.12262315869794874,"43":-0.13896404766945453,"44":0.20013455328063756,"45":-0.13093156164048522,"46":0.10131514983715204,"47":0.003221521698848297,"48":0.06520343291105415,"49":0.08093514468984395,"50":-0.14592219024433106,"51":-0.1272819835832557,"52":0.07644229744093209,"53":-0.17381255320741146,"54":-0.05125406097157211,"55":-0.14054706060795397,"56":-0.19509282616434903,"57":-0.02007053318901272,"58":0.1512365231150547,"59":0.12271697100715426,"60":-0.17917918750552744,"61":0.010848256559089699,"62":-0.16355387467427462,"63":-0.13261364103762716,"64":-0.09376151544509741,"65":-0.1880766898533544,"66":0.056763109737054375,"67":0.15435070096047315,"68":0.16845156865657956,"69":0.17314364387185965,"70":-0.19613500732465,"71":0.1400554530182639,"72":-0.10908038431315037,"73":0.16033864802213105,"74":-0.1230710585741541,"75":-0.11066807165278407,"76":-0.16648522672711225,"77":-0.10068206648810121,"78":-0.004736680272056781,"79":-0.04200001518709869,"80":0.18537713986353666,"81":0.012874820814446498,"82":0.11012963753657132,"83":-0.10802975158674928,"84":0.1629403672041157,"85":0.15127292599992548,"86":-0.04071754516570183,"87":-0.03355989597274275,"88":0.19763376031534463,"89":0.07805882085578233,"90":-0.12787758076099962,"91":-0.018885514992310722,"92":0.08554060569496538,"93":-0.04822008396966667,"94":0.05042493006678015,"95":-0.11371659945233079,"96":-0.1338125141477427,"97":-0.07907796158923122,"98":-0.16468982828317494,"99":-0.18583952748684496}},"2":{"bias":0.02332977682103506,"weights":{"0":-0.00854560921600568,"1":0.0342674862343956,"2":0.028822390896468285,"3":0.07275824628138432,"4":0.1166357647378136,"5":-0.12948462648949133,"6":0.1213059748273481,"7":0.0736352001067389,"8":-0.002156795772523769,"9":-0.005624350744099517,"10":-0.054369312829137956,"11":-0.19085219449064245,"12":0.12291559406855594,"13":-0.0996617456216227,"14":0.11699154653885856,"15":-0.10884530723726858,"16":0.05853990258017075,"17":0.17688177849465503,"18":0.16984399582558762,"19":0.01892220766582977,"20":0.009645369344591025,"21":0.01476588246711981,"22":-0.13570269898212062,"23":-0.039347114532054556,"24":-0.09714023063591232,"25":0.14496926979461205,"26":0.11056369717532287,"27":-0.08606350619977822,"28":-0.15922005626073588,"29":0.15344910460823669,"30":-0.08068680765739192,"31":-0.17821503023317564,"32":-0.01344928613564479,"33":-0.06128089439755788,"34":0.03918885092550406,"35":0.018456023999689923,"36":-0.1030268558550488,"37":0.15144063511231437,"38":0.16293773136401069,"39":0.17861160605513943,"40":0.05027306841054449,"41":0.19509226416537062,"42":0.11590859850236666,"43":-0.08373468287921061,"44":-0.0649822389025103,"45":0.18175236217045676,"46":0.08503085968384037,"47":-0.038460392623008405,"48":-0.0589913929130744,"49":0.08850226101764928,"50":-0.18950875823086608,"51":-0.09110126702746858,"52":0.08945316818842185,"53":-0.09314734491220225,"54":-0.19032456774896492,"55":-0.03577214817217103,"56":0.016053589501618278,"57":0.15648949423172964,"58":0.0589733225044001,"59":-0.1651312276970457,"60":0.08423951526471866,"61":0.016924659696607718,"62":-0.08438670069611182,"63":-0.026242255165041563,"64":0.03167257129514109,"65":-0.00888654573521126,"66":0.1098066116433729,"67":0.1807957078080763,"68":0.19573895425835147,"69":-0.1649778840381514,"70":-0.0845536223862182,"71":0.0002055719245363387,"72":-0.14357671470081915,"73":0.19500640283638132,"74":0.18410191114359986,"75":-0.15936972669026364,"76":-0.10368146600833644,"77":0.16818068313711776,"78":-0.03288687218612543,"79":0.013724594910829184,"80":-0.019125552034736766,"81":-0.018695329434038295,"82":0.011909703419743888,"83":0.17209500770383968,"84":0.1782664004463841,"85":0.011987792954980247,"86":-0.09040361161044348,"87":-0.17269063929727782,"88":-0.19828606278336156,"89":-0.12518251754975426,"90":0.05700954019391427,"91":0.011125253395377498,"92":0.09436504801103367,"93":-0.13430441713592517,"94":-0.1326485052022945,"95":0.1953747979115833,"96":0.1625609854918112,"97":-0.06337102905547727,"98":0.01056398104244362,"99":-0.08839414727574696}},"3":{"bias":-0.023280257901888354,"weights":{"0":0.11750067311544304,"1":-0.15909715986605408,"2":0.04271916548926713,"3":-0.026487493820298885,"4":0.007848690610568558,"5":0.0979801024051416,"6":0.0036990119816768517,"7":-0.023751019805480222,"8":0.04585431094486597,"9":0.16532742453012947,"10":-0.11967094822581527,"11":-0.1140504974199426,"12":-0.07963892158846972,"13":-0.06297623629476544,"14":-0.20081305292229773,"15":-0.005311461284567083,"16":0.06382450309787274,"17":-0.1096286327837002,"18":0.002559737835268997,"19":-0.1655432584954393,"20":-0.08088558225687263,"21":0.05427200549487354,"22":0.08803781696800472,"23":-0.17650386665742518,"24":0.0637954875567961,"25":0.14075262609143138,"26":-0.19320368694867612,"27":0.022135014154206545,"28":0.17485891242716792,"29":-0.149865254413147,"30":0.030801279910098348,"31":0.07525941764209748,"32":0.10679720442016011,"33":0.05964004469309331,"34":-0.18762936753015638,"35":-0.20191588506828667,"36":-0.1711511845959318,"37":-0.17777411809917212,"38":0.021241314217637808,"39":0.1746778408737886,"40":0.04823331942055703,"41":-0.1991774108519745,"42":-0.046842890351821154,"43":0.19420939215664149,"44":0.09589603242669587,"45":-0.11532621349002836,"46":0.038088956076841374,"47":-0.07001798406969426,"48":0.03846737395245914,"49":-0.10986586467157719,"50":-0.13110152588020682,"51":0.048973165240328353,"52":0.010636443153213297,"53":0.12073286480475548,"54":-0.052795467365343546,"55":-0.08578015978242871,"56":0.15537323399652123,"57":0.10623301022891285,"58":0.053954242143969544,"59":0.1733715832905877,"60":-0.07055445791016934,"61":0.028882103108059193,"62":-0.039263488098789434,"63":0.08902674799058918,"64":0.04214380669612769,"65":-0.04107475059833046,"66":0.0848068402821231,"67":0.091081518002044,"68":0.1179618912490118,"69":-0.05996441266294239,"70":-0.08282415813561199,"71":0.16154950174708246,"72":-0.08565096829812643,"73":-0.15908184920232415,"74":-0.1908532278871131,"75":-0.006248050115812977,"76":0.1189262504430521,"77":-0.09329915179665801,"78":0.064260486208092,"79":-0.1415681424809587,"80":-0.0035093536859345264,"81":0.07002471058834675,"82":0.004875170041065245,"83":-0.07847026626374243,"84":-0.18825602496768953,"85":-0.1837028664795649,"86":-0.18540215736981155,"87":0.01065155684221866,"88":-0.037917403623272145,"89":-0.0122714513240349,"90":0.05403515815008764,"91":-0.17706070507671356,"92":0.026279888928126133,"93":0.1588693382890928,"94":-0.1512777722699535,"95":0.1793669266367364,"96":-0.05670909725855705,"97":-0.1925731359308553,"98":-0.03384614039938566,"99":0.07032869697753669}},"4":{"bias":0.15974180266718843,"weights":{"0":0.11414150256082807,"1":0.08278292469099553,"2":0.011471238223616183,"3":0.17523385840818673,"4":-0.17437671622842166,"5":0.03799668052584322,"6":0.09455520832330379,"7":-0.1250229741877279,"8":-0.06333047379389019,"9":0.19485933040619285,"10":0.04625845444739253,"11":-0.009740283755805206,"12":-0.01646045823230951,"13":-0.01646926900952666,"14":-0.1674060476443133,"15":-0.16505455500095698,"16":0.13655890641153245,"17":-0.018987810654785324,"18":-0.17677261582225176,"19":-0.09820422180577724,"20":0.12853159145802645,"21":0.1383027423673907,"22":-0.1233334851881823,"23":0.1261957064771691,"24":0.01066278159037621,"25":-0.09704155395388216,"26":0.11564858020633846,"27":0.18823068417027983,"28":-0.10376213197245807,"29":-0.07310384506940455,"30":-0.18105345037415238,"31":-0.07243029470204919,"32":0.09352182853386194,"33":-0.0649016261531374,"34":0.11389365853161011,"35":-0.01661695432498663,"36":-0.17504921364247414,"37":-0.0231410985311827,"38":0.0077758238220253595,"39":0.1587888641783634,"40":-0.15233053597271057,"41":-0.17282535326316567,"42":-0.06905530313610643,"43":-0.17256749993770928,"44":0.015333729380522083,"45":-0.01413113013490646,"46":-0.037881162153776585,"47":-0.1748486368416211,"48":0.13504406423658522,"49":0.0025897007936278105,"50":-0.11357168615445107,"51":0.19139168919414667,"52":0.08828713666066913,"53":0.093256538877044,"54":0.021666998093728136,"55":-0.05116886100381225,"56":-0.1088994159793815,"57":0.15708497572109492,"58":0.0378022853785792,"59":-0.03291446356683582,"60":-0.06380139668121547,"61":0.14431399549708157,"62":0.16327934651986153,"63":0.08299714275986343,"64":0.012368733299676478,"65":-0.08080414631053418,"66":-0.15470942514597985,"67":-0.1361490864737293,"68":0.05552094099462419,"69":-0.17711555049404115,"70":0.10480183665991218,"71":-0.14327550516113252,"72":-0.08285143212064713,"73":0.15102801765665802,"74":-0.04318427606135218,"75":-0.10855440874233455,"76":-0.17197217964216682,"77":-0.15425061708896967,"78":0.1098653140978554,"79":-0.19042632220893713,"80":0.129799026300911,"81":0.027072919489596177,"82":0.0857217199669817,"83":0.005027966717038459,"84":-0.05492181335225314,"85":-0.16481492328106973,"86":-0.003605213711257874,"87":0.188800781829063,"88":0.11406650008052978,"89":-0.10667660641133397,"90":-0.05585754965081423,"91":-0.00420820074736685,"92":0.061407259715501386,"93":-0.1422227893455288,"94":0.0554087902919987,"95":-0.019042190207388114,"96":0.0525909187772909,"97":-0.07865668502285689,"98":0.1379607569927016,"99":0.02899884530693681}},"5":{"bias":0.03956550141382412,"weights":{"0":0.10509691757119956,"1":-0.12736487214483552,"2":-0.15341074804805452,"3":-0.14265338250465923,"4":-0.034872703003066136,"5":-0.12018049660168824,"6":-0.03850381665893132,"7":0.019321063505185282,"8":0.17295526589236926,"9":-0.061435157740789004,"10":-0.031799547495620806,"11":-0.026040582014548147,"12":0.15939391243241496,"13":0.19091583012573193,"14":-0.07940060182504592,"15":-0.05339621895022925,"16":-0.01776768679760629,"17":0.1498962629304058,"18":-0.11884133138723907,"19":0.1870176635400183,"20":-0.0013109233512752813,"21":-0.09461006366677818,"22":0.007500658249182137,"23":-0.02445914245240624,"24":-0.05984402404196795,"25":0.13871429373480149,"26":0.05881960389174287,"27":-0.19113779955573612,"28":-0.13367035019241505,"29":-0.050856430484282344,"30":-0.1019970383777493,"31":-0.01953380902327831,"32":0.19277419258810352,"33":-0.14067948677607112,"34":-0.14699423939950995,"35":0.07599410300113026,"36":0.1406041495219595,"37":0.13144716403417062,"38":-0.0006132105647795902,"39":-0.19573186908878618,"40":0.17472727370418378,"41":0.04522294520370429,"42":-0.185271970117765,"43":-0.07392388743378457,"44":-0.014426321285145847,"45":0.006593381492120656,"46":-0.05270803694643314,"47":0.12542115614719457,"48":0.1542957987353928,"49":-0.12188753330178795,"50":0.13502167758501837,"51":-0.05689500656940277,"52":-0.031691518267916996,"53":-0.0730111749193841,"54":-0.116150544425773,"55":0.10940610065094893,"56":-0.08901675802685556,"57":-0.16304559207551414,"58":-0.1534713031075173,"59":0.04363193648837274,"60":0.15822738899819322,"61":-0.09661408917077122,"62":-0.03639997405030068,"63":0.10356647350795335,"64":0.1667369949348993,"65":-0.05865458429821069,"66":-0.1433544732912653,"67":-0.006453472217845289,"68":0.08234600282244149,"69":0.08685834200091426,"70":-0.12861686668388778,"71":-0.04511144639022882,"72":0.02081969051591817,"73":0.06314807373068994,"74":-0.033234281400518956,"75":-0.11710905202694473,"76":-0.05021655199147995,"77":-0.005026020696687065,"78":0.0014120398738211829,"79":-0.11750931947522102,"80":-0.006335240071939783,"81":-0.13561195352144773,"82":0.1997099823036022,"83":-0.0985506290852302,"84":0.11546804771728582,"85":-0.13528166416131193,"86":-0.03222292282648617,"87":-0.030647467011886198,"88":0.14965931276760763,"89":0.16061296925849983,"90":0.034288511769545726,"91":-0.10592505105801163,"92":0.08588396987847748,"93":0.029923265119714187,"94":0.045972753939849786,"95":-0.0796489891878539,"96":0.17959817784808346,"97":0.08299116657085483,"98":-0.09487997864403067,"99":-0.06665417387180265}},"6":{"bias":0.07646932276552007,"weights":{"0":-0.013458662552056723,"1":0.10201863155025442,"2":-0.02783998844888608,"3":0.12972377503547272,"4":-0.08772430529561442,"5":0.09808003289881545,"6":-0.10815888520073694,"7":0.0998766599434932,"8":-0.0405143874485473,"9":-0.0850293800954203,"10":-0.030279183832226223,"11":0.18211092587816913,"12":-0.05823378318664236,"13":0.08400754977274139,"14":0.10812030716124377,"15":-0.1826437190894465,"16":0.11249905314552983,"17":-0.03936730164778036,"18":0.030291105455489933,"19":0.16977258485067087,"20":-0.009858897493449877,"21":-0.029575831235615416,"22":0.11743999358523088,"23":0.1749275414485057,"24":-0.059450535268751804,"25":0.1943386869716962,"26":-0.012105986454753088,"27":0.19981231272477112,"28":-0.06844508515414399,"29":-0.016325512134699047,"30":-0.16826160929840606,"31":0.18081909466791352,"32":0.1753657981033941,"33":-0.011647816819367836,"34":-0.017707040884761025,"35":-0.04656455533322496,"36":0.15641570726666054,"37":0.02572322117421227,"38":0.028146583608122663,"39":-0.1589300821323375,"40":0.07095431128773289,"41":-0.16529068991285367,"42":0.036387867594840105,"43":0.008445989175470646,"44":0.05937127026054461,"45":0.02136897595855791,"46":-0.11464185172435444,"47":-0.10530832370486659,"48":-0.13574381952848835,"49":0.18058732079598505,"50":-0.10945136302825612,"51":-0.18196551741775674,"52":0.0037392013918180985,"53":-0.19559695215639275,"54":0.07830452148127753,"55":-0.09876812228676479,"56":-0.028979199731020148,"57":0.12924907954666215,"58":-0.0709883074064235,"59":-0.1717059302863161,"60":0.0071570737499316245,"61":0.06861797806132036,"62":0.13248741386714774,"63":0.062049084736736586,"64":0.05013204396027523,"65":-0.10304828842845362,"66":0.06944423571485481,"67":-0.1811507975470702,"68":0.1985828455749472,"69":-0.10514829538506072,"70":0.079242727461042,"71":-0.014355537367282324,"72":0.12003278771671849,"73":0.07253636263567409,"74":0.02652173836040694,"75":0.07571773661557035,"76":-0.1532439247493128,"77":0.19704709884035787,"78":0.16932240167889195,"79":0.09980983829382262,"80":0.06578580171126325,"81":-0.0471357550260107,"82":0.1795682775068601,"83":-0.14287516034883063,"84":0.031029733384730415,"85":0.14751446817326747,"86":0.12577383985999424,"87":-0.07725915645924014,"88":-0.05293034508567852,"89":-0.04607592595484656,"90":-0.1868038740728478,"91":-0.17056989444163245,"92":-0.13641373671334786,"93":-0.1895202837672512,"94":-0.1985132406253795,"95":-0.030937006303338233,"96":-0.1553098893512468,"97":0.042422997134508665,"98":-0.03028523072343867,"99":-0.06116823719557924}},"7":{"bias":0.020060035501028986,"weights":{"0":0.14416871426707656,"1":-0.09756764525467004,"2":-0.07388753861108269,"3":-0.011480518876700074,"4":0.07797357712021621,"5":-0.19979821003892867,"6":-0.05637801436626758,"7":0.0315695664108411,"8":0.08917104836633957,"9":0.06892292780882273,"10":-0.13732521895238609,"11":0.10651997255242027,"12":-0.03239192178392256,"13":-0.11134137518623319,"14":0.1989470680438593,"15":-0.044841686803041354,"16":0.10567810388362561,"17":0.1744289092913881,"18":-0.11002356734046187,"19":-0.053007991313128146,"20":-0.12816221386113613,"21":0.10144516129127298,"22":0.1266476705864683,"23":0.18461229086002862,"24":0.15979469476348312,"25":0.09202562823972257,"26":0.13320503171613962,"27":0.07623249629593051,"28":0.026736891754777777,"29":0.10145777260965264,"30":0.0765422146030382,"31":-0.0335199261821195,"32":-0.04597474437126365,"33":-0.052687232363162896,"34":0.08922140441915546,"35":-0.011404454781798972,"36":0.05697935523545896,"37":-0.1498556668675825,"38":-0.03904948232614842,"39":0.16632889874360118,"40":0.05472658222621831,"41":0.05680442882782374,"42":0.02939647419458782,"43":0.1835068125472084,"44":-0.1474527402586624,"45":-0.0611481223992392,"46":-0.11900976149284687,"47":0.1934702956312016,"48":-0.0053326490140840135,"49":0.11852466186589158,"50":0.015714694113345497,"51":-0.13698238132440893,"52":0.1604230635993794,"53":0.15048963690257222,"54":-0.02516399154358948,"55":-0.1414101021170005,"56":0.09009930074295555,"57":-0.1989396116501972,"58":-0.038872622027187005,"59":0.12157822355708633,"60":0.14325454572296292,"61":-0.1427368036276981,"62":0.018783651404888965,"63":0.028936049827249396,"64":-0.05240380007693019,"65":0.152007334046872,"66":0.19788744805461322,"67":-0.14967813396745772,"68":-0.11446439370432343,"69":-0.13688215406530946,"70":0.1595241503984347,"71":-0.049152126609472886,"72":-0.16150898856961576,"73":-0.09490839147859659,"74":-0.16494085805409997,"75":0.15216352298936398,"76":0.043221519348086455,"77":0.05237878143868004,"78":-0.08850023418584313,"79":0.033428294603587726,"80":-0.13596799176105706,"81":0.1119486484870926,"82":-0.02650036027574385,"83":0.19498597981488858,"84":0.13556512447154673,"85":-0.07252436622896638,"86":0.10636953545814906,"87":0.17436076143837126,"88":0.0027596853867784487,"89":0.1061979810901598,"90":-0.15533949870535582,"91":0.16536336319601685,"92":-0.09263753544458594,"93":0.19696041794574415,"94":-0.026144958081780332,"95":-0.16836037531414477,"96":0.11477818667969261,"97":-0.053113298843739894,"98":-0.12878357048997133,"99":0.06479976682073033}},"8":{"bias":0.1529304319917789,"weights":{"0":0.05263348117973666,"1":0.16851574823763235,"2":0.08655777870249014,"3":0.14440933455284696,"4":-0.19475254492331287,"5":-0.09638456107545633,"6":0.002778228824399499,"7":-0.049335724035836685,"8":0.04391729215662935,"9":-0.06652621814478178,"10":-0.039692433098889805,"11":-0.01933092839512966,"12":0.07860394128169877,"13":-0.030961639075167396,"14":-0.007972316457517354,"15":-0.07402605145666737,"16":0.07604035128410917,"17":0.16233451625835163,"18":0.025168356844596663,"19":-0.08685272914785881,"20":-0.15464250428099177,"21":0.011273455419950267,"22":0.03931745717804886,"23":0.11769505337383611,"24":-0.05637245337907217,"25":0.021807039794884703,"26":-0.08425696335230011,"27":0.1281190407326446,"28":-0.17528605788443227,"29":0.032202361137978815,"30":0.1895138231901453,"31":0.02130010266359904,"32":0.13218695985656245,"33":-0.062363922237045975,"34":0.19712707203384502,"35":-0.07197736503053447,"36":-0.020715632210113005,"37":-0.01009548121560357,"38":0.02808222583066682,"39":0.04161580715831376,"40":-0.14733089200649402,"41":0.06914360000323515,"42":0.0019785923747346734,"43":-0.008730527772195563,"44":-0.0060432741554452985,"45":0.031259521362744354,"46":0.02846735258158305,"47":-0.14838652779776593,"48":-0.03879619521517299,"49":-0.01941280757505438,"50":-0.1056267830679192,"51":-0.12711630995813747,"52":0.09274606256317357,"53":-0.19612712209541341,"54":-0.004938876083679421,"55":-0.1783630969138815,"56":-0.048493386073596705,"57":0.15661185438316325,"58":0.11998932593073706,"59":0.11626077777277692,"60":-0.0202612176673486,"61":-0.14194884189832946,"62":-0.07234290234241623,"63":-0.11857305729258795,"64":0.18761572212483743,"65":0.09357183183114985,"66":0.008720402778498903,"67":-0.12907362441960712,"68":-0.07635045574475068,"69":-0.07837247682232398,"70":0.04311485531311491,"71":0.14289707419034106,"72":0.07805279054250579,"73":0.17180487977843742,"74":-0.19194728239867828,"75":-0.12457269636411208,"76":-0.16773465323690315,"77":-0.19738193220887323,"78":-0.13147617058325548,"79":0.0908246632529424,"80":0.03816020189356068,"81":-0.11132797060031432,"82":0.1482250712675975,"83":-0.03241364575419566,"84":-0.12292767205703993,"85":0.02725401323791603,"86":0.12577371279280644,"87":0.08903605182226758,"88":-0.04708476729188107,"89":0.17142588420342666,"90":0.16985508109014494,"91":-0.00443219515923403,"92":-0.047255196529067976,"93":0.07346993534397343,"94":0.15527081562709075,"95":-0.18733605576176188,"96":0.1035221448963509,"97":-0.002674969485588279,"98":0.17591912521552308,"99":0.11891538313161597}},"9":{"bias":0.04710640079989344,"weights":{"0":0.11453211064321879,"1":0.12894460799975277,"2":0.1084771264238465,"3":-0.16241388498934034,"4":0.19991512344090223,"5":-0.163824432912637,"6":-0.07733018222393513,"7":0.0015565170800495144,"8":-0.16652491317259194,"9":-0.05173550929071427,"10":0.16534776146395086,"11":0.08005671574605584,"12":-0.13379354738758925,"13":0.13096167947037102,"14":0.043981379353086936,"15":-0.16663169182034257,"16":-0.05710142879875424,"17":0.037572190993111126,"18":-0.0317853331671846,"19":-0.16461998486088636,"20":0.13135107996744988,"21":0.11269904998002529,"22":0.049405394577066886,"23":0.17804198087064504,"24":-0.17088353178592447,"25":-0.10005040048750162,"26":0.1866492827316928,"27":0.04893816037906287,"28":0.18784433434588788,"29":-0.1891473091313434,"30":-0.12829688797833444,"31":0.022828025639634143,"32":-0.000302996497024298,"33":-0.043585253517497785,"34":0.015152016457747232,"35":-0.08565917109267832,"36":-0.00942892619537235,"37":0.04526382087601302,"38":-0.1239721467824471,"39":0.13957930643914224,"40":-0.017782422445137485,"41":0.1779984187228787,"42":0.17391189009753943,"43":-0.06841048766987444,"44":-0.13173097428994301,"45":-0.04616218703927519,"46":0.19669031956104516,"47":0.18097917036024808,"48":-0.0004502388754677886,"49":-0.071366381097008,"50":-0.12310608281882525,"51":0.14907815678847908,"52":-0.07759915749670983,"53":-0.07425396788062573,"54":-0.0702136630298388,"55":-0.09732998573349834,"56":-0.1710104625778091,"57":-0.03528794461058499,"58":0.019850224432181113,"59":0.13863997775001408,"60":-0.06476638420613527,"61":0.19062222008464813,"62":0.0596709743036139,"63":0.08093028896359684,"64":0.18546774069650052,"65":0.09054306558204768,"66":0.16802091495005367,"67":-0.007265138543565269,"68":-0.1698511002691281,"69":-0.047452957007457025,"70":-0.17455684031488422,"71":-0.020046716287155136,"72":0.10813492209522009,"73":-0.10536748302297712,"74":0.04338436945212959,"75":-0.04606760573701979,"76":0.1415144221751201,"77":0.009724058386515367,"78":-0.06745568682568194,"79":-0.14619868361519697,"80":0.05696789136959196,"81":-0.16479417300911667,"82":0.06598317277489187,"83":-0.00815341231541754,"84":0.029910789698939334,"85":-0.0252322089964342,"86":-0.17920668787451507,"87":0.11697432556061028,"88":-0.0040353017965150005,"89":0.18235405505506275,"90":-0.0132214930014503,"91":-0.051380389939416654,"92":-0.039541400420833844,"93":-0.05498739221261861,"94":-0.016617160394210805,"95":-0.18374360139610293,"96":0.11835201400203589,"97":0.17733083170710084,"98":0.14844688529951455,"99":-0.1977047988319588}},"10":{"bias":0.10231627973213553,"weights":{"0":0.15519744764804627,"1":-0.1798001387922487,"2":0.07408218022227078,"3":0.18170935559808998,"4":0.12983477107971697,"5":-0.07395643031433435,"6":0.11232947839215188,"7":-0.17927558858156417,"8":-0.011724591890575594,"9":-0.046558128280790756,"10":-0.16433792857662055,"11":-0.05477935241744131,"12":-0.092956492381396,"13":0.031864258197841944,"14":-0.006385084411354965,"15":-0.17626995936244938,"16":-0.16748133551538202,"17":-0.16137454312503552,"18":-0.11783615004480094,"19":0.0010201889255621866,"20":0.13944750774442938,"21":0.1395140383557954,"22":-0.13930541629180526,"23":0.15186198876961854,"24":0.08606870930433067,"25":0.044197325797525944,"26":0.039914402475354965,"27":-0.032791121753158264,"28":-0.018129598984720413,"29":0.13438602734148292,"30":-0.04499316605016798,"31":-0.13931767724663233,"32":0.19371034933045295,"33":0.016233671659378113,"34":0.13004528434738305,"35":0.04403003809764772,"36":-0.06584018085360738,"37":-0.12638820585072252,"38":0.025701768060920532,"39":0.1298048068934658,"40":-0.07992642287373752,"41":-0.10781147860199422,"42":0.038888775294421,"43":-0.040016143752487604,"44":-0.15303773403376553,"45":-0.18870816536456558,"46":0.09443606568291577,"47":-0.14857152885034894,"48":-0.12984397381752943,"49":-0.03460539465978951,"50":-0.04549861148208589,"51":0.03542294084816963,"52":-0.004125386459978538,"53":0.12335756515875249,"54":-0.1143878996206841,"55":-0.04963206898629874,"56":0.17308879719838288,"57":-0.07284892041444987,"58":0.13428614308848769,"59":0.015865014044342346,"60":0.1938122392797449,"61":0.18820213584020523,"62":0.19793291969015986,"63":0.05812073631003292,"64":-0.09730200356081338,"65":-0.05240219624921888,"66":-0.02868386281863064,"67":0.038573427887407835,"68":0.11709203796252401,"69":-0.13178517807483886,"70":0.005786742100266499,"71":-0.12718331169545863,"72":-0.13680925246536946,"73":0.17674262031703974,"74":0.16962676618039396,"75":-0.0748565452939293,"76":0.15646312750667124,"77":-0.08152384253427596,"78":-0.03747728698164435,"79":-0.023020932061823318,"80":-0.16937214087903713,"81":-0.004320625012966097,"82":-0.1353959386071584,"83":0.002204772194621867,"84":0.11552000671416315,"85":0.08827879449143797,"86":0.11929810458585413,"87":-0.02307067893654316,"88":-0.16214011430949185,"89":-0.1303045754155538,"90":-0.0031012740752121857,"91":0.06988790306985168,"92":-0.03592703229025215,"93":0.12464949928015265,"94":0.18159683739557653,"95":0.1364089342930892,"96":-0.15186126249119852,"97":0.10202910994902045,"98":0.18809716135054616,"99":0.02540300387680322}},"11":{"bias":-0.1873875138354675,"weights":{"0":-0.18511165607581215,"1":-0.03271976321796257,"2":-0.08963132457668263,"3":0.16294872859632298,"4":0.09043093441193621,"5":-0.10527816651249607,"6":0.07494817074527664,"7":-0.07955611789459664,"8":0.18881725777079983,"9":-0.10998479615757543,"10":0.02945478266244454,"11":-0.054782466905660236,"12":-0.1581569513664611,"13":0.1982771939239435,"14":-0.08898550173128325,"15":-0.06203701415891129,"16":-0.05557845881069381,"17":0.20112893158709333,"18":0.051785262172573045,"19":-0.07661707665631849,"20":-0.004625652952588395,"21":-0.09373991353297907,"22":0.13444966288422866,"23":-0.01907506262744148,"24":0.12375256396969479,"25":0.09044432059069794,"26":-0.18160168802226262,"27":-0.02500267311791259,"28":0.16832965394621419,"29":0.1332724606259696,"30":0.16632045885687397,"31":0.06112463992228432,"32":-0.06920140025997835,"33":0.1294267396084003,"34":0.031656347644977975,"35":-0.08833413584018428,"36":-0.09120645526657183,"37":0.023763168567322895,"38":0.09821814164658708,"39":-0.09297065002704341,"40":-0.09085788162285764,"41":-0.0761220123046108,"42":-0.015321511717981868,"43":-0.060637283826715536,"44":-0.011125529872722216,"45":0.0432860129154257,"46":-0.12915307873720605,"47":0.04672312611853403,"48":-0.02188529021898585,"49":-0.1533496464029916,"50":-0.07454391572485049,"51":0.06305015297745983,"52":-0.09300594016770203,"53":-0.02560308793420273,"54":-0.1695738083110221,"55":0.018306041007392814,"56":-0.11469595230976422,"57":0.020530050770842256,"58":0.15313034361367744,"59":-0.01836030058423359,"60":0.11732314150919836,"61":-0.12207457799325068,"62":0.18586897939582986,"63":0.10270043878024142,"64":-0.1360303230942257,"65":-0.030525490863717385,"66":0.009264122845136342,"67":0.1997831215723388,"68":-0.11273902574414689,"69":-0.06248263124237139,"70":-0.12020492240647156,"71":0.058931796123736314,"72":0.17429378094291015,"73":-0.19048947201902347,"74":0.011354385187380724,"75":0.1867295109308295,"76":0.14438776975637002,"77":0.12251298945536536,"78":-0.03907328223670203,"79":-0.1715262872525521,"80":-0.15854906033585148,"81":0.032657354941122936,"82":0.05680245520686431,"83":-0.10207428414235194,"84":0.1349373400784068,"85":-0.03846193685988266,"86":0.07336431281780524,"87":0.14139791835238857,"88":0.18566360348974986,"89":-0.12738300844887573,"90":0.029966028743886163,"91":0.08096492100646417,"92":-0.15737473511928993,"93":0.0840292544676892,"94":-0.1102509145983525,"95":-0.051286381518936934,"96":0.0256794226928584,"97":-0.18191270077461677,"98":0.1477459397739701,"99":-0.04386558843637186}},"12":{"bias":0.1695896442811332,"weights":{"0":0.19911424783184764,"1":-0.10571874952748783,"2":0.17061996632381912,"3":0.16924166302322982,"4":-0.15936423209369546,"5":-0.06118120602205761,"6":0.006565871603187255,"7":-0.1997019972173906,"8":0.04083926160946123,"9":0.08370359647214048,"10":0.04578593815803163,"11":0.09201648007273311,"12":0.12735726698428032,"13":-0.036406070132408194,"14":-0.15449553751260406,"15":-0.17853965577543146,"16":-0.009975301985297277,"17":0.10617313287347191,"18":0.071881795163598,"19":0.1245954734751546,"20":0.17932181689083213,"21":-0.17636258513540393,"22":0.15007480732291575,"23":-0.03100305260032782,"24":0.09007478901311389,"25":-0.18832591273695595,"26":0.07635802361309163,"27":0.04456636360972756,"28":0.07252495684787263,"29":0.013204553771164338,"30":-0.10192148466468223,"31":-0.10984125877604255,"32":-0.051502749555412605,"33":0.02256245804145568,"34":0.08439637613609069,"35":-0.07279948252126942,"36":0.12228817972480888,"37":-0.04706152840391166,"38":0.025037710509594607,"39":-0.1400589637911356,"40":-0.07769297449723252,"41":-0.047588550251576975,"42":0.14502974092155332,"43":0.03057101550638311,"44":0.0756006325142049,"45":0.0153444821493291,"46":0.15251171873077388,"47":0.09486388550266256,"48":0.15775777069046734,"49":-0.05121232294351226,"50":-0.14940444421828156,"51":-0.08821513135791191,"52":0.18442256641700502,"53":0.09147700886368387,"54":0.03504548077597851,"55":-0.1978144641487337,"56":-0.05588081418410308,"57":0.03137008822649352,"58":-0.11427723425314196,"59":0.020014662529673488,"60":-0.06879739700690277,"61":0.17925005289852255,"62":-0.05228679454759129,"63":0.10621024915143484,"64":0.012899218361225043,"65":-0.19016361129343873,"66":-0.0549532012535668,"67":0.15810252665668365,"68":0.06901509123980631,"69":-0.02887435289904841,"70":0.10763516812711588,"71":0.18276071851268047,"72":0.15429091188251612,"73":-0.026423146714124768,"74":-0.028895329915586798,"75":0.03489866736471288,"76":0.06886118031233185,"77":0.1533484332741761,"78":-0.15491266618356472,"79":-0.1096438513590432,"80":-0.09735314105511078,"81":0.14731138120531675,"82":-0.010680893201980676,"83":-0.14521758449137576,"84":-0.16281805024356014,"85":0.17634325581729052,"86":-0.03196761426389581,"87":0.04783308212771649,"88":-0.17784028607294328,"89":0.04444871046706671,"90":-0.14529104051053887,"91":-0.025206921015534484,"92":0.10982147283047072,"93":0.045941961697634384,"94":-0.1912871495342291,"95":-0.055647751920524915,"96":-0.15657705063805347,"97":-0.15972881181970602,"98":0.0022964044952356083,"99":0.17614922966003058}},"13":{"bias":-0.10580899567116867,"weights":{"0":0.017753566164033816,"1":0.03886640771801989,"2":0.1473521375241451,"3":0.14659033475022243,"4":-0.108574732844276,"5":0.1362833826015465,"6":0.0793746431502275,"7":-0.053794465199602425,"8":-0.14908712663177925,"9":0.19341785192068145,"10":-0.02507185003210385,"11":0.13592076908375544,"12":0.06181175840597073,"13":0.15444097240965293,"14":-0.04485736860383826,"15":0.17415597300555036,"16":0.01677337495188636,"17":-0.029630476873857555,"18":0.08561659503306672,"19":-0.070753923696024,"20":0.1909074315014057,"21":-0.14857284686018304,"22":0.17917949763636515,"23":-0.08393149057824689,"24":0.05740314090202967,"25":-0.031202270076168347,"26":0.15022719094108267,"27":0.1738372584949009,"28":-0.06296739604745584,"29":-0.09586940005843121,"30":-0.13400893535886482,"31":-0.05186861770649034,"32":-0.08157987630416232,"33":0.10398578263397738,"34":-0.043800161578250695,"35":-0.005888572507096112,"36":-0.16498037174765545,"37":-0.17860875295896605,"38":0.07097013035367648,"39":0.13316734406675623,"40":0.077255612160521,"41":0.01670786721210402,"42":0.00018282133664411162,"43":0.12860365837390947,"44":0.14975532648663448,"45":-0.17421288991768435,"46":0.004237625762330705,"47":-0.10172884080980497,"48":0.17213549224238323,"49":-0.1711266477448173,"50":-0.15074836591680127,"51":-0.05416207721878368,"52":-0.1704188439850934,"53":0.1187453976045124,"54":-0.02766700441439229,"55":-0.029182329945755783,"56":0.019717972367512413,"57":0.033387259501474316,"58":0.18955824022691176,"59":0.0324444157215528,"60":-0.07323405182410557,"61":-0.04434134353373725,"62":-0.037182342805457895,"63":0.1998417017194204,"64":0.07945321371357365,"65":0.1301658583017759,"66":-0.02079793483440359,"67":-0.03409325087864475,"68":-0.10388948245395499,"69":-0.00848942611787991,"70":0.018205439406888905,"71":-0.15957437426273302,"72":-0.04518423228014786,"73":-0.07540222377006489,"74":-0.0032015628968604277,"75":-0.012325536631537253,"76":-0.012512365248543782,"77":-0.13306400895540194,"78":-0.02520166177724081,"79":0.13064802495341227,"80":0.15603704742665814,"81":-0.14432558881540375,"82":0.05460737395610136,"83":0.07143409486438555,"84":0.19079319370489045,"85":-0.08857856130648929,"86":-0.04120428542096693,"87":-0.16621949810956196,"88":0.026796808015065596,"89":-0.14691450901751,"90":-0.13534619071011023,"91":0.1974045978071861,"92":-0.13185907833699662,"93":-0.023218398061139175,"94":0.0713787738377921,"95":0.02108363110150616,"96":0.16040192639033718,"97":0.1639275681371562,"98":-0.011999482740206307,"99":-0.12026395693842847}},"14":{"bias":0.0038791645148855626,"weights":{"0":-0.12108151521247233,"1":-0.1972662028827926,"2":-0.19729197444107735,"3":0.08922286164302025,"4":-0.06802717335235682,"5":-0.023687621855106023,"6":-0.08424188345384206,"7":-0.12858662614312374,"8":-0.16815907209825123,"9":0.06674103541586197,"10":0.11622511251184738,"11":-0.08287923279863205,"12":-0.018476168808456307,"13":-0.042167501241829025,"14":0.0690535217552224,"15":-0.11837685694631543,"16":0.09137586402061972,"17":-0.1924271954194864,"18":-0.16913644885357823,"19":-0.08425836385872569,"20":0.17508930415201582,"21":-0.08798265196096505,"22":0.15441803150165476,"23":-0.06262760590475405,"24":0.1308305479614774,"25":0.19430040549773372,"26":-0.151244083695974,"27":0.11667319191906252,"28":0.08162977602619327,"29":0.18829093780655062,"30":-0.05910042058389986,"31":-0.0004629874573310726,"32":-0.15608559464749303,"33":0.019435029386613716,"34":-0.11318252971109356,"35":0.021893770529959538,"36":-0.010568284426744828,"37":-0.010082091667618403,"38":-0.017946312759931932,"39":-0.15150368483450616,"40":-0.11522417477976885,"41":-0.10452430676382389,"42":-0.07158446209218707,"43":-0.06673774700325337,"44":-0.08003199817326273,"45":0.014809360078606965,"46":0.08497280590522684,"47":0.10597792975891031,"48":-0.08013876201298441,"49":-0.17727161086809243,"50":-0.061232025266554,"51":0.06226602681267653,"52":0.06029587379011905,"53":0.09856531564432776,"54":-0.15599470585298145,"55":0.036346798672411806,"56":0.05156110432285463,"57":0.036803178212676396,"58":0.018361421304825886,"59":0.1623400446056167,"60":-0.039760762263949756,"61":-0.19848115797799434,"62":-0.10841420972433295,"63":-0.1064120314055344,"64":0.10038923761162556,"65":-0.15515435989659632,"66":-0.00477327340927329,"67":-0.050607854683812487,"68":0.11600265279698764,"69":-0.15856169657495225,"70":0.19397519296321666,"71":-0.08723874930005875,"72":0.11052153585765158,"73":0.16134941112536585,"74":-0.026082377691682247,"75":-0.0004524816730281227,"76":0.02041370328802262,"77":0.17493832260656753,"78":0.1299000399215857,"79":0.1637955183191935,"80":-0.04156157243710362,"81":-0.0944578816154262,"82":0.10540072107974087,"83":-0.1581890729227325,"84":-0.17780418554034436,"85":0.06488913931239045,"86":-0.01450987653520312,"87":0.1768931214726309,"88":0.15385264233041204,"89":-0.1658504873485526,"90":0.07095394106868304,"91":-0.09987854314681496,"92":-0.04570447858136498,"93":-0.10137044284206237,"94":0.09222170990246926,"95":-0.13604241786238158,"96":0.1592247498250345,"97":-0.10709163862925376,"98":-0.027825026490654593,"99":0.02723511858198439}},"15":{"bias":0.12618391722271796,"weights":{"0":0.16969418228086267,"1":-0.06713590127933586,"2":-0.14112754752445783,"3":0.19233446699049508,"4":0.004521767426693783,"5":-0.07801080895174109,"6":-0.0491814370225724,"7":-0.062403752930050724,"8":-0.11100029814574681,"9":0.014984752055669194,"10":0.022106981095338218,"11":0.10068844389584103,"12":0.17822811594646606,"13":0.10411441084411183,"14":0.1292345227715019,"15":0.11322695017274659,"16":-0.04965536119002663,"17":0.06372943921428359,"18":0.17473098710593019,"19":0.18739719083946385,"20":0.09789627511467969,"21":0.12742503015738163,"22":-0.1570163263897952,"23":0.08424256742414271,"24":0.1398003602441791,"25":0.16049503712397253,"26":0.09381887671020067,"27":0.15760085303750074,"28":0.07176778950210849,"29":-0.08309170482266509,"30":-0.16240323315892186,"31":0.0007233475376311581,"32":0.07959650140669383,"33":-0.0017297267872449118,"34":-0.13203642926696504,"35":-0.17771671507093872,"36":0.14981136974360978,"37":-0.17620942415255872,"38":0.13008790594008005,"39":0.021305974297637097,"40":0.1272338466760162,"41":-0.03580831288877691,"42":-0.01607357710186207,"43":0.0856066045392696,"44":0.16655822545703683,"45":0.02755602775555289,"46":-0.1678774676244315,"47":0.1011010515544955,"48":-0.17922455006796684,"49":0.15548833264451659,"50":0.029472076524460666,"51":-0.12763184532109464,"52":0.03897876786481773,"53":0.049753205854857305,"54":-0.14262642357084718,"55":-0.09499298743489944,"56":-0.10479727414954268,"57":-0.019501527115291007,"58":-0.04594445460993611,"59":0.09726659292768874,"60":-0.030004767976289638,"61":0.18924122034054433,"62":0.15062070284452475,"63":0.19223726839240826,"64":0.050454346746617904,"65":0.0375187344890479,"66":0.15056119077321325,"67":0.09521790994744933,"68":-0.044321452077066545,"69":-0.17599320029426183,"70":-0.19746779249567356,"71":0.05583557328622972,"72":0.03733574515622294,"73":-0.049588188245480905,"74":0.1626918671694044,"75":0.01471744506102239,"76":0.056549860261792304,"77":-0.1006638955283519,"78":0.011902852826232086,"79":-0.03683908339176141,"80":-0.1803739388431963,"81":0.033122603506261464,"82":0.10126510188397209,"83":0.08812725320872106,"84":-0.08326744269165956,"85":0.12414221652265828,"86":-0.07101413551304303,"87":-0.05391984954062666,"88":0.19261344820674695,"89":0.12650220096524992,"90":-0.1994630141142365,"91":-0.06939150560233556,"92":-0.1705741422209498,"93":0.1174359182868544,"94":0.1615626760799829,"95":-0.022622680659925582,"96":-0.042099633715635174,"97":-0.012089716359561313,"98":0.1780533229973558,"99":0.09407350393425862}},"16":{"bias":-0.030346305920294355,"weights":{"0":-0.034988938204544684,"1":-0.03328430003260366,"2":0.19117694159264573,"3":-0.1931337987329542,"4":0.1397850868035377,"5":-0.00490533311625113,"6":-0.14290957071592203,"7":-0.19405567946617594,"8":-0.022219058990079064,"9":0.08928339367027291,"10":0.1473271777596594,"11":-0.15930504056398861,"12":-0.008440057865875868,"13":-0.12307584493194809,"14":0.13653891205082544,"15":0.18760390772710453,"16":0.0046048138965190406,"17":-0.18772821941186776,"18":0.1029390780929745,"19":-0.023589344255226772,"20":0.027013867322754955,"21":0.15525643850902923,"22":0.17903186219970593,"23":0.055057161648225855,"24":0.05730228579829347,"25":0.12619084033409964,"26":0.11650089171941289,"27":-0.005898694719719792,"28":-0.16143008836318842,"29":-0.007680627915608775,"30":-0.1824762163940548,"31":-0.06873288110603681,"32":0.09798720532323132,"33":0.17065956049824962,"34":0.1926774184894086,"35":-0.13270668902208202,"36":-0.11735335637589088,"37":-0.09303233300109497,"38":-0.07812820927013746,"39":0.1068459917534412,"40":-0.04683764532913556,"41":-0.19275371490751497,"42":0.01129949565271746,"43":0.16564322176615606,"44":-0.029946786284047264,"45":-0.02987309948315015,"46":0.026058915883702124,"47":0.010681022398573246,"48":0.08818469156737338,"49":-0.05822918166180244,"50":-0.16302730797563783,"51":0.012760592785132033,"52":-0.1378038790333747,"53":-0.1879708718765258,"54":0.14146149053464543,"55":-0.07707189268206349,"56":-0.12350331240107408,"57":0.10551152776221642,"58":-0.05657252010663144,"59":-0.19426536590566032,"60":-0.1622693852778255,"61":-0.1118698132481157,"62":0.10801722581724535,"63":-0.03773985945393435,"64":-0.12494536091347326,"65":-0.09296340842505088,"66":-0.17459075574536911,"67":-0.17329299452488414,"68":0.09914912131841194,"69":-0.15636543038074963,"70":-0.15309079068486683,"71":0.18820424878264677,"72":-0.0020134050655840866,"73":-0.03653240038787117,"74":0.09453564646880039,"75":-0.024916409167992985,"76":0.017936675876778465,"77":-0.14528836629127256,"78":-0.02846193167154779,"79":0.09180620161111366,"80":-0.10906713858951918,"81":-0.10790540960391155,"82":-0.11754133880843512,"83":-0.11084121561383001,"84":0.05745567471946486,"85":0.04030279225896011,"86":0.17766446207876216,"87":0.03555821587557803,"88":0.17579248582239163,"89":-0.1774285827088832,"90":0.13371504570583712,"91":-0.11666920960654607,"92":-0.09473729154800167,"93":0.03320818429107675,"94":-0.06689912446548335,"95":0.16604581249172698,"96":0.16496079673285494,"97":0.07094343693221819,"98":-0.03521835368831744,"99":-0.15721705092822305}},"17":{"bias":0.18655567157879815,"weights":{"0":0.02775415008423218,"1":0.008611357524072017,"2":0.08055397405756004,"3":-0.0703341486537706,"4":-0.10475555375682821,"5":0.07078760157806169,"6":-0.18671991933601612,"7":0.18475902894047389,"8":-0.17424155479761474,"9":0.1732680301508058,"10":-0.0972265806654345,"11":0.010403390633885951,"12":-0.05791956034022082,"13":0.038302498343413,"14":0.015168768293236596,"15":0.1729221450491,"16":-0.19677212058099622,"17":-0.16438759441020603,"18":0.10345204792452345,"19":0.0633301622560371,"20":-0.1571919773379218,"21":0.04143877144438517,"22":-0.08150994709226003,"23":0.15739334964660293,"24":0.04512503085193527,"25":0.1421638783393551,"26":-0.07424996268468609,"27":0.1710555462492753,"28":-0.03340240145566571,"29":-0.04214417092966545,"30":-0.06041306244673837,"31":0.09170988773462663,"32":-0.046264375527377014,"33":-0.13585152985992546,"34":0.08542434548494704,"35":0.08033261348960291,"36":-0.11974474523680917,"37":0.019316366347496613,"38":0.17377050689888487,"39":0.07910059432966005,"40":-0.05676963726523031,"41":-0.08170344975310079,"42":0.16106726828498133,"43":-0.042045208965415845,"44":0.08500199563336858,"45":0.07635111886543522,"46":0.10229841073510537,"47":0.056205229400669424,"48":-0.16342983494045848,"49":0.028367831776862248,"50":0.015658148410742364,"51":-0.13535672413649671,"52":-0.08163608719127885,"53":0.02656657978427895,"54":-0.06275370974558106,"55":-0.028011663877392904,"56":0.14054500584957488,"57":0.043333011153166415,"58":0.17567915686873084,"59":0.027259492720489605,"60":0.04454204527196777,"61":-0.06154625608118881,"62":0.11563056626824031,"63":-0.0017244377778719872,"64":0.18552527989727743,"65":-0.12568277154582255,"66":-0.059943300918663636,"67":-0.07840091154443732,"68":0.09766465298367033,"69":-0.10998311784582844,"70":0.10893086589408407,"71":-0.1400761162536096,"72":0.10414543983993424,"73":-0.015511354305769113,"74":0.18133090327960735,"75":-0.006086802077467343,"76":0.004475018321548782,"77":0.19349720863160977,"78":0.08267281533685811,"79":0.049256759542052844,"80":-0.010699001294548432,"81":0.0695536054996897,"82":0.17593691594434271,"83":0.1976161848148454,"84":0.03598892235664021,"85":0.07731570949313532,"86":0.0824029560526956,"87":0.07687928745058664,"88":-0.04628983378874767,"89":-0.15821949528994675,"90":0.046018092925672646,"91":0.13265444341582547,"92":0.1629614584474016,"93":-0.012922691893751536,"94":-0.11372899940701833,"95":-0.0010239911870907918,"96":0.09171303523239982,"97":0.0260552740050603,"98":0.021929864711140497,"99":-0.02305902062448373}},"18":{"bias":-0.021747054207462663,"weights":{"0":0.047626403596624074,"1":-0.18508728838674793,"2":-0.11286727053262358,"3":0.007080837589129158,"4":-0.10576192767508392,"5":-0.05354287478290567,"6":-0.1709687735248364,"7":-0.06171790317781335,"8":-0.18777595789320836,"9":0.1884943837936961,"10":0.14282050558216802,"11":-0.10475700444690947,"12":0.07033059966601367,"13":0.021357314817979273,"14":-0.042870833009109564,"15":0.1854222740683698,"16":0.13964244552738897,"17":0.048094250604882156,"18":-0.0356640548739589,"19":-0.10897305666618114,"20":0.1536418240223073,"21":-0.04581447833366758,"22":0.13047062556110256,"23":0.17778025788105956,"24":-0.014303572971001917,"25":-0.0636694900054491,"26":0.13857210992686386,"27":-0.050556077092514105,"28":-0.13218957123495706,"29":0.11417927729748127,"30":-0.0023103277493274742,"31":0.12510286836735843,"32":-0.06762766142524844,"33":0.13900440108813278,"34":-0.13305917208232054,"35":-0.08840236461870436,"36":0.10410329612754225,"37":-0.15323799022622475,"38":-0.01478774327002531,"39":-0.05526484384350546,"40":0.03095825600288742,"41":-0.1861573230769492,"42":0.04846724119819635,"43":-0.16073594496734508,"44":-0.10491931040920381,"45":0.11861260660774946,"46":0.02667358607836003,"47":0.10800807491727109,"48":0.08562163884602424,"49":-0.026285290095583263,"50":-0.16608034962005983,"51":-0.0025987813543534976,"52":0.005079587426408478,"53":-0.07976401097290282,"54":0.07810483730249045,"55":-0.07822052317820553,"56":0.11061758703403111,"57":-0.08780510354004864,"58":0.19040656096152897,"59":0.15828550808913938,"60":0.14916006258539788,"61":0.11024481707103488,"62":0.16748403857313032,"63":-0.17027352958135375,"64":-0.10395349891074065,"65":-0.011433556519076888,"66":0.1833788475658738,"67":0.09753144753016467,"68":0.016731762111558846,"69":0.04838983450867169,"70":-0.03770333782918819,"71":0.09119346641786334,"72":-0.1192660532254732,"73":0.09445521968267794,"74":-0.10158621578626399,"75":-0.059321094333753675,"76":0.07232870149277086,"77":-0.03524090483002431,"78":0.06732335590608356,"79":0.20092072521187299,"80":0.11597128796242116,"81":0.1638992479708039,"82":-0.1576958612833179,"83":-0.18680231182985077,"84":0.1458612250801169,"85":0.0207897101234638,"86":-0.04981622298397192,"87":-0.07477427276931767,"88":-0.08299125538356666,"89":-0.18082325861938367,"90":0.1262354721952223,"91":0.143447659973427,"92":0.05389453262872929,"93":0.16938903021477097,"94":0.0900428849909448,"95":-0.11754974306710128,"96":-0.11030387108363275,"97":-0.12686703459508786,"98":-0.19295710542388328,"99":0.0490394023884081}},"19":{"bias":-0.16856537348309392,"weights":{"0":0.04050468200019667,"1":0.1139518925281532,"2":0.1028065125750668,"3":0.12610348465985724,"4":-0.08510018733196785,"5":0.03681520226544808,"6":-0.0589069812265866,"7":0.1851826960513658,"8":0.08060351799375483,"9":0.017847696534759483,"10":-0.1628580172253483,"11":0.08568656354344557,"12":-0.17991890131362612,"13":-0.03011651902326276,"14":-0.07886881313153436,"15":0.04185344663581917,"16":0.12200269264302323,"17":-0.04510427719780138,"18":0.15416841230488484,"19":0.11918797980195951,"20":0.049913565471238604,"21":-0.08261138058134247,"22":-0.13614854073949986,"23":0.04555081281012963,"24":0.15833732665649722,"25":0.0864393983329005,"26":0.05566887485928008,"27":0.07579252545855115,"28":-0.16411817462050254,"29":-0.017477805510693112,"30":-0.008334602665685918,"31":0.015335809934354518,"32":0.057352189469552735,"33":-0.18492607061617905,"34":0.11739836254290416,"35":0.1329587704794771,"36":-0.005452381883346347,"37":-0.1190074352254801,"38":0.15351835287309354,"39":0.1552873092064924,"40":-0.04820391318627525,"41":-0.09357037932478716,"42":0.06885752103424737,"43":0.18516979928261704,"44":0.08833279202825496,"45":-0.1626809697305494,"46":0.19546003074518511,"47":0.03470631617254683,"48":0.1464626593808002,"49":0.07965084512851307,"50":0.15267020764893954,"51":-0.11981500160747101,"52":0.108427148062206,"53":0.063289000309474,"54":0.0429190565193362,"55":0.11684364223054718,"56":0.0011937415520019154,"57":0.11582074168271496,"58":-0.09645843493618896,"59":0.17077743153221078,"60":-0.1068841662896507,"61":-0.09483540977218081,"62":-0.1408218778377109,"63":0.09897041081584164,"64":0.08663068714684914,"65":-0.0477098438596063,"66":0.027893827605462773,"67":0.1511080151716537,"68":0.12383746964058946,"69":0.1230347917707927,"70":0.0541292107956774,"71":0.15748301505244441,"72":0.18623495160735318,"73":0.1518923476631112,"74":-0.021643282443814776,"75":-0.06701277221419742,"76":0.1691715491297013,"77":0.13154245850763388,"78":0.19952393400616117,"79":-0.08822989228048254,"80":-0.18043531856366332,"81":0.06926932999066183,"82":0.14496759970805714,"83":0.10396649123302772,"84":-0.09768419355952074,"85":-0.1384405329530769,"86":-0.11684137924441029,"87":0.13730827340058158,"88":-0.06656321964093377,"89":0.15997708005032604,"90":0.028764783806569078,"91":-0.17684739070811206,"92":0.0630166106218762,"93":-0.0045137486127846405,"94":-0.13507617671840721,"95":0.09651292341894575,"96":-0.0581710112919741,"97":0.12478467806375694,"98":0.012361659138864974,"99":0.1055764685677655}},"20":{"bias":0.02551514284793838,"weights":{"0":0.1355772042602659,"1":0.017522308132833335,"2":-0.19443839239400024,"3":-0.05312977843430035,"4":-0.13607301246818299,"5":0.1399437302679182,"6":-0.10099459318887581,"7":0.058864722955262724,"8":0.13400237001035223,"9":0.058170164465195004,"10":-0.031182683822476777,"11":0.027309755976533977,"12":-0.05426235394995803,"13":0.12067744871158016,"14":0.10188211425695433,"15":0.15601481217447524,"16":-0.09854967985745659,"17":0.01457335976440318,"18":0.10421875351596484,"19":-0.19045796636935466,"20":-0.16747203069251174,"21":-0.03420362296026343,"22":-0.19177911878075596,"23":-0.1473814060024559,"24":0.12549608163092144,"25":-0.1878744251139104,"26":-0.07300848020684113,"27":-0.1023103805303215,"28":-0.11208115835186233,"29":0.148852152186668,"30":0.022462172429299425,"31":0.06454104296419629,"32":0.086086162547803,"33":0.02980196643177279,"34":-0.033859023083710596,"35":0.053098265915399886,"36":0.15249619390372046,"37":0.1401390322439731,"38":-0.023710558288508578,"39":-0.15404065279733534,"40":0.09363210182193528,"41":0.04243128625232585,"42":-0.13289357219334835,"43":0.022535177688336454,"44":-0.18236045102100965,"45":0.1257997021966041,"46":-0.1374920184768378,"47":-0.047499659755045096,"48":-0.03418958858098976,"49":0.036825275137311306,"50":0.12616040827263006,"51":0.020223602741247508,"52":0.04804978668246278,"53":-0.01160842255201331,"54":-0.04934370927956096,"55":0.002640673141217321,"56":0.10556786329973351,"57":0.08213510931957375,"58":0.17010171068388827,"59":-0.08904027445685257,"60":-0.04153846241977206,"61":0.11580276796150814,"62":0.16543179070133576,"63":-0.004580917306953597,"64":-0.1855126421011626,"65":0.05748430890519028,"66":0.16053929002512105,"67":-0.11847308725562086,"68":-0.08389530089195957,"69":-0.1401308259039759,"70":-0.06366053317185631,"71":0.06756998756456979,"72":-0.01445960626449578,"73":0.10450358893278851,"74":-0.12876737285848852,"75":0.03862840132344374,"76":0.08947371635142577,"77":0.08875353652540453,"78":0.1982084950387836,"79":-0.18694919851120706,"80":0.1930522718422473,"81":-0.1899464471310019,"82":0.025782306394761888,"83":-0.18571941219713684,"84":-0.18181348788064117,"85":-0.006121546593272609,"86":-0.015665847440028115,"87":0.001111594396865445,"88":-0.16741520585935707,"89":-0.11159661729332199,"90":-0.1651759064800679,"91":0.04407787099037179,"92":-0.09208375560563196,"93":0.06526988939870011,"94":-0.09691287354078283,"95":0.046472455556726536,"96":-0.10252078166674962,"97":0.19464477737922078,"98":0.17069106101546297,"99":-0.011427063778752002}},"21":{"bias":-0.05692545488801772,"weights":{"0":-0.0598344450990374,"1":0.13896428819869805,"2":-0.10771610263611033,"3":0.07462101539720942,"4":-0.10008267436052515,"5":0.0637722197746222,"6":0.16983325470362953,"7":0.05280826443930317,"8":-0.006208583823096257,"9":-0.05738596238071869,"10":0.11824909316499879,"11":0.10594724070404818,"12":-0.08382497608537628,"13":-0.1685745599853511,"14":0.17448385886972,"15":-0.1803456059830899,"16":-0.17761229231829595,"17":0.06080354245503594,"18":0.02850680898999024,"19":0.05758045258124522,"20":-0.05740279491866779,"21":0.20146083569278173,"22":-0.007020473963272084,"23":0.201577870437253,"24":-0.1623771864163394,"25":-0.17133852347607564,"26":0.085471435339499,"27":0.08841001138215113,"28":-0.19427229530985307,"29":0.0600884644140785,"30":-0.16932902347172452,"31":-0.005383502523105858,"32":0.08139286607627913,"33":-0.022818143217515473,"34":0.16236570829649616,"35":-0.02771209135527562,"36":0.08728844633449959,"37":0.08060133054976512,"38":0.015708479360986228,"39":0.1760172341776376,"40":-0.09752202566589072,"41":0.10657376561437895,"42":0.1156693974335973,"43":-0.11381246579686953,"44":-0.14990825319538664,"45":0.10712325459470198,"46":0.1944903331634884,"47":0.12307790245984843,"48":0.08932508545120407,"49":0.11774761358400035,"50":-0.11492119563619449,"51":-0.10346479641149595,"52":-0.12068556623409345,"53":-0.05384192682678651,"54":-0.1101709332490976,"55":-0.09768568260471179,"56":-0.07299944406251266,"57":-0.055570464971166356,"58":-0.1433948137971277,"59":-0.18615130262325358,"60":-0.07024607082704856,"61":0.16380511855830598,"62":0.13096971370403815,"63":-0.02787974487866114,"64":-0.021222947834681993,"65":-0.014681676513206458,"66":0.19778719086324026,"67":-0.029172822943579656,"68":0.008896981162328003,"69":0.16209116427351883,"70":0.13441731769715598,"71":0.15795364024241615,"72":0.18025455333416512,"73":-0.08906152082483126,"74":0.04827852647875597,"75":-0.005420821549993275,"76":0.18926259454463773,"77":-0.11218451095620943,"78":-0.06252226645002915,"79":0.15293786430855444,"80":0.0941924778570716,"81":-0.035815640463184806,"82":-0.024698053969692695,"83":-0.044491468387346966,"84":-0.1692106172616298,"85":-0.17607601296032618,"86":0.057826144323993245,"87":-0.10901458376894547,"88":0.18465001907323647,"89":-0.03915820319081495,"90":0.11985910365482019,"91":-0.15670944603035997,"92":-0.03410923203329394,"93":0.1663074698125308,"94":-0.1039630494254346,"95":-0.18285844374324034,"96":0.08304701129098582,"97":0.06855596292887975,"98":0.17156923858572892,"99":0.007356554718065751}},"22":{"bias":0.04774696075261494,"weights":{"0":-0.11406755231459381,"1":0.06904067640985607,"2":-0.17569219375167724,"3":-0.036167785694345214,"4":-0.18332318196211692,"5":-0.04471779948238967,"6":-0.12198291409899237,"7":-0.058851795719459046,"8":0.19750952107693323,"9":0.01348916908587575,"10":0.1741341515616632,"11":-0.036006683466478576,"12":0.19092665996263988,"13":-0.11568379111726525,"14":-0.12254758503426554,"15":0.00486186781759621,"16":-0.19482429770891305,"17":-0.07128524368767382,"18":-0.013289587834372531,"19":0.1748694418170608,"20":-0.0829882546155596,"21":0.12035692019249557,"22":0.16183297207440503,"23":-0.021883054898574367,"24":-0.07737267686192634,"25":0.10538257129351854,"26":0.1814275476322628,"27":0.09530286185304877,"28":-0.11625985492159369,"29":0.19488919108967548,"30":-0.04386093279485344,"31":-0.16968305537615652,"32":-0.14562809866060253,"33":-0.10338597826798203,"34":-0.08920224344496372,"35":-0.07121725415949466,"36":0.1641604951755262,"37":0.1568571291105009,"38":-0.05046858050067661,"39":0.1495751468637145,"40":0.15611317988346582,"41":0.0879077891991591,"42":-0.06924463424970152,"43":0.03276806047047735,"44":-0.06207772044603467,"45":-0.05175417138402104,"46":0.06250096011768337,"47":0.003208547754690653,"48":0.15345617916296486,"49":-0.09613521963496449,"50":-0.17599719602753158,"51":0.17400658048550852,"52":0.05269423603873018,"53":-0.04546662176166415,"54":0.08627471217747092,"55":0.06828333234275936,"56":0.1438034162097729,"57":0.16109232382710345,"58":0.08957399094338771,"59":0.17488123813505538,"60":0.07546234132583497,"61":0.12726574374224311,"62":0.12286579061161042,"63":-0.10820326114211919,"64":-0.011144207214459186,"65":-0.14915685260806913,"66":-0.03960365176339388,"67":0.09353722261126397,"68":-0.0935705450191045,"69":-0.17817542765428063,"70":-0.09707289680977109,"71":0.10022618865455747,"72":0.026767164951667782,"73":0.06316992241750714,"74":-0.023003628646477453,"75":0.14579565899308092,"76":-0.0730295263989711,"77":-0.13212736815352674,"78":0.049967786593840144,"79":0.033706227614090464,"80":-0.053287706879421456,"81":0.17892130764062766,"82":-0.04817807039384482,"83":-0.05822043342654347,"84":0.04987668983499764,"85":-0.10227266771857384,"86":0.01276264965395688,"87":-0.06510932089899422,"88":-0.13845522215728398,"89":-0.14336271759261127,"90":0.08278657600145102,"91":-0.01449810600046755,"92":-0.032334773038967826,"93":-0.18146640414510604,"94":0.09404747534404752,"95":0.03535651109974146,"96":-0.06743683384869935,"97":0.0260230934419787,"98":0.09348207769776941,"99":0.037320728710398696}},"23":{"bias":0.15715966049940572,"weights":{"0":-0.18194780921932505,"1":-0.1314475113004093,"2":-0.14165968014296337,"3":0.14891343615580158,"4":-0.16709589878466174,"5":-0.005002219922805275,"6":0.18055005348849848,"7":-0.05313305206965848,"8":0.16035322878140765,"9":-0.02933850814026042,"10":-0.1915940350331013,"11":-0.16215605562921806,"12":0.12744943504784065,"13":0.023917361028527796,"14":0.10601577214527683,"15":0.021588963694905795,"16":-0.18790422244366453,"17":0.04375700126964408,"18":-0.03208526414256734,"19":-0.06815712064873619,"20":0.026861171755975057,"21":-0.05187775301184699,"22":-0.16318398829918548,"23":-0.0590231459997241,"24":-0.11055365125086351,"25":-0.025422960746998034,"26":0.1905948179364558,"27":0.17936936007443624,"28":-0.03532173274453922,"29":-0.05254177697371883,"30":-0.03054031193625375,"31":0.056539089378004816,"32":-0.017458055768126667,"33":-0.0955862793549542,"34":0.1844807808809336,"35":-0.07642757971208736,"36":0.1647154902629908,"37":0.10778098120916443,"38":0.14383053905892926,"39":0.17046969947967486,"40":0.002147078659420768,"41":-0.1915129259638135,"42":0.012861688207870288,"43":-0.01868203957002803,"44":-0.06943174166973873,"45":-0.07907606395330473,"46":-0.1704846082664673,"47":-0.023213606089318238,"48":-0.047603082511538684,"49":-0.14397863433134003,"50":0.07953047087047058,"51":-0.19613723507520006,"52":-0.18860674932968066,"53":0.04081493043903071,"54":-0.09623958528410836,"55":-0.10504615739356919,"56":0.05232874523479301,"57":-0.15608963309224888,"58":-0.022989883501047324,"59":-0.17758319978039905,"60":-0.06067580351975007,"61":-0.05058831585940165,"62":0.1172553335838373,"63":0.14493832081187327,"64":-0.040029972739482354,"65":-0.05141084170337958,"66":-0.021932171512359815,"67":-0.1095533654503171,"68":-0.06846905503791018,"69":-0.08272809520732805,"70":0.08417344359312015,"71":0.006443556543474952,"72":-0.07090347636860056,"73":-0.03915737564113183,"74":0.06018076628077582,"75":0.05172283887494165,"76":-0.07261945367228434,"77":-0.045145798794889884,"78":0.08193008662763793,"79":0.17405817541856125,"80":0.14120552861694055,"81":-0.14087056950103685,"82":-0.10411537228521153,"83":-0.17975422660257862,"84":0.15641380535069663,"85":-0.02907426584880992,"86":0.14731761939454632,"87":-0.017017987783962928,"88":0.01562326462570385,"89":0.013433025457000288,"90":0.011300721630489398,"91":0.05419304990771965,"92":-0.10714952409636422,"93":0.10021654391292292,"94":-0.1843868586644177,"95":0.07401029025766806,"96":0.030477737966960246,"97":-0.12618202254545138,"98":0.11179255261648255,"99":0.026102874387090975}},"24":{"bias":-0.13758064906770145,"weights":{"0":-0.19587736804589295,"1":-0.10314330742314123,"2":0.18267740696117618,"3":-0.18611243008255626,"4":-0.06741026821165942,"5":0.15145264617547727,"6":0.010846828160885332,"7":0.15910851634487844,"8":0.002218460435125577,"9":0.0209642986339364,"10":-0.16651972070887353,"11":0.06461930177554821,"12":0.1802970869970355,"13":-0.035869391025897514,"14":-0.1895944950598445,"15":-0.07228628252252602,"16":-0.012548450516458979,"17":-0.04024813570633196,"18":-0.1821773102934625,"19":0.030046226227733844,"20":0.10050512054384093,"21":0.133632539635602,"22":-0.008612853145148983,"23":0.17680453420997,"24":-0.15789042436137463,"25":-0.18915764935865664,"26":-0.0761994102466073,"27":0.0038243441414866327,"28":-0.20086654065727855,"29":0.08312809714496473,"30":-0.18322766297116544,"31":0.14678695728451346,"32":0.1190301470030878,"33":-0.11378348380878232,"34":0.07931759790897704,"35":-0.04185624238654637,"36":-0.19553582355931068,"37":-0.05280081801667478,"38":-0.16097474484324123,"39":0.02922612955242729,"40":-0.06643399963706396,"41":-0.027409927776005507,"42":-0.013039392182525648,"43":0.10084086596414783,"44":0.16244351878211238,"45":0.17821009434208607,"46":-0.15167618714823985,"47":-0.15839113029271032,"48":0.06229824968993997,"49":-0.14289695736571814,"50":0.09547727560073473,"51":-0.03128300248264931,"52":-0.11033670571252369,"53":-0.008991190088835008,"54":0.021828169053498273,"55":0.1512130270284448,"56":0.1793583092783425,"57":-0.15456161726817155,"58":0.05574327647134996,"59":0.01967556015968658,"60":-0.14973438358485366,"61":-0.14102650354236032,"62":-0.1798483768905666,"63":0.09470152096271851,"64":-0.09430580031677746,"65":-0.16457888953938749,"66":0.187341320844445,"67":-0.11102290604814552,"68":-0.05756297870158817,"69":-0.18140886858656669,"70":0.022163628557774793,"71":0.17183429687664248,"72":0.14446952916130756,"73":0.14351117923304774,"74":0.08633622401774267,"75":0.1494359244164858,"76":0.021060525769445674,"77":-0.006400617813613648,"78":0.03545016008809542,"79":0.05314014782578085,"80":-0.1831545698884096,"81":-0.01170458844482564,"82":0.16603851938069203,"83":-0.1343921543526616,"84":0.02445877106309272,"85":-0.019345767838802565,"86":-0.1456357742156055,"87":-0.05982519280716445,"88":-0.06181568349331285,"89":0.11500999485522846,"90":-0.13531471262305642,"91":0.146226232735518,"92":-0.12833373830273415,"93":-0.17164141139566566,"94":-0.08970701875716112,"95":-0.006147545898255337,"96":0.12152211550072174,"97":0.1476282683704827,"98":0.1344939737153087,"99":-0.009217131460007664}},"25":{"bias":-0.05144082411468363,"weights":{"0":-0.08917470781462108,"1":0.14888055881155812,"2":-0.059724009245204095,"3":0.20095326507134523,"4":-0.08144425193177378,"5":0.14724822330890383,"6":0.16404945261446915,"7":0.09651941077454172,"8":-0.07797719521777546,"9":0.03420426210059011,"10":-0.14571573280127562,"11":-0.17742366681204952,"12":0.032207212109548695,"13":0.016987229302955525,"14":-0.19076737307341612,"15":0.10668713075710622,"16":-0.06870349498795188,"17":-0.010177148062305819,"18":0.16980997824711883,"19":-0.0028966717641226098,"20":0.14681337287319982,"21":-0.13262641199262656,"22":0.14543262717915859,"23":0.0024508001994916267,"24":0.00048290758995498415,"25":0.12021448339937417,"26":-0.03803646054448403,"27":0.08530602890668597,"28":-0.009274447638111466,"29":0.002753289115113861,"30":0.15687655664650882,"31":-0.07942536540658986,"32":0.19546969195498312,"33":-0.1847113098237089,"34":0.133173531178815,"35":-0.08456270929755484,"36":0.0761553705450722,"37":-0.1819697740706972,"38":-0.028132802456187368,"39":-0.17686840772958315,"40":0.037219661172909375,"41":-0.05464242801399743,"42":0.05087453925652589,"43":-0.00781220535145915,"44":-0.09550066555248415,"45":0.0643841626834699,"46":-0.18126834716977394,"47":-0.06129977668033756,"48":0.050643323060555114,"49":0.012793279417289144,"50":0.011802086584699977,"51":0.05463400387806975,"52":0.13598301911397062,"53":-0.16517253036008991,"54":-0.07734670063810264,"55":-0.06756797472344554,"56":0.11571391697643484,"57":-0.1330933439764551,"58":0.144153805334551,"59":-0.023692282590585107,"60":0.1681650340337881,"61":-0.06387431791381752,"62":0.1989540493827888,"63":0.07994457127196873,"64":-0.14495576054187334,"65":-0.11194663552896893,"66":0.009798944440168966,"67":-0.07818707770066177,"68":-0.1541083348202876,"69":-0.027299138273613816,"70":0.10563765091492021,"71":0.1428536573205718,"72":0.02648763226015653,"73":-0.13631699413390674,"74":0.19895552003426634,"75":0.05008282081825816,"76":0.10346849176703181,"77":-0.005488984774368177,"78":-0.18327458614813008,"79":-0.15095082151101746,"80":0.0878191683222183,"81":0.020955747437162036,"82":0.058343154076916794,"83":0.12543449772192325,"84":-0.08718668615775024,"85":0.03265267580418075,"86":-0.04890641814427293,"87":-0.07992120191784417,"88":-0.04004797676907695,"89":0.1362897109021076,"90":0.12914109740076743,"91":0.0050851699676939316,"92":0.14881811754448496,"93":0.1070375083726474,"94":-0.12835085207925953,"95":-0.02769794671194469,"96":0.03551501284955228,"97":0.05196388156755053,"98":0.09265826845212065,"99":0.1858571131494471}},"26":{"bias":-0.0150827522402638,"weights":{"0":-0.16954005306130995,"1":0.18308041215398566,"2":0.0642610724874701,"3":-0.08300141861206631,"4":-0.005708170789394188,"5":0.1960390888945128,"6":-0.14554201980597128,"7":-0.13523351653954732,"8":-0.061900045457396316,"9":0.15686804408663166,"10":0.15371167602473154,"11":0.07030726697751544,"12":-0.13271042650109874,"13":-0.14484204111165155,"14":-0.08947275841153006,"15":0.11465883411922717,"16":0.14713111043432012,"17":-0.14242194249770393,"18":0.042727936790224505,"19":0.005777387120660739,"20":-0.11936205235785584,"21":-0.09867616930520873,"22":0.01887221558475156,"23":0.16053770453193442,"24":0.033369325552966775,"25":-0.0008825182124112134,"26":-0.15647229097327936,"27":-0.03282977660662274,"28":0.08251703389444609,"29":-0.1862358927867447,"30":-0.17187357695317615,"31":0.12644065216639291,"32":0.14829110147887123,"33":0.19571145762213718,"34":0.02386582585507292,"35":-0.005043450291368782,"36":0.14983577885189306,"37":0.1711865306691195,"38":0.14952992329829587,"39":0.020779716116275975,"40":-0.005750642451557917,"41":0.1231027006030943,"42":0.13700619953208817,"43":0.08818055483036896,"44":0.10477620585345887,"45":-0.05329386891341549,"46":0.1689145385147001,"47":-0.11245362694850902,"48":-0.1459732942423855,"49":0.027445650645431457,"50":0.018468876820888696,"51":0.11841580335506463,"52":0.03331493007474799,"53":0.07209351871618291,"54":0.05612556690805813,"55":-0.038579267556879335,"56":-0.09116050267136434,"57":0.022740055047806695,"58":-0.12280065819165448,"59":-0.1966116193822657,"60":0.11490737319448252,"61":-0.07249655985749107,"62":-0.0771398111387227,"63":-0.11971472447282414,"64":-0.13474271969414103,"65":-0.19292952745697248,"66":0.08022974905082247,"67":-0.11984742145529727,"68":-0.11663144893488625,"69":-0.029048670283618978,"70":0.09768818615460056,"71":0.15609688347661152,"72":-0.07757245098716359,"73":0.10907569619351287,"74":0.16635157585599672,"75":-0.07206881345725397,"76":-0.11631483213520388,"77":0.10016974516668581,"78":-0.16605605558967937,"79":0.18723616738327994,"80":-0.10432051430932025,"81":-0.09505801481670478,"82":0.13219018446737182,"83":0.1141911750518646,"84":0.17024086190843238,"85":-0.1984281883715724,"86":-0.006484678308579726,"87":-0.05615086184358935,"88":-0.03004818345895748,"89":-0.09263189985892514,"90":-0.19292881266689646,"91":-0.11284698770857195,"92":-0.15688562497040975,"93":0.09135149613478444,"94":-0.03756587432241777,"95":-0.17225687831184613,"96":-0.19786661315253723,"97":0.10297244320147891,"98":-0.11309232266164164,"99":0.013502285522308548}},"27":{"bias":-0.1765191383800875,"weights":{"0":-0.02003526683590929,"1":-0.17807866219125312,"2":0.08854899810932952,"3":0.15190262425996742,"4":-0.1317105379483811,"5":-0.20148173296518246,"6":-0.06803543107278269,"7":-0.10558581934935969,"8":-0.032698726334344536,"9":0.058951007801372635,"10":0.018397986556667877,"11":0.04650582479618867,"12":0.08448413037069517,"13":-0.09203474117137116,"14":0.19387398533828937,"15":0.09022290487148242,"16":0.014697256072688894,"17":0.1798412326195129,"18":-0.1191398135914616,"19":-0.1918744757368378,"20":-0.023724632017981202,"21":-0.1936332913643829,"22":0.10543769620664793,"23":-0.001132567093443067,"24":-0.03506762642107525,"25":0.014619261346090642,"26":-0.18863441213659565,"27":-0.0575470981716327,"28":-0.15001870846069973,"29":0.09092764942281327,"30":-0.16681391220233957,"31":-0.0806316134116761,"32":0.023438388894576632,"33":0.1492207803235241,"34":0.17230213307150088,"35":0.1793891700387784,"36":0.04375475416265806,"37":-0.11468497203357142,"38":-0.04114774601228158,"39":-0.13317223727397243,"40":-0.05509590837798636,"41":-0.15546199628777424,"42":0.08608428960971913,"43":0.13297110539235552,"44":0.18177130608193953,"45":0.0408269145929106,"46":0.17486018449373925,"47":0.1079331009120532,"48":-0.1433926806382052,"49":-0.1649131865768842,"50":-0.09297172609410805,"51":-0.11179800001598518,"52":-0.06037912010840693,"53":-0.1013620595044605,"54":0.19209152389623602,"55":0.1719556156948992,"56":-0.10042110277033967,"57":-0.028165380616407783,"58":-0.022217631579112225,"59":0.14406127812646707,"60":-0.1386514676331691,"61":-0.10120813479341191,"62":-0.18570800698987763,"63":-0.20176894614167135,"64":-0.03167432207308333,"65":0.0806321045786925,"66":0.06008440567486367,"67":-0.20069419886611026,"68":0.14969903923876965,"69":-0.16782985744692008,"70":0.01704220393978436,"71":0.10736187234826765,"72":0.07305517275192218,"73":0.03491203407131513,"74":0.07243082341112571,"75":-0.13340339563481132,"76":-0.0009664802408925828,"77":0.09997936286338054,"78":0.11247044163130603,"79":0.162759456265051,"80":-0.05821958031199495,"81":0.08935215207122642,"82":-0.11584200547702235,"83":0.13000265363909685,"84":0.06153182279624425,"85":0.06863454146616536,"86":-0.15796582378141205,"87":-0.034407613199870984,"88":0.016068224369812804,"89":-0.16558885076708715,"90":0.11111306645281992,"91":0.007962887681353883,"92":0.1358853607841619,"93":0.10383402793042738,"94":0.04211109722338996,"95":-0.08142905967004221,"96":-0.1844283116578273,"97":0.16436297674037897,"98":0.01913624549590428,"99":0.19402738701858008}},"28":{"bias":0.1742347363496607,"weights":{"0":0.0848866269711666,"1":0.09221684790889549,"2":-0.13157654453327128,"3":0.09561672162006428,"4":0.04156278965736554,"5":-0.11224943792705608,"6":0.0955506639343016,"7":0.020116756090175394,"8":0.19600636733437712,"9":0.1429280019153171,"10":-0.013158150690395342,"11":-0.0007969276260323516,"12":-0.0018160861197597915,"13":0.09255666972811148,"14":-0.021610265898305905,"15":-0.13901787253354855,"16":-0.08580822518353534,"17":0.12387289141977957,"18":-0.06390795551498606,"19":-0.0069359557915217975,"20":0.018010035974185948,"21":0.11761542528609563,"22":0.16844475714231663,"23":-0.1300186036366708,"24":0.18479804003353054,"25":0.13282472274939353,"26":-0.14190897552554677,"27":-0.16350918637846776,"28":-0.05950491113846376,"29":0.18631561442951491,"30":-0.02090553391982984,"31":-0.15238132003952928,"32":-0.018939648031044712,"33":-0.15738830261190603,"34":0.08984735503534601,"35":0.07166396526361633,"36":0.1825510955203586,"37":0.11347061952317881,"38":-0.09116983825599027,"39":-0.03536944847812129,"40":-0.07112122524787855,"41":0.009218327493619217,"42":-0.12105591550727558,"43":0.0426886449355893,"44":0.19971687260757023,"45":-0.13410908665766189,"46":-0.06586866734807563,"47":0.03649992642666028,"48":0.01744051042686033,"49":0.101704981063705,"50":0.00595718694592644,"51":-0.11330501262356711,"52":-0.008988745624918453,"53":-0.1581564202185459,"54":0.012013473433654793,"55":-0.06961628023793175,"56":-0.02979577884336186,"57":-0.1550012647386379,"58":-0.044549288808155785,"59":0.1985265275251382,"60":0.09329971100876853,"61":0.09659983960653472,"62":0.1999237283852213,"63":0.017155895454090117,"64":-0.061907352342057964,"65":0.11711650367568065,"66":-0.1992644971448667,"67":-0.15523028897379706,"68":0.12583550147454078,"69":-0.11498702496548367,"70":-0.06924537999813628,"71":0.049642959867816444,"72":-0.17673566324894496,"73":-0.14637904318307707,"74":0.08266901995728541,"75":0.17174139439801508,"76":0.1977294275325053,"77":-0.14040100101639696,"78":0.0908550845247023,"79":0.13452333433295424,"80":0.09287452108899878,"81":-0.1283046272795386,"82":0.13622309786940748,"83":-0.07937009951357914,"84":0.12488736619914702,"85":0.1729749451179319,"86":0.19905429415146644,"87":0.061835584209512934,"88":0.04562435809264706,"89":0.04549296840767192,"90":0.04307480033228919,"91":0.04464725393543767,"92":0.13976540097708637,"93":-0.11613850306977702,"94":0.05556035635734721,"95":-0.0061714841264970234,"96":-0.04501574432735517,"97":0.10801959017033506,"98":0.19372974697242315,"99":-0.14945222690959642}},"29":{"bias":0.011909793547702158,"weights":{"0":-0.08935949330714456,"1":0.13915545806723728,"2":-0.08988906660613528,"3":0.14414432855757964,"4":0.16418491859424006,"5":-0.10272201666173449,"6":0.188162803430735,"7":-0.13927602501151076,"8":0.10500370447027572,"9":0.05571503794255741,"10":0.08817793239343057,"11":0.006767639484881232,"12":-0.020961709260315823,"13":-0.1665833517306756,"14":-0.1364765845568191,"15":-0.03938349972975367,"16":-0.03057561659750455,"17":0.13362382097604764,"18":-0.06831108688873162,"19":-0.08409937874910346,"20":-0.18369546424162497,"21":-0.17619236701664437,"22":-0.12934145334673036,"23":0.19656949012043967,"24":-0.05898937558320278,"25":-0.13307545356017458,"26":0.056823414717494324,"27":-0.0519336930805158,"28":0.06764899665924799,"29":-0.12013998100099078,"30":0.20015197979721322,"31":0.0623460217050005,"32":-0.08538294698608032,"33":0.1988433533019115,"34":0.18649574552166354,"35":0.15781556765052568,"36":-0.016237017172695326,"37":0.1715055033235539,"38":0.03225163534718641,"39":-0.15705230341789236,"40":-0.024022459644199527,"41":0.1998925042009641,"42":0.009720679898439718,"43":0.0741333512260307,"44":0.16447016984659324,"45":0.0869301920427669,"46":0.08507686049181111,"47":0.01906778511094936,"48":0.1707887621267427,"49":-0.17898534623471013,"50":0.1726126742220212,"51":-0.058989271368206676,"52":-0.08399158831250778,"53":0.1331385228453864,"54":-0.09403510320496669,"55":-0.18125054327336063,"56":-0.10657037742000929,"57":-0.11600694594469776,"58":0.16860440900984297,"59":0.02307759790184982,"60":0.15746485177862535,"61":-0.13050468669769277,"62":0.07592557805094012,"63":0.03140575621712096,"64":-0.09596414681089034,"65":-0.08566458507937304,"66":0.19646076100382104,"67":-0.16587629898947587,"68":0.08945891257810483,"69":0.11042483194234858,"70":-0.014391850154222178,"71":-0.06650386968192569,"72":0.07770300178292282,"73":-0.10046477535304538,"74":-0.11425186715585103,"75":0.12353494918408879,"76":-0.18939433743742218,"77":-0.0541967857026767,"78":0.04459990278321393,"79":-0.11207659657609573,"80":-0.1315052503117632,"81":0.19357689401569855,"82":0.06304047281357537,"83":0.17139296565639867,"84":-0.12046794019204489,"85":0.12283848045828831,"86":0.061785425026594475,"87":0.1996394773616184,"88":0.14943050617787135,"89":0.06702465877371915,"90":0.18785547117206347,"91":-0.18961111580517997,"92":0.14386809502231968,"93":0.03873468662115819,"94":-0.06463281804260722,"95":0.025399391972153264,"96":-0.18694430015546193,"97":0.17638713807302608,"98":-0.13113263802167882,"99":-0.1227015400634419}},"30":{"bias":0.19402947265951057,"weights":{"0":0.005272488992086079,"1":0.14970274590643348,"2":0.12147606652917568,"3":-0.18354170690534413,"4":-0.11962258308438359,"5":0.1047879622759134,"6":-0.1476917818678707,"7":0.060824242837151904,"8":0.16930383299233617,"9":0.05350860669033827,"10":0.1895484036275953,"11":-0.20020928490219414,"12":0.028512666697970045,"13":-0.1154415034247726,"14":0.12412346484827107,"15":-0.04881949411017597,"16":-0.08309533377421795,"17":-0.10909993849007188,"18":-0.018157435816356527,"19":-0.19584702779782712,"20":-0.00694598225189149,"21":-0.11236885846836267,"22":-0.009463307310470926,"23":-0.12292428934259116,"24":0.09467022106738986,"25":-0.1924724142557174,"26":-0.15058961897400916,"27":-0.05919400523660481,"28":-0.16957339491007625,"29":0.03264288096444906,"30":0.003429668347707394,"31":-0.009032487545737622,"32":0.17220320976095502,"33":0.18268846296461524,"34":0.045780197575113174,"35":-0.0637172348356038,"36":-0.18127052248699368,"37":-0.0034577603010624504,"38":0.05869683283137381,"39":-0.06334642288518845,"40":-0.1743461623346597,"41":0.13654438326822818,"42":-0.051704924602636676,"43":-0.18216381189657152,"44":0.18199294334965052,"45":0.17203245307075085,"46":0.14582093148248496,"47":0.11884802602919046,"48":-0.07691835086105166,"49":-0.19929539398534,"50":0.16247828989045918,"51":0.03520514429303109,"52":-0.11252017081958948,"53":-0.190785894778201,"54":0.08050287230627838,"55":0.10065140868293347,"56":-0.053173062161186335,"57":-0.15927828396914304,"58":-0.15958834248838724,"59":0.15071754534485046,"60":0.1894343569384724,"61":0.10782863213436904,"62":0.1407745886104018,"63":-0.16188052962777913,"64":-0.07285100328979789,"65":-0.026761426918783766,"66":0.15761761557998363,"67":-0.005755454071441284,"68":-0.12615064657537042,"69":-0.13131244671774803,"70":0.020547270353308344,"71":0.16255623451190296,"72":-0.13726483634916842,"73":0.16938406838791673,"74":-0.1518324812432915,"75":0.033933918967267884,"76":-0.17042408441437185,"77":0.18388386922644676,"78":-0.16207683994678557,"79":-0.05767278014926017,"80":-0.05767462193278372,"81":0.14836561237218085,"82":-0.09797122511325179,"83":-0.1679688883504063,"84":0.014691017984768772,"85":-0.14391668816340863,"86":0.12343009258376662,"87":0.02885922430770697,"88":-0.12377829798741041,"89":0.09121981276886763,"90":0.02098639453517499,"91":0.08742886394949854,"92":0.05726702916192114,"93":-0.18201875514594615,"94":-0.05032517784518897,"95":-0.08837852399108706,"96":-0.126826521151343,"97":-0.022590126611867534,"98":-0.02698902064246832,"99":0.10080712730752532}},"31":{"bias":-0.037098066130188,"weights":{"0":-0.1764531382906517,"1":0.10301175121336369,"2":-0.05352188344926451,"3":0.18013173969580923,"4":-0.18292589705319015,"5":-0.013091439249672614,"6":0.15572657290964517,"7":-0.06675513792664618,"8":-0.17814843715981452,"9":-0.09371685428426475,"10":0.19124910071610604,"11":-0.09399813400463077,"12":0.1687050022569219,"13":0.027306227610699212,"14":-0.15336398124576417,"15":-0.02966575916738125,"16":0.13339214580251965,"17":-0.008915724846281713,"18":0.06471375091119795,"19":0.18953877141817602,"20":-0.17139624157802072,"21":0.18518297778560913,"22":-0.06449012817696544,"23":0.18445718851058876,"24":-0.023052834494718028,"25":0.15829811854406392,"26":0.19593611000224145,"27":0.14248758847012313,"28":0.1493582522880951,"29":0.023433441893450296,"30":0.10845704855515746,"31":-0.048025898876347256,"32":-0.1860047030809602,"33":0.1402786852244953,"34":0.15282479640214833,"35":0.06007333038493182,"36":-0.09027498360604853,"37":-0.039679967014797646,"38":0.1540658108343104,"39":0.1667309840594152,"40":-0.10450671190277548,"41":0.1983499207918266,"42":-0.10933990344286772,"43":-0.15211641980216709,"44":0.13518814038603696,"45":0.14182206293686425,"46":0.03147200899317054,"47":-0.12558876570195762,"48":-0.19698702251420228,"49":0.16546610085412058,"50":-0.17264764025688975,"51":-0.17356968751058785,"52":0.17486004227890764,"53":0.02690534949421076,"54":0.0595186463941553,"55":0.18119385888918435,"56":-0.11255231318876953,"57":0.18338180532797368,"58":0.017992604748598633,"59":0.14995049176856076,"60":0.044607130476526285,"61":-0.028119032791562987,"62":-0.1713874551083228,"63":0.14273159591599496,"64":0.163911784478716,"65":-0.05253958856568547,"66":-0.13510545031980484,"67":0.12810110136984978,"68":0.00980948967977553,"69":0.1637526580516914,"70":-0.19901895584420173,"71":-0.09318441390872807,"72":0.000011463874272406724,"73":-0.10284857671589466,"74":-0.0793935069429955,"75":0.05572203923135191,"76":-0.01983295051262589,"77":0.1446042056579808,"78":0.07359960874660997,"79":0.1357039106462816,"80":0.11264114020510706,"81":-0.19592751996473282,"82":0.15921615440516865,"83":-0.062237789629705886,"84":0.18737609027071986,"85":-0.14402760105089155,"86":0.022458255795083325,"87":0.07039088238149076,"88":0.1813483612064937,"89":0.04600832820057063,"90":-0.13484629323587624,"91":-0.1553546098607859,"92":-0.08928605379418345,"93":0.023798203041098403,"94":0.073104094659231,"95":-0.0664458782959065,"96":-0.19683853495747652,"97":0.11442835083349732,"98":0.10101846693202048,"99":-0.15412486554936378}},"32":{"bias":-0.05940446288273497,"weights":{"0":-0.04483127741707352,"1":-0.0899882724378803,"2":0.045290844155421006,"3":0.07825524873467302,"4":-0.06202991342736269,"5":0.08489095812099193,"6":0.05219664295571061,"7":-0.07730282497225191,"8":-0.14140125157875802,"9":-0.10497892991272595,"10":-0.198190479246954,"11":0.021285105137099962,"12":-0.1139508888926902,"13":-0.10126920452905681,"14":-0.024817421181181944,"15":0.0862238413784108,"16":0.1808280476498804,"17":0.047557049537023055,"18":0.07065233636083221,"19":-0.07814199699653175,"20":0.016901981657316427,"21":-0.019278321495334184,"22":0.18798903302656625,"23":0.15382556478859996,"24":0.18559637881251193,"25":-0.02902770218072321,"26":0.038706965943743926,"27":-0.10571295049605753,"28":0.15212177495839216,"29":-0.10150513619748738,"30":-0.03969517078814891,"31":-0.16711319171456482,"32":-0.2011677254792848,"33":-0.03209654175309326,"34":0.09209235442238065,"35":-0.04615253404347089,"36":0.0838066796902022,"37":-0.04657485316140439,"38":0.02348284024180982,"39":0.07896581144439194,"40":-0.07009522922901298,"41":-0.07331058148858932,"42":-0.03516685411898282,"43":0.028378468206097816,"44":0.12401262141199923,"45":-0.19708091047225382,"46":-0.13767240260360625,"47":-0.04958774902490762,"48":-0.13869411003408816,"49":0.16609383319871637,"50":0.11982201665075634,"51":0.1878361862282655,"52":0.009201342532356707,"53":-0.14633564221305637,"54":0.09174410702096439,"55":-0.17459022112754968,"56":-0.09973538926435496,"57":0.09159680084692454,"58":0.12899642597319697,"59":0.14020447573991632,"60":-0.048435492986867695,"61":0.1063444931189916,"62":0.10349193728895997,"63":0.09023231986345862,"64":-0.08060989881498601,"65":-0.12403852314321187,"66":-0.06011433255491641,"67":0.19300257676648117,"68":0.16394034150423623,"69":0.07025965462805842,"70":-0.13265029060287262,"71":-0.07471437397045877,"72":0.06289137184055663,"73":0.18948005085246775,"74":0.18992922558816291,"75":0.1341812427285514,"76":0.1956083215902946,"77":0.07393689697044106,"78":-0.04362728799326207,"79":0.11255154340895032,"80":0.1534396842251918,"81":-0.061799407551119595,"82":-0.056012138711343085,"83":-0.013906283104846743,"84":-0.14211454576445606,"85":0.11950891214789963,"86":-0.09763864212302353,"87":0.17728834684373948,"88":-0.15142572912020472,"89":0.1835684799719057,"90":-0.025601037206182738,"91":-0.026495787488351137,"92":0.18091775459604478,"93":-0.05998734104079989,"94":-0.17983834406925228,"95":-0.1689707154278257,"96":0.1711374270859561,"97":-0.16522605417860534,"98":-0.05185629686904933,"99":-0.03536580147785928}},"33":{"bias":-0.003943377293098731,"weights":{"0":-0.13725783694320398,"1":-0.04886003909417467,"2":-0.06764704994642214,"3":-0.1309448641703375,"4":0.05343656158289833,"5":-0.07501000892155842,"6":0.13720267163804695,"7":0.12776217302522586,"8":0.07861190671316311,"9":0.11223765183455277,"10":-0.013098064062828593,"11":0.16984164407691882,"12":-0.08346363231324629,"13":0.18489575144118592,"14":0.01723439889243767,"15":-0.1850283751242705,"16":0.18595828805333897,"17":-0.14916358329140622,"18":-0.009765057356739795,"19":-0.09638253394299225,"20":0.13828662522352264,"21":-0.14710471294605212,"22":-0.009714880304122733,"23":0.024311425725286447,"24":-0.148665214327807,"25":0.1415229355006568,"26":-0.10198386544146613,"27":0.007881964652156072,"28":-0.1330854286418207,"29":-0.011792330814237164,"30":-0.06875973818608598,"31":0.03678633636078759,"32":-0.059336569530601076,"33":0.01923496388114019,"34":0.06799571514344739,"35":-0.007302408756399923,"36":-0.1778914063216098,"37":-0.09380875378632024,"38":0.1520717673025183,"39":-0.19152663470962125,"40":-0.12752942153968888,"41":-0.17549904351838905,"42":0.02015400417364164,"43":0.0862062755062334,"44":0.024983865490471553,"45":0.03480125628626867,"46":0.03606086010328454,"47":0.15811602575919553,"48":0.08200353458738847,"49":-0.03616257430770473,"50":0.002800568754141755,"51":0.15327831004030035,"52":-0.08171958550595716,"53":-0.11746512772300319,"54":-0.09328095102467612,"55":-0.1837726403937586,"56":0.05140188718429727,"57":0.11032609101599979,"58":-0.12943573258602098,"59":0.1162693395300858,"60":-0.033747447838718476,"61":-0.026773747892761983,"62":-0.10666885832109527,"63":0.16687464360362814,"64":0.003449108826284855,"65":0.15320449425122662,"66":0.06855675410694408,"67":0.08592536067805213,"68":-0.04094579862215595,"69":0.043570617588525255,"70":-0.19801059607201296,"71":-0.10886634066485838,"72":0.19153679693332837,"73":0.08888926180294678,"74":-0.16577411787369328,"75":0.05374243064067285,"76":0.19844627706549095,"77":-0.09798747310199812,"78":0.11984720714605375,"79":0.0101586494616322,"80":0.18988275043881458,"81":-0.09279343122401312,"82":-0.1430222203002222,"83":0.07368569858587311,"84":-0.14453440531873185,"85":0.15408558054110927,"86":-0.1451517379821189,"87":-0.12070331433572844,"88":-0.021618538068319114,"89":0.05576536273798865,"90":0.06644499181053566,"91":-0.01891776481428222,"92":0.06460314877546354,"93":0.1668029707877986,"94":-0.031395350580746696,"95":0.15407617381057664,"96":-0.05784720675804692,"97":0.09302668003580496,"98":0.1163313872202389,"99":-0.14007121417456347}},"34":{"bias":0.13161141713398142,"weights":{"0":0.11174143997353839,"1":-0.07567986736672593,"2":-0.07752956992613745,"3":-0.1280672738574691,"4":0.13470685721707867,"5":-0.1817071092561133,"6":-0.011373150838936084,"7":-0.06103199247869327,"8":-0.15248214847075417,"9":-0.17404639462607577,"10":0.017537378122632986,"11":0.10077657967207362,"12":-0.04052595498638821,"13":-0.07042308033111166,"14":-0.12092831286268903,"15":0.0031835375107579235,"16":-0.1182499101631589,"17":-0.009987966275239705,"18":-0.06555911761375738,"19":0.08816884539422917,"20":0.07204184790474702,"21":-0.11826559475290252,"22":-0.15808023067789748,"23":-0.1741098062381394,"24":-0.15025535377340984,"25":0.10272854582739402,"26":0.08577975041565825,"27":-0.03815455280842854,"28":0.11038272434247068,"29":0.11450172650960613,"30":0.15470641141158867,"31":0.08459598875937388,"32":0.11655456374732184,"33":0.049323328280424336,"34":0.11610039973033001,"35":-0.07427938750612212,"36":-0.052394693462575206,"37":-0.1884233116418369,"38":0.17513551076275638,"39":-0.14319352845328523,"40":0.1888340099468582,"41":0.11380172443908979,"42":-0.02625378447251988,"43":-0.054955281621242316,"44":0.15466099071649245,"45":0.16815860222426585,"46":-0.06521875274034811,"47":-0.04440069126563741,"48":0.0014438570230953806,"49":-0.07801775571557355,"50":0.05954367031676101,"51":0.15748723817390728,"52":0.015218449545627124,"53":-0.06684813837187958,"54":0.1624516376048081,"55":-0.06286235696303322,"56":0.09288854782802389,"57":0.024535156575565827,"58":-0.1234961401917286,"59":0.0987974226228647,"60":-0.0038887387387700188,"61":0.18507689570409583,"62":-0.010123369122321117,"63":0.1980857750154786,"64":0.1229990054607146,"65":0.17252643878904508,"66":-0.12560445091354325,"67":-0.18858652573677373,"68":-0.14986822430642915,"69":0.17598591807631184,"70":0.11439387870353987,"71":0.13758942575526764,"72":0.016323348017012358,"73":0.11446065993381074,"74":0.03623914315698075,"75":-0.12017126337292267,"76":-0.025876581227803945,"77":0.1061708396054559,"78":0.13948275528249668,"79":-0.15604666008281184,"80":0.15343646972773003,"81":-0.19382333860399795,"82":-0.19228735782804562,"83":0.18846306323406628,"84":-0.09834715912717057,"85":0.12315455057991079,"86":0.13387834129256534,"87":0.0693884382709615,"88":-0.16510981128218247,"89":-0.06439591481017543,"90":-0.048123701965833446,"91":-0.17075676072987392,"92":0.19859119856131605,"93":-0.09753614070492458,"94":-0.007892189292634242,"95":-0.1493949745096512,"96":0.014135642697637564,"97":0.013561158602660191,"98":-0.13615073005336,"99":0.01133705971164037}},"35":{"bias":-0.14159573449432722,"weights":{"0":0.1390059962313893,"1":-0.08004244841595266,"2":-0.07301729988266799,"3":-0.07995327837725255,"4":0.16387276485602284,"5":-0.051131876147883885,"6":0.19358646333257581,"7":0.194230997600061,"8":0.00095914689863948,"9":-0.032727741039889784,"10":0.17702680988277222,"11":-0.09180205060129139,"12":0.16440178252796558,"13":-0.06291546994780277,"14":-0.03522910127376291,"15":0.17151166437233714,"16":0.13573278620879078,"17":-0.18796630945016718,"18":-0.09503279417713258,"19":-0.052865466065305226,"20":-0.046298192403810966,"21":-0.0008663124959644823,"22":0.14323809001634744,"23":0.06166479731018568,"24":-0.07412979356904599,"25":-0.022447721995013666,"26":-0.1954513211358068,"27":-0.15801929660101507,"28":0.1669102194164219,"29":0.12939876070286063,"30":0.07095037134404207,"31":-0.05119355400984262,"32":0.14086370006243612,"33":-0.13737092787359928,"34":0.05840179951901462,"35":0.08602278124581007,"36":0.12330954302142293,"37":-0.17924126271118498,"38":0.13297939360181718,"39":-0.0740582433152673,"40":-0.0036171534653481985,"41":-0.12680810118054128,"42":-0.06847901610617611,"43":0.0013516669538142965,"44":0.02708830827887087,"45":-0.10549008917023513,"46":-0.003585032708543278,"47":-0.099092932287204,"48":-0.0964782797354934,"49":0.16247629005501893,"50":-0.17294869530906057,"51":-0.013382162674861874,"52":0.10506973819847136,"53":0.18030788734595207,"54":0.15431645562912252,"55":-0.010775763783204283,"56":0.080007475931597,"57":-0.18044116055552936,"58":0.14958598859648134,"59":0.16959185753057623,"60":-0.1445552314255116,"61":-0.180798711124408,"62":-0.15869244538207625,"63":-0.09725598894019696,"64":0.13067269589791922,"65":-0.1814867368522761,"66":-0.07996589137201283,"67":-0.08943359559361909,"68":-0.06650549719070169,"69":0.17521685384253885,"70":-0.1745516691911695,"71":0.17426545456091788,"72":0.1736507063176754,"73":-0.19357700381388043,"74":0.19200758621136574,"75":0.04047601599286225,"76":-0.1843862439129231,"77":0.06258639957795767,"78":-0.07839714545716617,"79":-0.06499305074994537,"80":0.1818659086156907,"81":-0.08576802132611248,"82":-0.13636971447576857,"83":0.08123786127234726,"84":0.14619638616259126,"85":0.02731071593279865,"86":0.0057421721894564855,"87":0.08777862893457437,"88":0.00608976459170606,"89":0.061811524294716404,"90":0.0710509431924942,"91":-0.13651065822650765,"92":0.13672913372556592,"93":-0.12242457443808291,"94":0.020989084188294697,"95":-0.18105438105722046,"96":0.09653381718362596,"97":-0.1405172112952647,"98":0.15256422668735412,"99":0.1792671226341548}},"36":{"bias":0.06271779201423991,"weights":{"0":0.08870421725099566,"1":0.10851822004427798,"2":0.09249879478251223,"3":-0.11125814604798671,"4":0.06570763031726364,"5":-0.11321808693224904,"6":-0.1984940142113935,"7":0.1396821361291934,"8":-0.15528104004675858,"9":-0.16065296518842093,"10":-0.1937159022990834,"11":0.04928399671574717,"12":-0.16890390065724364,"13":-0.17073672681341284,"14":-0.10006687722394582,"15":0.06539267322754151,"16":-0.16059657891506665,"17":0.04369837420766836,"18":0.041723037909321824,"19":-0.03687479493433946,"20":0.01785349829828027,"21":-0.07443827006260272,"22":0.03051087849547747,"23":0.11100436311920765,"24":0.008194759048126983,"25":0.09434286647250535,"26":-0.12271445139536973,"27":-0.10258626171613451,"28":0.1170677528973449,"29":0.1708703672770191,"30":-0.05804801431710239,"31":0.12515862176900394,"32":0.12723564768915663,"33":0.08011413694133641,"34":0.1677986096847583,"35":0.08323291132932188,"36":-0.001395553231633859,"37":-0.021484271876908503,"38":-0.12149730405995961,"39":-0.14533129769603126,"40":-0.06820453747401352,"41":0.13549405962934385,"42":0.03238711769466881,"43":-0.18608019395957104,"44":-0.0849803444672596,"45":-0.12632814233417028,"46":-0.12230904630611059,"47":0.08046878895496613,"48":-0.14941024712512604,"49":-0.14149186943883413,"50":-0.007542195983625614,"51":0.03348924641271716,"52":-0.10451482932309028,"53":0.11729594313313847,"54":-0.15884293492177837,"55":-0.12802333661580795,"56":-0.09719511240015145,"57":0.058643679625891475,"58":-0.06050244800040836,"59":-0.1919321948405575,"60":-0.03499408361727711,"61":-0.09621381393859502,"62":-0.07069790668079969,"63":-0.15484681359717958,"64":-0.12375326954985376,"65":0.12366855566164144,"66":-0.1831293967295658,"67":0.04194643509348516,"68":-0.0850577885028195,"69":-0.052045444373435924,"70":-0.07995587072560903,"71":-0.13285196094999424,"72":-0.17387108036542648,"73":-0.039261302698798135,"74":0.033315865907423546,"75":-0.008304796155936671,"76":0.08529603260343556,"77":-0.17658683217356316,"78":-0.18601485385785216,"79":-0.05101492607260461,"80":-0.0971353990700316,"81":-0.1997511596162092,"82":-0.14244024443665854,"83":0.03076144440805202,"84":0.09746069174965506,"85":-0.1478921823878061,"86":-0.1610755854960751,"87":0.12246111084481366,"88":-0.16486372060368173,"89":-0.03893514096031304,"90":-0.08097263478899713,"91":-0.14980785397107116,"92":0.024656665257715024,"93":-0.0947230043564212,"94":0.1360902476381291,"95":0.18276139425819404,"96":0.00681185147499326,"97":-0.17013712038511747,"98":-0.20000839696491474,"99":0.09236942001392724}},"37":{"bias":0.1890080717415891,"weights":{"0":0.19750239386141957,"1":-0.12892392228438795,"2":-0.05587081990286053,"3":-0.1777015143734151,"4":-0.0754346941326493,"5":-0.015604191525720948,"6":-0.03992700192227303,"7":0.02481743276969254,"8":0.0743519126708871,"9":-0.12901100066571772,"10":-0.023735603476756233,"11":-0.1746949705023998,"12":0.11757758690894306,"13":0.10697167909622847,"14":-0.049865939254754195,"15":0.03315619195730151,"16":0.08635863543406787,"17":-0.1711409540575677,"18":0.0911811638894743,"19":0.10330032392323675,"20":0.15104280163452685,"21":-0.09420629345893204,"22":0.09967366729781686,"23":0.06234135732904735,"24":-0.19345268399535953,"25":-0.03963419457047521,"26":-0.1876964656364852,"27":-0.03995141086249888,"28":0.15377405074343745,"29":-0.05738824407651364,"30":-0.18607799417420565,"31":-0.06169116112484872,"32":0.11387992150068939,"33":-0.1926554122668439,"34":-0.07547081464051546,"35":0.05528390009806219,"36":0.019918164358592623,"37":-0.16402073537080825,"38":-0.17236815967678368,"39":0.05969322550029218,"40":0.03357322079048216,"41":-0.0481445396047765,"42":-0.1917505821873182,"43":-0.12580888315185249,"44":-0.08434433617710412,"45":0.07726466546685158,"46":-0.020439808416062015,"47":0.05302258537069617,"48":-0.048907870585911874,"49":-0.0438842445340687,"50":-0.11620517063035905,"51":-0.18889892275526463,"52":-0.14415149686008036,"53":-0.09523128603666366,"54":-0.09653229505836308,"55":0.04977602924138965,"56":-0.0365501186539167,"57":-0.14170745552598774,"58":0.1590571044284171,"59":0.09883371054113567,"60":0.17458633531735004,"61":0.04608525254682363,"62":-0.09691437675698937,"63":0.0022407129678195677,"64":0.003981134601987001,"65":0.06850216307596026,"66":-0.031053659106486428,"67":0.07280379918322623,"68":0.12208339248702589,"69":-0.1661547553454274,"70":0.13230340222746792,"71":-0.08139105166389883,"72":0.12954248248518171,"73":0.19149367700249617,"74":0.07995022640482248,"75":-0.09842143847688377,"76":0.0802288201908833,"77":0.0674407566237515,"78":0.17440322174609366,"79":0.0587586122836238,"80":0.07106541705236492,"81":-0.12245069758116543,"82":-0.01887218884273708,"83":0.02772212487564147,"84":0.06158042329282223,"85":0.06834240307018814,"86":0.10829283579171363,"87":-0.19627107705070912,"88":0.046519268238104004,"89":0.20191645019606416,"90":0.111751783573187,"91":0.1388122072714633,"92":-0.0806964780864054,"93":0.13902680718258684,"94":0.11339374280453386,"95":0.11306765994907082,"96":-0.056087823557549106,"97":0.09777821761474671,"98":0.1594007637623018,"99":0.13243247077719036}},"38":{"bias":-0.11743930314124389,"weights":{"0":0.04285618622013392,"1":0.1893805823863393,"2":-0.007846788818305113,"3":0.1462352874332017,"4":-0.06183620853192149,"5":-0.05609621260157761,"6":-0.10423612505040104,"7":0.10328914882772632,"8":-0.17784136975026668,"9":-0.005238193309223011,"10":0.06695491165080135,"11":-0.19042481317958773,"12":0.12224024726235337,"13":-0.13537551047123014,"14":-0.09857514979160364,"15":0.0017757292480117517,"16":0.19226996159338416,"17":-0.1033503103426748,"18":0.14916055487626256,"19":-0.17252100877306403,"20":-0.14352548768586457,"21":-0.16118888793355762,"22":-0.11958407847053344,"23":-0.05069446530035671,"24":0.006377408990348026,"25":0.1037379244916982,"26":-0.1447619984283203,"27":0.11288930742227503,"28":-0.17624860111466586,"29":0.12970844326698244,"30":0.0740396762841291,"31":0.19839693984174195,