var english_network = {"layers":[{"0":{},"1":{},"2":{},"3":{},"4":{},"5":{},"6":{},"7":{},"8":{},"9":{},"10":{},"11":{},"12":{},"13":{},"14":{},"15":{},"16":{},"17":{},"18":{},"19":{},"20":{},"21":{},"22":{},"23":{},"24":{},"25":{},"26":{},"27":{},"28":{},"29":{},"30":{},"31":{},"32":{},"33":{},"34":{},"35":{},"36":{},"37":{},"38":{},"39":{},"40":{},"41":{},"42":{},"43":{},"44":{},"45":{},"46":{},"47":{},"48":{},"49":{},"50":{},"51":{},"52":{},"53":{},"54":{},"55":{},"56":{},"57":{},"58":{},"59":{},"60":{},"61":{},"62":{},"63":{},"64":{},"65":{},"66":{},"67":{},"68":{},"69":{},"70":{},"71":{},"72":{},"73":{},"74":{},"75":{},"76":{},"77":{},"78":{},"79":{},"80":{},"81":{},"82":{},"83":{},"84":{},"85":{},"86":{},"87":{},"88":{},"89":{},"90":{},"91":{},"92":{},"93":{},"94":{},"95":{},"96":{},"97":{},"98":{},"99":{}},{"0":{"bias":-0.4039945518174747,"weights":{"0":0.00045769332245414304,"1":0.3975818229667498,"2":1.6565532503474982,"3":0.13013691520326712,"4":-0.517150029075093,"5":-0.5548659222987076,"6":0.37721036573356714,"7":0.003842067604725884,"8":-0.02175224874282315,"9":-0.6221294072979314,"10":-0.45717172539158696,"11":0.1971457045669554,"12":-0.663432348518924,"13":-0.34547646663648474,"14":-0.6611214062006566,"15":-0.292990894838195,"16":0.10710282486345807,"17":-0.2876966483428102,"18":-0.2797010907709012,"19":0.3361971019332474,"20":0.1539744211778887,"21":-0.27700387001743115,"22":-0.04669689123505594,"23":-0.41160776797801235,"24":0.3688609474014551,"25":0.059264595630656884,"26":-0.10136350310001857,"27":0.017811835489702648,"28":0.16390004467448588,"29":0.3351944714797554,"30":0.3741753737322854,"31":0.051912382577924694,"32":0.47227627589748034,"33":-0.4699607443322333,"34":-0.22061791468019115,"35":-0.4310465235846796,"36":-0.5874653890761568,"37":-0.16787712315540193,"38":-0.4517939723889673,"39":0.3035079322892175,"40":0.06574773686746625,"41":0.5668799255745335,"42":-1.2501213895727135,"43":-0.1447479422828148,"44":0.25602522512711173,"45":-0.1422547049888411,"46":-0.3558166734059587,"47":0.13953143344757815,"48":-0.2552546769364525,"49":0.2922534573039685,"50":-0.42172692335419315,"51":0.012209155120082542,"52":-0.7331746649584807,"53":-0.17729304738705298,"54":0.47758287597013177,"55":0.4571943903069352,"56":0.300690753760436,"57":0.05879937924711335,"58":-0.16643895734397357,"59":0.4528900235627636,"60":-0.8014944738161218,"61":-0.8254123250923081,"62":-0.5314219507620465,"63":-0.69575662917535,"64":0.8732191353766864,"65":0.7946700898022204,"66":0.5980625392871806,"67":0.5502622935965161,"68":-0.13512087429374647,"69":0.1463928346790084,"70":-0.7829428447072927,"71":-0.5803071425722398,"72":-0.36230110693917383,"73":-0.020756622450945728,"74":1.2380126289053381,"75":0.6978209232677861,"76":0.6133074432686937,"77":0.4939229164096289,"78":-0.022626007193649184,"79":0.22992988841697365,"80":-0.1725242914259122,"81":0.14461795880822456,"82":0.25989775206184557,"83":1.2313817892733343,"84":0.838784871407815,"85":0.26804393932999176,"86":0.42265977584664194,"87":0.4162642306393827,"88":0.03793951208510992,"89":0.1228538999953113,"90":-0.2839225655875977,"91":0.599209899474065,"92":1.8943595163008686,"93":0.08019881550317297,"94":0.021325591482695104,"95":-0.3235316284020566,"96":-0.01739764361933616,"97":0.5979557659740825,"98":0.22084937343368907,"99":0.11926009970024164}},"1":{"bias":0.46481825439089336,"weights":{"0":-0.4287414205125182,"1":0.22537632430013635,"2":0.748773411200441,"3":1.0369595537043665,"4":0.8382812898901094,"5":0.6602856979430459,"6":0.27796168689680084,"7":0.21976818832262193,"8":0.237973560035142,"9":0.7894109462450152,"10":0.38924364608731915,"11":-0.030426099990538916,"12":-0.20536641278776027,"13":-0.29562880175866696,"14":0.724167382411898,"15":0.9359009172064738,"16":0.2893334533440157,"17":0.15039616975234568,"18":-0.634228337772717,"19":0.1493576404364734,"20":0.22466354533283278,"21":0.12506747043623107,"22":-0.0404268629550432,"23":-0.911236229260052,"24":0.13457109670745912,"25":0.8570776190524474,"26":0.05106453000026351,"27":0.2280741635788822,"28":-0.4504619221009077,"29":0.4724991254773325,"30":0.4019260854359624,"31":0.36064867519744687,"32":-0.16820608540045265,"33":-0.192911536475268,"34":-0.8395726116606947,"35":0.12217649479462453,"36":-0.09554828991099996,"37":0.21006015317155927,"38":-0.27153964567896527,"39":-0.21398882412013404,"40":1.0207534702736518,"41":0.17324675867348724,"42":-0.054542738036237194,"43":0.2572469648625416,"44":-0.5914618925822059,"45":0.04594753365728819,"46":-0.7911174548583274,"47":0.02068882912313143,"48":-0.24569645482024147,"49":0.0739529207813955,"50":0.8953897670604268,"51":0.0993648693940365,"52":-0.2231261542554682,"53":-0.04447225775779714,"54":-0.33804527777783727,"55":-0.2902485462574521,"56":-0.7387436050771222,"57":-0.4739721640382454,"58":-0.025004234944342264,"59":0.04127709407671935,"60":1.1801754081454436,"61":-0.10852849395478363,"62":0.40324011673712534,"63":-0.5337125001964547,"64":-1.4807470194661838,"65":-0.7688225430813805,"66":-0.9306742711132324,"67":-0.9474437873511952,"68":-0.10988007579185405,"69":0.0062762455181649855,"70":0.777520450656471,"71":0.29784955801589885,"72":0.26265323580028976,"73":-0.2387683890197777,"74":-1.4462269900223623,"75":-1.2870177961527018,"76":-0.496448289962591,"77":0.14516360353909277,"78":0.3981850658218205,"79":0.6066875161581262,"80":0.7307808857146624,"81":0.13405501166808492,"82":-0.4347882892713374,"83":-0.8951114025322943,"84":-0.4111518793466688,"85":-0.2452525835408631,"86":-0.1495327557002917,"87":0.42316192966239113,"88":0.3181204848007525,"89":0.7187238608832808,"90":0.7297726697458152,"91":0.3179897042057574,"92":-0.25861778547200115,"93":0.13060274700398902,"94":-0.2824317019924105,"95":0.13297304055438278,"96":0.5490937161218554,"97":-0.3434554406785254,"98":0.2163143022639889,"99":-0.07840709862363202}},"2":{"bias":-0.2179362707318994,"weights":{"0":1.3373218442106656,"1":0.6548029103970123,"2":1.285186303660145,"3":0.25048251813310746,"4":0.9994472322537484,"5":0.6315644599612064,"6":-0.005856421691994475,"7":0.12425901120143482,"8":0.6556583762862328,"9":1.095486462395639,"10":0.5368109586789749,"11":0.41831782622062585,"12":-0.19156044493119487,"13":0.49757105605450563,"14":0.09394365993230074,"15":0.35818761652526754,"16":0.08635253916781205,"17":0.5625279764976294,"18":0.6691735856478618,"19":0.6778075114253017,"20":-0.1319543984723177,"21":0.3432337730320156,"22":-0.8588874583922649,"23":-0.11188253724210041,"24":-0.1645451636778751,"25":0.31395216326139774,"26":-0.07155083955418906,"27":0.7224957442812016,"28":0.4089204285944042,"29":0.42409677481086006,"30":-0.8927892738898843,"31":-0.6447051862062777,"32":-0.5215147222105048,"33":0.23509014861653293,"34":0.1536898025307798,"35":0.08667649930901418,"36":0.2199399651180326,"37":0.33095574774982367,"38":0.571740923983729,"39":-0.03268536796900202,"40":-1.4656622682980942,"41":-0.5659342883922016,"42":-0.06432444260027852,"43":0.10150701338660968,"44":0.4533025005743417,"45":0.02355101085844809,"46":-0.4572989902673965,"47":-0.23048933622952913,"48":-0.5068903315849761,"49":-0.5099253442745356,"50":-1.332848820703892,"51":0.1673854192279012,"52":0.17990897580633217,"53":-0.2980529161538612,"54":-0.5290040926893412,"55":-0.6638690535621725,"56":-0.15299571623311323,"57":-0.706296004088032,"58":-0.4118622198400957,"59":-0.54761237150721,"60":-0.6714225888272222,"61":0.3478555764583788,"62":-0.4803976323839016,"63":-0.3821507091222888,"64":-0.8240563269260209,"65":-0.9504409300206309,"66":0.06201699604723386,"67":-0.5825102589192513,"68":-0.34460936909472023,"69":-0.3543569459303238,"70":-0.6246847930580289,"71":-0.23878587819030112,"72":-0.24982981715821148,"73":0.0657595090452548,"74":-0.3555615219192563,"75":0.4413282750756277,"76":0.4221951477026568,"77":-0.18348692711131778,"78":-0.4159858136248947,"79":-0.46742083979369686,"80":-0.05536945627600327,"81":-0.2049730862390226,"82":0.020473877318493136,"83":0.9381402970565601,"84":-0.1175829299731079,"85":0.032236100429227976,"86":0.36646526321869444,"87":0.2539693414935438,"88":-0.6115177114027888,"89":-0.9457198076189743,"90":1.4760178281722196,"91":0.4066384872104524,"92":1.4802545925418273,"93":0.07490086625062997,"94":0.37524302289630235,"95":-0.40534194945745344,"96":-0.13714120054641832,"97":-0.12159832987814258,"98":-0.6553901360903203,"99":-0.2750684771619078}},"3":{"bias":-0.060216093309243504,"weights":{"0":1.35710468919183,"1":-0.9013248978223944,"2":-1.2564454494323443,"3":-0.9278309645805318,"4":-0.616238687219495,"5":-0.883304366138011,"6":-0.8275349543233358,"7":0.021366697722117498,"8":-0.4912792384126719,"9":-0.4328693486344956,"10":-0.32072681770788936,"11":-0.21910371229575148,"12":-0.16867923110358674,"13":0.45725212008484933,"14":-0.23815022646799788,"15":-0.08406565280823694,"16":0.7120967979644068,"17":0.6924035344047615,"18":0.39087812131587446,"19":0.2624146354345772,"20":0.6443137476435572,"21":0.34844095246256285,"22":-0.2690457007694168,"23":1.1179024724931077,"24":0.025487174332428125,"25":0.21074238835234602,"26":0.37826229213142476,"27":0.382353672095178,"28":0.8850237921080613,"29":0.5633245637838195,"30":-0.308252078646731,"31":0.32198624729950365,"32":0.39208671253437244,"33":0.47823916717723447,"34":0.45046576798860477,"35":-0.5506003030040317,"36":0.5791565545643353,"37":0.30759744481912865,"38":0.3559797053405855,"39":0.24522110356699056,"40":-0.5423648478195782,"41":0.6584008041722761,"42":0.05618783532680451,"43":0.864981873286743,"44":0.19798724098420098,"45":-0.47718738427618895,"46":-0.14779515527269463,"47":0.04885247705248947,"48":0.009184940183268353,"49":-0.016490100968269243,"50":0.1270805141906452,"51":0.376927836810592,"52":0.014109454352183328,"53":0.3525118583780087,"54":-0.22542840056351512,"55":-0.8614621666805885,"56":-0.4150783659243301,"57":-0.21476559930988603,"58":-0.21440578210029726,"59":-0.14064318653961755,"60":-0.1181250338167336,"61":0.27304144083058784,"62":-0.5941227498428544,"63":0.07987710741944216,"64":-0.42309826382630417,"65":-0.23862607698362,"66":-0.2401549297817823,"67":0.16709566209843962,"68":-0.0016149381473496848,"69":0.18611938654894844,"70":0.8648323396031306,"71":0.09251042355803259,"72":-1.3037703472109707,"73":-0.038716439180966594,"74":0.535454605872236,"75":0.29799433052086466,"76":-0.3481994414416907,"77":-0.15736503365292592,"78":0.12231340747432047,"79":0.19372115154309497,"80":0.5016790008399229,"81":0.2999707245194536,"82":-0.43652891886550443,"83":0.07776029051839675,"84":0.5065198722827784,"85":-0.1310622471695947,"86":0.0950889920526601,"87":-0.41383729095274774,"88":0.24296068272345805,"89":-0.2890550745924898,"90":0.6694638427443951,"91":0.47106710796475443,"92":-0.1267376348527048,"93":-0.02190282126885428,"94":0.7069248750093844,"95":-0.6730824113338575,"96":-0.47321293148161014,"97":-0.44081026802933343,"98":-0.06148493488589174,"99":-0.156397159952194}},"4":{"bias":-0.09954732840044402,"weights":{"0":-0.20252691206105658,"1":-0.09868283364318516,"2":-0.1349447996814535,"3":0.41001027516148747,"4":0.5497808373451013,"5":0.7242723894116804,"6":1.134097606043398,"7":1.0888117572747396,"8":0.6707105439104183,"9":1.1865491930619727,"10":-0.7366070476228247,"11":-0.11285682288883006,"12":-0.523969735982328,"13":-0.6037236982990977,"14":-0.10966298588413191,"15":0.2596114564238656,"16":-0.20092683523404323,"17":0.0352648714187367,"18":-0.5831267252419793,"19":-0.041436344235488476,"20":-1.3432041908720451,"21":-0.3866370224364896,"22":0.6388024348102868,"23":-0.39014887723719244,"24":-0.8592191378722628,"25":0.11007304090931087,"26":-0.44316950500351016,"27":0.23699393044461423,"28":-0.8654814311733224,"29":0.6672700794631782,"30":-0.5224564472328402,"31":0.542190542459592,"32":0.9752046320709284,"33":0.8183276646483733,"34":-0.6780842631008194,"35":-0.40573785189309663,"36":0.5008728856323463,"37":-0.3297677918383623,"38":-0.19071753094821184,"39":0.16034932774121627,"40":0.63639870099263,"41":1.3083959840740178,"42":0.8511979558658413,"43":1.2850853199445222,"44":-0.5322343176294028,"45":-0.22382553931505905,"46":0.42293054199067115,"47":-0.2746362721117555,"48":-1.152533966696139,"49":-0.5979384126678321,"50":0.474985904512334,"51":0.5873088081659151,"52":0.28489974320114797,"53":0.4651969371945618,"54":-0.2995612363968515,"55":-0.8182530642219514,"56":0.1375376288342723,"57":-0.2807996211764517,"58":-0.7020328163615199,"59":-1.1204288830043927,"60":0.35952108665205346,"61":0.46501448023185993,"62":0.12767855576241527,"63":-0.41458833146440977,"64":-0.7330853348857498,"65":-0.2531205940332408,"66":1.027568757753914,"67":0.09570319758689741,"68":0.01888701143392871,"69":-0.614200507691659,"70":-1.0088133787864157,"71":-0.8452593803838397,"72":-0.4836778180646591,"73":-0.4542144771165502,"74":-0.3774837883460806,"75":0.2185599108610017,"76":0.32589969234803107,"77":-0.10845221254376386,"78":0.15555207992479428,"79":-0.3076701232069019,"80":-0.14170256657513244,"81":0.4375425028173211,"82":-0.27153779795989524,"83":-0.9255300314124894,"84":-0.694000623941286,"85":0.19257660703106558,"86":0.03920076907732746,"87":-0.2285401497307521,"88":-0.2525895311911357,"89":-0.1633390056548056,"90":0.9751404105615695,"91":0.8508012129301087,"92":0.4091959082859723,"93":0.19582036558095725,"94":-0.575479521074385,"95":-0.02997152060447287,"96":0.20147466963722785,"97":-0.02096149423020482,"98":-0.009273954707603243,"99":0.3205644108511108}},"5":{"bias":0.5058080195414699,"weights":{"0":-1.029859826592523,"1":0.3058039830189273,"2":-0.14185666582635545,"3":0.6556310815536694,"4":0.7169431746827865,"5":0.2631697800897611,"6":0.9750576045811327,"7":0.5213371103928011,"8":0.3688044947950084,"9":0.14804073494748232,"10":0.15379403349794527,"11":0.453824545340272,"12":-0.2575281019873054,"13":0.052793807048236975,"14":0.5491045145656676,"15":-1.133213703631562,"16":-0.5600996928212407,"17":-1.0459765063854705,"18":-0.3188626422478517,"19":0.02921567530685304,"20":0.6966065466902739,"21":0.3401066254987609,"22":-0.5515238385628329,"23":0.6767226854037691,"24":-1.0332911102970557,"25":-1.2179568205739029,"26":0.08431555769626772,"27":-0.8560379354380049,"28":-0.48815687407139746,"29":0.4253683055989735,"30":0.631805714211342,"31":0.4945995913778501,"32":-0.34363044610941346,"33":1.0864150536935855,"34":-0.04025521460861231,"35":-0.23640660757517484,"36":0.4182683996084787,"37":-0.9321738601935612,"38":-0.4592064980520263,"39":0.18418450253417956,"40":0.2630378841505162,"41":-0.6462968705212377,"42":0.22444667866844398,"43":0.4634747417984987,"44":0.5006390611686162,"45":0.17867774984215914,"46":0.2007570006382491,"47":0.1244709781527514,"48":0.06729992169638616,"49":0.2361173763977666,"50":-0.9715834663623885,"51":-0.6103413527569227,"52":-0.2214394777774451,"53":0.3256820246381567,"54":0.5832452586741642,"55":-0.036818546915134816,"56":0.2769943014560973,"57":-0.19074178677993558,"58":0.2518622559124062,"59":0.39173710753718455,"60":0.4103498467903,"61":-0.3818436975796611,"62":0.35856809762131514,"63":0.7420543277866332,"64":-0.1238252933429529,"65":-1.0768714949078095,"66":-0.3125872513399527,"67":-0.6276078170109185,"68":-0.12432183121222243,"69":0.3303772198243032,"70":0.16786771153474392,"71":-0.2604036133815832,"72":0.05665685633978926,"73":0.3846624198906531,"74":-0.9726185941526886,"75":-1.918969421148686,"76":0.09300333492560472,"77":-0.009339951210326738,"78":-0.6551972634521572,"79":0.16408380781277218,"80":0.1439571320961053,"81":-0.01823907890409508,"82":-0.12980322993604432,"83":0.7933496183988827,"84":-0.3093912253255049,"85":-0.6909123304892166,"86":0.1832197787373766,"87":0.39074196656042315,"88":-0.20528049167836032,"89":-0.7069835162029476,"90":-1.113039206960544,"91":-0.616569004697572,"92":-0.32815466721439,"93":0.5217479200832157,"94":0.8142772355028213,"95":0.9995324480541593,"96":0.3731776490122271,"97":0.2634668796170175,"98":-0.4389717408816986,"99":-0.45639951142375534}},"6":{"bias":0.40288606441304575,"weights":{"0":1.6928546130915991,"1":0.8325433660885788,"2":0.09630866455525208,"3":1.4841860297431573,"4":0.4066206241482136,"5":0.35807926070082885,"6":0.3182306331668842,"7":-0.23781351143449744,"8":-0.14362632438330858,"9":-0.2396381221231487,"10":1.2095573746783896,"11":0.4962367361987784,"12":0.28914422682343927,"13":1.154214235467898,"14":-0.2177141976884526,"15":0.2327991765228692,"16":-0.064026791265909,"17":-0.3133693661420631,"18":0.4896062313674798,"19":-0.09646155084468319,"20":-0.8504840082101628,"21":-0.09129597853474214,"22":-0.12379311797164119,"23":-0.47809500112407877,"24":-0.9657574561652323,"25":-0.6316444201495967,"26":-0.3855158683088358,"27":-0.07282022658176689,"28":-0.5603089602720979,"29":-0.2090169892623583,"30":-1.4691725087958347,"31":0.05590955441148117,"32":-0.054910408425143144,"33":-0.37421584637438043,"34":-0.4997962588436307,"35":-0.4462893673124827,"36":-0.23700402400807685,"37":0.0784161836446577,"38":-0.30627801327878806,"39":0.006055416593569605,"40":0.09185859777506192,"41":0.5940614523528952,"42":-0.10877596074119927,"43":0.05322556102294986,"44":-0.3356001638210994,"45":0.6007286374698974,"46":0.4947876066787883,"47":0.5768195724281063,"48":0.5334982756557775,"49":0.1391885088836752,"50":0.29364602058189454,"51":0.42062283549949037,"52":-0.04466658777817425,"53":0.14011933545950964,"54":0.17234981025986193,"55":0.5305817723340143,"56":0.9083294051979769,"57":0.8284660835770635,"58":0.4691561716748454,"59":0.00810135152842635,"60":-0.6241848567809362,"61":-0.23498520354528601,"62":-0.1111179132843859,"63":0.14515335584547812,"64":0.06608400509461386,"65":1.200571425216073,"66":0.8840707368877788,"67":0.8995881112515207,"68":0.16794714225163465,"69":0.055317380616276515,"70":-0.8668247244979211,"71":-0.4924711928776977,"72":-0.13604337894543464,"73":-0.3951816244692527,"74":-1.0197914010149274,"75":-0.14722671354913963,"76":0.1603215172350721,"77":0.04119425653837375,"78":-0.2954022804573405,"79":-0.014568192295171777,"80":-1.8483341365756498,"81":-0.3984315598377892,"82":0.05359731991923376,"83":0.21028239304278823,"84":-0.40137098816939154,"85":-0.6459783094515824,"86":-0.4924089635063189,"87":0.08067441537973734,"88":-0.28615051171928163,"89":-0.11474098050179497,"90":-0.7821121751524084,"91":-1.0946937401749606,"92":-0.22868393374942123,"93":0.17267336992234966,"94":-0.06394501625851043,"95":0.3797505725044024,"96":-0.2082633039217405,"97":-0.019599159011384655,"98":-0.8020586389387796,"99":-0.39186773835006294}},"7":{"bias":0.45357984276936236,"weights":{"0":-0.4010504608062523,"1":-0.16596286886618092,"2":-0.568958994914281,"3":0.38893273725405775,"4":-0.24702744455568637,"5":-0.099769957950392,"6":-0.385201393391237,"7":-0.5924641239896377,"8":-0.9465764673201987,"9":-0.20128035823207602,"10":0.35239263203721777,"11":-1.0772918287743847,"12":0.2276356803752946,"13":0.38371311402301506,"14":0.3162963543488099,"15":0.7145519403055223,"16":0.7706036963125428,"17":-0.8630716603237957,"18":0.003215319616572861,"19":-0.40357761986175583,"20":-0.36007867473766686,"21":-0.5012457185494736,"22":0.34628677069725466,"23":-0.21422767864688283,"24":0.14637529218831916,"25":0.2510762443083622,"26":0.5244621697115619,"27":-0.5607377538313643,"28":-0.8556147428287462,"29":-0.6796846705706748,"30":-0.9613902287043927,"31":0.8990193430349044,"32":1.1552344407150568,"33":0.37048512627845565,"34":0.5801207856975991,"35":0.4571102468460718,"36":0.24255884522634524,"37":0.051590768570691455,"38":0.0011070552013488612,"39":0.11363729693923916,"40":-1.0407092666199367,"41":-0.002305887639250977,"42":0.11822249794932975,"43":0.6204333191068624,"44":0.7188903831657132,"45":0.10487280493511977,"46":-0.41056935359329527,"47":-0.12335869756553149,"48":-0.29715574648812126,"49":0.20707356605536983,"50":-0.2137003201383566,"51":-0.28373426030581306,"52":0.4359123734473781,"53":0.8463682987861231,"54":1.175859456871459,"55":-0.34420833444159904,"56":0.21337865032804604,"57":-0.10712282806989792,"58":0.009332722193072088,"59":-0.03634048773376187,"60":-1.6694958528419208,"61":-0.7144516119193783,"62":-0.24668853372614155,"63":-0.30262576285248083,"64":0.3768716128165163,"65":0.36025181174623366,"66":1.0459574571735943,"67":1.1015316247752893,"68":0.1649869770961057,"69":0.013301365921642177,"70":-1.555967681777622,"71":-0.8285928811915831,"72":-0.011382964229437435,"73":-0.2142846764793665,"74":0.24798585692878805,"75":0.14284138510872235,"76":0.5297920394327463,"77":0.5023466466922467,"78":-0.1450324273617282,"79":-0.03158888022335607,"80":-0.05330284792811336,"81":-0.5820197689516526,"82":-0.19891376145850917,"83":0.49451076859739845,"84":-0.3469591632364463,"85":-0.3482695970210732,"86":-0.5144972572746549,"87":0.4498996361590736,"88":0.02593635260630838,"89":-0.17336207158512157,"90":-0.5108321160004504,"91":-0.3991969095735886,"92":-0.011852228271541386,"93":0.014457666794994314,"94":-0.7750634351274917,"95":-0.429228943284186,"96":-0.5292846528916185,"97":0.08607157933824477,"98":0.3381122248851302,"99":0.37507292886689103}},"8":{"bias":0.805113138673566,"weights":{"0":1.2503841657959966,"1":1.2434599814403204,"2":-0.23720088386011973,"3":-0.3971580360833424,"4":-0.13272936289390325,"5":-0.009366579579654677,"6":-0.27154442263788087,"7":-0.08358752297859008,"8":0.04007784090420287,"9":0.4926818298233206,"10":0.8304777446407794,"11":0.7391027191505601,"12":-0.32129911588133275,"13":-0.23552097940343097,"14":-0.11864223926453091,"15":-0.5886009117594868,"16":-0.5167498258269634,"17":-0.18510131984057984,"18":-0.07217036662243406,"19":0.6216985175312817,"20":0.3756367095079617,"21":0.08464143891110606,"22":0.14500943517153708,"23":-0.3287420957512956,"24":-0.36462243067510774,"25":-0.606947243829136,"26":-0.578592711694627,"27":-0.10409603478749692,"28":0.19356176092816674,"29":0.3868312328155484,"30":0.17721409268421534,"31":-0.4199400220545433,"32":-0.43479401092369535,"33":-1.327369315675582,"34":-1.2691852192400217,"35":-0.8987442948660044,"36":-1.1086493299323616,"37":-0.6757966221057838,"38":-0.37897666026201926,"39":-0.19304996472737812,"40":0.07764527757591558,"41":0.4115086149792561,"42":-0.7034011080524573,"43":-0.7528024262489188,"44":-1.1148428931863268,"45":-1.0544807509457486,"46":-0.4289474654887583,"47":-0.341473104056811,"48":-0.2955388618906151,"49":0.4089481780998,"50":0.14311472207110046,"51":0.15897079053190172,"52":-0.2737553657262833,"53":-0.8335212266538427,"54":-0.30128688815090704,"55":0.3477179512239922,"56":-0.0006331870116809944,"57":0.06145084144399755,"58":0.47960121190002786,"59":0.49634122279596543,"60":0.3137495949062362,"61":-0.09449640925543239,"62":-0.24513732794911422,"63":-0.34002364640936733,"64":-0.15857733631789755,"65":0.21443887060928232,"66":-0.0464877193758057,"67":-0.013957153577054538,"68":0.774731536537942,"69":0.21863474955962772,"70":0.5818418569539533,"71":-0.07747387112287181,"72":0.006881820895367369,"73":0.3082776212583806,"74":0.41347986030847783,"75":0.3466903833823204,"76":0.28305525700765777,"77":0.2105643934707603,"78":0.39159606527970825,"79":-0.02103787893231888,"80":-0.42933916405960093,"81":-0.23025266808858144,"82":0.5183947242969437,"83":0.7470945694799406,"84":0.5786729887070543,"85":-0.3189948807571563,"86":0.3766743498494786,"87":0.6750500458050424,"88":0.6698715308007068,"89":0.11258320290857043,"90":-0.6732736895935124,"91":-0.6826246850733373,"92":0.1234073134897844,"93":0.10563421261156476,"94":0.22625101792058308,"95":0.08831677309537378,"96":-0.03703584722309487,"97":0.5724720708265165,"98":0.20647732337512079,"99":0.020471647358627672}},"9":{"bias":0.45038049147753484,"weights":{"0":-0.025422755342823778,"1":-0.15307731042925893,"2":-0.46518643374674484,"3":-0.636884035513452,"4":-1.4741649595175976,"5":-0.27502335203848355,"6":-0.1308467343871511,"7":-0.5118122067814175,"8":0.7075952614971147,"9":1.0967103479564384,"10":0.4761984615825995,"11":0.4832514222497852,"12":-0.16808907526014363,"13":0.6712503678438738,"14":-0.29890870084542137,"15":0.609173813011782,"16":-0.026993358898432573,"17":-0.13280552452351807,"18":0.6953079517378172,"19":-0.020085081426188783,"20":-0.5893746334039001,"21":0.437330612499286,"22":-0.008813727970672825,"23":1.101501719055583,"24":-0.13542302549226448,"25":0.3272238114474402,"26":0.7657407657093915,"27":0.3003510695754071,"28":0.11200474502045414,"29":-0.11121466773665492,"30":-0.8352739235835268,"31":-0.4641402860834339,"32":-1.0169091304478357,"33":0.4302507128261462,"34":-0.388736449343734,"35":0.1712678845960844,"36":0.05294824088283588,"37":0.49822444699790447,"38":-0.23608027453850688,"39":-0.7339231437155677,"40":-0.40067057353397134,"41":-1.488574422362197,"42":-0.7250617035618045,"43":-0.058240396592239334,"44":-0.5770195223747606,"45":-0.30945416786371294,"46":-0.12952892641955704,"47":0.08852161464562512,"48":-0.07001471110067727,"49":-0.05991154167157591,"50":0.6111827405112867,"51":-0.737044237528543,"52":-0.4597596663061668,"53":0.10045807453522926,"54":0.145400991205656,"55":-0.0412750736797869,"56":0.1821952978632662,"57":-0.09207669221061464,"58":-0.3129200059591432,"59":0.246895649782315,"60":0.6094532105325962,"61":0.36264737897623567,"62":0.23925193158905805,"63":0.8853359563795599,"64":-0.8500841090781528,"65":-0.4286486619036154,"66":0.2171220667427368,"67":0.4582049393861665,"68":-0.34840297824826766,"69":-0.03437809184470395,"70":1.0913940472331733,"71":0.3128798348896745,"72":0.4492376700268064,"73":0.47918592061728826,"74":-0.6575491689774163,"75":-0.4765891050592047,"76":0.3275559514202417,"77":0.48459699529085165,"78":0.4120624843872162,"79":0.22482875861757373,"80":0.9488741519424935,"81":0.18197617052054246,"82":-0.2710159703866148,"83":0.13583519859540746,"84":-0.30388361019765814,"85":-0.2743081145930652,"86":0.04620806348106956,"87":1.402065622317931,"88":0.7965930550541106,"89":0.9080506568799168,"90":0.15868654072190322,"91":0.20310529407728553,"92":-0.6626498246828028,"93":-1.063837474036986,"94":-0.9973872612324746,"95":-0.6245831838244948,"96":0.05117429186576944,"97":1.012352040427184,"98":0.7740904741441165,"99":0.33299337207733337}},"10":{"bias":0.5995726806713065,"weights":{"0":-1.696482637197977,"1":-0.2766955899806124,"2":-0.019471081088698106,"3":1.4738385248741568,"4":0.7558681612083121,"5":-0.26194713156140453,"6":-0.004627994233061491,"7":-0.2301689229690725,"8":-0.3733098647346902,"9":-0.28066594342633766,"10":-0.042073244917977905,"11":0.20563290498209869,"12":0.16126551884724863,"13":0.7643244816236134,"14":1.0634129666188774,"15":-0.16305176907144212,"16":0.7807542994473333,"17":-0.010757281643460731,"18":-0.03187209058368541,"19":-0.26488764520178454,"20":0.18100519367325044,"21":0.5391125365536555,"22":0.8405208325994364,"23":0.3724482284839696,"24":-0.5385043739225245,"25":-0.9176337879916799,"26":0.7484773101027797,"27":0.23412967531240236,"28":0.42210759080562416,"29":0.5318246432437645,"30":0.4612446112792501,"31":0.9744821555127976,"32":-0.7125265292638752,"33":-0.67634148238972,"34":-1.0772324752967304,"35":-1.3505082974361873,"36":-0.17627758575494687,"37":0.0923243704650721,"38":-0.47690192660702846,"39":-0.4369516759304688,"40":1.2236462679154416,"41":0.7518450073219793,"42":-0.25634005640174784,"43":0.32176269493621257,"44":-0.10645877743596721,"45":0.05142055163036878,"46":-0.05308111890645506,"47":-0.03154241906397876,"48":-0.3560697558210798,"49":-0.01754180783861584,"50":-0.6167662043853226,"51":-0.17767178466605482,"52":-0.6791514656647653,"53":0.5919315063334164,"54":-0.1781201418440516,"55":0.2091311963892916,"56":0.46685072532723637,"57":0.23048527956370155,"58":0.11732651515312668,"59":-0.007164071699641484,"60":-0.37254915730385885,"61":-0.6624733988310174,"62":-0.6848032530316206,"63":-0.02012903799900176,"64":0.8035228128582004,"65":0.8645467415483978,"66":0.5945198629949983,"67":0.4591684165525658,"68":-0.16253345602793626,"69":-0.042212995182176805,"70":-0.10883862220548925,"71":-0.3585435022547995,"72":-0.30688405035414096,"73":0.9110922644936823,"74":0.08663169961652276,"75":0.05211119230696527,"76":0.15809501692578648,"77":-0.2499175493099672,"78":-0.4373384272938167,"79":0.5259544453726213,"80":-1.5151020245823517,"81":-1.0179534708714912,"82":-0.5237281171213315,"83":-0.07061582723800106,"84":-0.00024327969289146808,"85":0.10180852806842597,"86":0.06795162543978393,"87":-0.8523319395119391,"88":-0.5633659399071567,"89":-0.3578620268109803,"90":-2.189735070846825,"91":-1.3453575226415215,"92":-0.24066808319161645,"93":0.5316035711049041,"94":0.42971840045425236,"95":0.0018173801748818847,"96":0.016154856381630826,"97":-0.6885893953485759,"98":-0.5901768568288694,"99":-0.23608093513648865}},"11":{"bias":0.01900389296451735,"weights":{"0":0.7897491716480838,"1":-0.3090784650166674,"2":-0.6054083703577967,"3":-0.180768268016684,"4":-0.24108704647958978,"5":0.2690526055455031,"6":0.3015995268710558,"7":0.9837320289422002,"8":0.282645731676259,"9":1.1131933239206249,"10":-0.489713356725808,"11":-0.4137312106290121,"12":0.008524562143095167,"13":-0.1572585006567895,"14":-0.15745499601985238,"15":-0.6500005268302125,"16":-0.18188419440535833,"17":1.0498682056985642,"18":0.6138401265194056,"19":0.8688850805089647,"20":0.06424637762612002,"21":0.7420347309028872,"22":0.6226373723894078,"23":0.34537997594655784,"24":0.22277450896963333,"25":-0.850676558202686,"26":-0.46490883235540176,"27":-0.032282400941749466,"28":-0.0788989683294529,"29":1.2736476939716634,"30":0.7424048379178877,"31":0.5867214209432734,"32":-0.043823434983391654,"33":-0.07835935081622257,"34":0.400856829826127,"35":0.11227087733106461,"36":0.6621863111805384,"37":-0.16682975111103054,"38":-0.4368915817222595,"39":0.37663686410286806,"40":0.9301573554748693,"41":0.13672692537481257,"42":0.004686129667779495,"43":0.060451318281454884,"44":-0.16623133393125689,"45":-0.058142483850816884,"46":0.5872246370874069,"47":-0.3582169973512911,"48":-0.4197218950051626,"49":0.40049902445876157,"50":1.768017131713736,"51":-1.0452247669020198,"52":-0.522503398206739,"53":-0.883738601789788,"54":-1.5576492410688911,"55":-0.31237204532371626,"56":-0.6887823966851276,"57":-0.9195962422323073,"58":-0.5079891660449116,"59":0.2301338028690092,"60":0.2706685623265864,"61":-0.23219471035784267,"62":0.021792424195300857,"63":-0.2727152557696419,"64":-0.16117804028129493,"65":-0.5213121382307349,"66":-1.0850095085536167,"67":-0.768311833147477,"68":-0.5543407782339137,"69":0.06911934964573614,"70":0.5507682028858194,"71":-0.498208900964485,"72":-0.19493192813305835,"73":0.058426889127879245,"74":0.7063620509726763,"75":0.08037156995961126,"76":-0.6715096123935317,"77":-0.2507355851021619,"78":0.7955411988535026,"79":0.4380123295784845,"80":-0.5295282321330688,"81":-0.5951499487404055,"82":0.4628148571953694,"83":0.6090484025470858,"84":0.8396585948664886,"85":0.44520835736655845,"86":0.4989920593387398,"87":-0.11287121440073716,"88":0.9464036216367262,"89":0.107401786019396,"90":-0.9367616342550517,"91":-0.9427139370829688,"92":0.04270220833437373,"93":1.4715613687294857,"94":0.08340652276100893,"95":1.5615726241203882,"96":0.630166560466428,"97":-0.2543157281544618,"98":0.73279999875105,"99":0.12796581834782067}},"12":{"bias":0.3872334871839918,"weights":{"0":0.24715964316364078,"1":0.22868862868830941,"2":0.4256819317682522,"3":0.28355975046842047,"4":0.44957723194136584,"5":0.1812328296243044,"6":0.013324016482215059,"7":0.024114657299454074,"8":0.21349889015028775,"9":0.24035666354132756,"10":0.2090222719079592,"11":0.2841024317356239,"12":0.15504775960364808,"13":0.17258642409753133,"14":0.28299281720888075,"15":0.04088653446127967,"16":0.0865285264607703,"17":-0.010545242876379349,"18":-0.08149704631781089,"19":0.0023852970352509413,"20":0.02666308077485442,"21":0.2416519180394676,"22":0.04314105754505622,"23":0.045293667837346806,"24":0.1160922379979409,"25":0.05213972662452791,"26":0.05224816166878252,"27":0.06110157672575319,"28":0.13942290967139778,"29":0.05353285271510172,"30":0.19122731190160658,"31":-0.0006040193002973442,"32":0.3022180851926209,"33":0.11372747598045392,"34":0.2178563549877596,"35":-0.017838990460983056,"36":0.07736262285548051,"37":0.12434055728661507,"38":0.09144056724824313,"39":-0.007595773592985343,"40":-0.04077834465454687,"41":0.14581369084034274,"42":0.2480381359986568,"43":0.08627208972049821,"44":0.2935806573343268,"45":0.10493935383121768,"46":0.015731595067052073,"47":-0.08821578982345361,"48":0.022347138296592114,"49":-0.08112373467130508,"50":0.2544892090297162,"51":0.2166919419517662,"52":0.27658973441961127,"53":-0.0015216401449580314,"54":0.063163156325014,"55":0.06758591026491054,"56":0.1270960391462969,"57":-0.0962539487527007,"58":-0.038323946075913926,"59":0.14400842672215736,"60":0.061006827610118455,"61":0.2149513102941529,"62":0.2654259523210996,"63":-0.01944881491705724,"64":0.2423459909455437,"65":-0.026707987563039007,"66":0.20204511111369394,"67":0.07543770472710426,"68":0.09109116447807071,"69":0.10909715229373337,"70":0.13898776737924967,"71":0.3232693034763861,"72":0.2146521108789063,"73":-0.08265296233764031,"74":0.3156528237608622,"75":-0.14701367240952795,"76":0.24117995756071317,"77":0.20058288496919946,"78":-0.14901568580552554,"79":-0.03491152744572436,"80":0.2550902924989914,"81":0.0017387999080178216,"82":0.18964492427560184,"83":0.016875248081660535,"84":0.041245916684631144,"85":0.004047837439284031,"86":0.013122846713533818,"87":0.2310364260391606,"88":0.016725453116727854,"89":0.08076230184943371,"90":0.28990956084759156,"91":0.06753603618225153,"92":0.08625810226637944,"93":0.19533851912564532,"94":0.029902305483300456,"95":-0.017055679751321266,"96":0.046502144724769365,"97":-0.15008955455929884,"98":0.0980944049502833,"99":-0.050005743426971186}},"13":{"bias":0.2941658219929439,"weights":{"0":-1.300678909805587,"1":0.7615122757477156,"2":0.5339328119063532,"3":0.6590464154218553,"4":0.6885781873087841,"5":0.5778104578930529,"6":0.6816519179666428,"7":0.6517859893573089,"8":0.37414014632685977,"9":-0.12083411516817326,"10":0.1463106174344338,"11":0.11990701914317871,"12":0.6798830873868729,"13":0.7330673142096604,"14":0.9657265803794607,"15":-0.23656726280565493,"16":0.3369810980861039,"17":0.3702679448128091,"18":-0.24705394585263638,"19":-0.0015173421409752465,"20":-0.1663037886946339,"21":-0.7417393177776134,"22":-0.45029385216433776,"23":0.50019952219833,"24":0.5977834224354617,"25":-0.16676024743827123,"26":-0.2867084577149006,"27":-0.287655578398691,"28":-0.7446181601786912,"29":-0.2970129968077532,"30":-0.6067792761631557,"31":-1.1567620547266686,"32":-1.0634899530919848,"33":-0.3702523126675714,"34":-0.4802268851957517,"35":0.30235243293096903,"36":-0.6483098817746944,"37":-0.4337569141019143,"38":-1.0024895670603495,"39":-0.3031706002883543,"40":0.6545545888382756,"41":-0.09517109257428931,"42":-0.06640084560563864,"43":-0.6254017240281798,"44":-0.22287667308031603,"45":0.20092259808737783,"46":-0.7394238859538254,"47":-0.9558679415888777,"48":-0.2710083580412259,"49":0.3447709892031812,"50":1.5250059987279252,"51":0.48641577958051097,"52":0.27511053348785547,"53":-0.5586993440397945,"54":0.5069039900356979,"55":0.8471638584080825,"56":-0.48523742814911053,"57":-0.4177123980708573,"58":-0.13949723088323635,"59":0.07121624008436292,"60":0.8526754052477542,"61":0.8357995298960571,"62":0.4757064994591255,"63":-0.03925167208061755,"64":0.5379264061672608,"65":0.6488204473546441,"66":-1.047751857904443,"67":-0.734086436047257,"68":-0.4966872555934643,"69":0.16329718161063037,"70":1.2888825872454643,"71":0.6418691114270958,"72":0.9622211360299839,"73":-0.24569819549288693,"74":-0.1878646347226207,"75":-0.15621366879017043,"76":-0.5098686784279107,"77":-0.4996644737466911,"78":-0.1153312456332703,"79":0.2771433605068814,"80":-0.412652933689125,"81":-0.32924613288233184,"82":-0.16836151971547905,"83":-0.38521114990070526,"84":-0.050007827500690535,"85":-0.28017683734887067,"86":0.14824738551438021,"87":0.2602893376084263,"88":0.23656809953168756,"89":0.507312206457705,"90":-1.8109495003223464,"91":-1.002700292649577,"92":-0.976686050313442,"93":-0.5195430262373109,"94":-0.04506189725216731,"95":0.030607579209454405,"96":0.3731056321574297,"97":-0.007815173872707842,"98":-0.1681556357621445,"99":0.17863861519762073}},"14":{"bias":-0.028349057467584454,"weights":{"0":0.5394711368591084,"1":0.0024049629235363096,"2":-1.019731282168389,"3":-0.7163223108528145,"4":-1.027930016221393,"5":-0.13479927911795578,"6":0.23654421733480857,"7":0.055826235347702584,"8":0.17003330045896003,"9":0.9473756189236482,"10":2.0914144278545144,"11":-0.10419157985401453,"12":-1.0749248173584698,"13":0.18071517696819936,"14":-0.6236242604199135,"15":-0.902084670332772,"16":-0.0282401714047264,"17":0.16723107719592736,"18":0.14993509251603002,"19":0.6924415710940697,"20":1.0619136995930012,"21":0.959531085623161,"22":0.35404794516411064,"23":0.42466769880351424,"24":0.5232904778514813,"25":-0.3462931356872196,"26":0.22669454312302004,"27":-0.08347559176548945,"28":-0.4479375550938785,"29":0.002304005335488697,"30":0.3488476764755519,"31":0.29864981463071,"32":-0.2722956244848522,"33":0.8078663677802612,"34":0.3767677717655247,"35":-0.4296900501778545,"36":-0.29037331214394146,"37":-0.23691919933701455,"38":0.21143163449160732,"39":0.7622540282573866,"40":0.10953777584498325,"41":-1.1914443630846228,"42":-0.638999747874106,"43":0.38099642044593696,"44":-0.05112359887995318,"45":-0.06652009874293424,"46":-0.23971904675991113,"47":-0.16673900043109757,"48":0.7196339625072922,"49":0.4351656986317055,"50":-2.232722684723707,"51":-1.5359620517300905,"52":-0.752118089002044,"53":-0.004463437467602851,"54":0.004345363866798837,"55":0.7709069791052375,"56":0.4412269668601604,"57":0.5483998762041782,"58":0.8891731553930835,"59":0.3249284773800191,"60":-0.4997119312084086,"61":-0.2540274016155909,"62":-0.17326598118289976,"63":0.046931797564543715,"64":0.5124352618509327,"65":1.5872248712916726,"66":0.4456815188712855,"67":-0.006235794295507931,"68":0.71862429363979,"69":-0.27093837185347486,"70":0.5668950098111952,"71":1.2528750018782813,"72":0.5519796708476662,"73":0.369944500863723,"74":-0.18856212097132682,"75":-0.001233512044380809,"76":1.0037626763329324,"77":-0.19510977757817566,"78":-0.09673338307881044,"79":-0.6620834127565459,"80":1.13269045526371,"81":-0.019647354162488428,"82":-0.3924425010380224,"83":-0.49059957827182676,"84":0.212764945244848,"85":-0.3961469082358547,"86":0.07630788142574393,"87":-0.11865585838468516,"88":-0.193782172240147,"89":0.010577470619205238,"90":-0.4741898167577527,"91":-1.0067514945175404,"92":-0.28011132532610483,"93":-0.13249345269204643,"94":-0.559568747979832,"95":-0.0516141079946798,"96":0.42987843426641986,"97":0.08200949940033306,"98":-0.49517579230295555,"99":0.17619073994414478}},"15":{"bias":0.27263405633544147,"weights":{"0":-1.3724305781433168,"1":0.06374997444224045,"2":1.233310372998268,"3":0.04995702190551177,"4":-0.3137948352218847,"5":0.10965444821874394,"6":-0.4476643111582684,"7":-0.6180135791632702,"8":0.1316056886646523,"9":-0.5180544148240827,"10":-1.290843582379411,"11":-0.3477265924167283,"12":0.4027213326995603,"13":-0.30403345921869174,"14":0.350589265297749,"15":0.6349206498066606,"16":0.328616243553385,"17":0.13296701223507873,"18":-0.11479066599758814,"19":-0.8685918183523863,"20":-0.32913872395527205,"21":-0.3127179383726371,"22":-0.26974820465588456,"23":0.33468173993226064,"24":0.4389848917681953,"25":0.7360303742415072,"26":0.746834105634789,"27":0.2777666606951905,"28":0.013056729211914923,"29":-0.4203996048589214,"30":-0.401195610106596,"31":0.1813355158536992,"32":-0.6129051176285403,"33":-0.24663244968737208,"34":0.6151785644352348,"35":0.35677412195976943,"36":0.43921900250039997,"37":0.6800199264607079,"38":-0.22970511168159552,"39":-0.7909622703230663,"40":0.005129705366813182,"41":0.39059887755720674,"42":-0.06632620324521626,"43":-0.37080360291944325,"44":0.1871708240008061,"45":-0.24267854616659504,"46":0.09031600233343022,"47":0.6068161199569385,"48":0.5294264096678433,"49":0.06633329068948111,"50":0.7946774794304936,"51":0.8770431988025749,"52":0.02964463148164506,"53":-0.8376825832678777,"54":-0.5747901735986171,"55":-0.22928925475750186,"56":-0.03704992096498359,"57":0.28788093605585613,"58":0.1678421033248288,"59":-0.002555148308238652,"60":-0.17239353018960626,"61":-0.25403559384401986,"62":-0.3384573429614389,"63":-0.6475064445546155,"64":0.7499846939048319,"65":-0.02870775852637014,"66":-0.13285609401622037,"67":0.044323360180413864,"68":-0.4932681680762916,"69":-0.037535114613137105,"70":-0.28555250578451435,"71":0.037987790297065185,"72":-0.27336335045035687,"73":-0.15509407978219866,"74":0.422840876246601,"75":0.01540439064526536,"76":-0.03821229208760456,"77":-0.8729390346034798,"78":-0.13656090274149915,"79":0.6294995833813448,"80":-0.8865561168788892,"81":0.18403064424506782,"82":0.27916628301097274,"83":0.29807585336934933,"84":0.3040610248394621,"85":-0.24970660929479926,"86":-0.3528963555613377,"87":-0.46751007490546637,"88":0.1604848653850675,"89":0.26194172650483066,"90":0.2684653450657863,"91":0.6746956215535183,"92":0.741266046612501,"93":-0.29931574846031855,"94":-0.46395598455991777,"95":-0.38041465795292284,"96":-0.12218024826925382,"97":0.11427735599623054,"98":0.3093252670520996,"99":0.4750880769084708}},"16":{"bias":0.32151725461146563,"weights":{"0":0.8049124279546587,"1":0.5957643394276197,"2":0.2616488298931957,"3":-0.14644070628622163,"4":0.8617158147497316,"5":-0.33134260331681753,"6":1.0955009407512957,"7":0.8465366860883591,"8":0.6666282620635259,"9":1.4369332061402538,"10":0.07995434478335217,"11":-0.9755866869013269,"12":-0.2952206075191599,"13":-0.48458047265459125,"14":0.0222064626790409,"15":-0.2545121049867821,"16":0.8290217804574316,"17":0.44338331659473174,"18":0.14694513253904726,"19":0.6073480974011723,"20":-1.9259787504682697,"21":-0.8508921490195259,"22":-0.8133229799576208,"23":-0.8527196741165147,"24":-0.5959196328637177,"25":-0.222840357453514,"26":-0.4757940885205273,"27":0.15513840237928725,"28":0.2265765191313681,"29":0.7702995421662534,"30":-0.7442572780240988,"31":-0.451128980588623,"32":-0.009886041088765988,"33":-0.06882542692066146,"34":-0.685833769874199,"35":0.3662156427426882,"36":-0.1334757068422062,"37":-0.23569468221298545,"38":0.14424228345976373,"39":0.9439886417993552,"40":0.8791880167389041,"41":0.6016665103178219,"42":0.04023881233359192,"43":-0.41450421034160617,"44":-0.04593483271974954,"45":-0.1308083553284382,"46":-1.0660969450572964,"47":-0.11060267668092398,"48":-0.4490610877067045,"49":0.08253562331941393,"50":0.7474434021348492,"51":0.8766903678247571,"52":-0.1419161344922824,"53":0.7170791210918255,"54":0.45039028107157847,"55":0.09142312201190496,"56":-0.0027500793548832646,"57":-0.5574738049185031,"58":-0.6189489658377942,"59":-0.29198373600690725,"60":0.3242727099434251,"61":0.8362776115206245,"62":0.431470130191903,"63":0.9125849963540074,"64":1.3348525881080024,"65":0.9086795313482495,"66":-0.5215162875589279,"67":-0.3789786502760007,"68":-0.5203512707383919,"69":-0.610970087745849,"70":-0.43281080048256465,"71":-0.28011719446145483,"72":0.1797297289868246,"73":0.4853040505547391,"74":0.4865818886537601,"75":-0.03382986441547598,"76":-0.6803376394106903,"77":-0.8992757204729185,"78":-0.28084280988766197,"79":-0.5722365196024519,"80":0.4244176097961349,"81":-0.5601339085481498,"82":0.0059526331618757885,"83":-0.23794758124655202,"84":0.14272985060603116,"85":-0.03481853661106054,"86":-0.5341599874069659,"87":-0.24565489637019458,"88":-0.022090335615630542,"89":0.4406360663788971,"90":0.9847434259279564,"91":-0.4159281299614263,"92":-0.019068831146090162,"93":-1.0905964857905526,"94":-0.16032971990281672,"95":-0.675163205071986,"96":-0.05668852978597642,"97":0.050743283321668824,"98":0.19270910528144156,"99":0.2632937655861768}},"17":{"bias":-0.44487089774292143,"weights":{"0":0.2613679766956518,"1":-0.2523535154937122,"2":0.9683605666492511,"3":0.5717385637877971,"4":0.988337153571815,"5":0.3729999402864718,"6":-0.16726667422819444,"7":0.014904664337877509,"8":0.011298441599818044,"9":-0.6823302791957396,"10":-0.4118808966091956,"11":-0.1381563970007072,"12":-0.03580676185000325,"13":-0.16900848666157245,"14":0.4745142133191343,"15":0.6325919641435859,"16":-0.014167833151475946,"17":0.19862035940028483,"18":0.32002769570841677,"19":-0.11665794509471283,"20":-0.4153149685958616,"21":-0.9320667321698656,"22":-1.29472756800892,"23":-0.8542859314195167,"24":-0.3868733654354584,"25":0.3587787379956993,"26":0.23792147662712118,"27":0.11488450027446433,"28":0.7375020522060775,"29":0.24046128617953125,"30":0.5167554020970995,"31":-1.4014823277858546,"32":-0.7913115646642112,"33":-0.5840223624373192,"34":0.2402685955771455,"35":1.0081422213121056,"36":0.12328059964561097,"37":-0.0622397274368991,"38":0.1046375017500557,"39":-0.13949535300766058,"40":0.6599147587809727,"41":-0.4266078389087536,"42":-0.2578069696902405,"43":0.36798974928597405,"44":0.49763636929436483,"45":0.0615726040566744,"46":-0.027483226979087713,"47":0.04505829139322285,"48":0.38715289616767634,"49":0.39617447342172196,"50":0.03703570206262955,"51":0.8480207290922134,"52":0.6187908747776192,"53":1.0671262564544757,"54":0.4047091784416507,"55":-0.3376574170850704,"56":0.04100581954506574,"57":-0.31566410426598546,"58":0.04363664853709182,"59":0.5173354296655718,"60":0.5145017222583815,"61":0.5037514922315002,"62":0.28971976533223504,"63":1.0502065655835113,"64":0.22213961716125682,"65":-0.8973321294974432,"66":-0.1255396042442748,"67":0.2240913421863833,"68":0.14468876145372112,"69":0.5438359811588165,"70":-0.17827386200832304,"71":-0.42778452664690775,"72":-0.31679103941481307,"73":-0.16455100962719516,"74":-0.41538563242572557,"75":-0.7211933776065064,"76":-0.009588242363777522,"77":-0.29567987237286847,"78":-0.07702374051342575,"79":0.4784870233635222,"80":-1.512254931397431,"81":0.4501576999603694,"82":0.397837575878531,"83":-0.4361198958723949,"84":-1.1615123233689748,"85":-0.3584593532036844,"86":-0.2579921139415421,"87":-0.09329819637360806,"88":-0.4297137334111948,"89":-0.6267378424412341,"90":1.182084964938306,"91":0.809160416315587,"92":0.2077871712317937,"93":-1.1321253368980824,"94":0.2541538221439878,"95":-0.3287680182835144,"96":-0.07821645989618826,"97":0.15562549337672266,"98":-0.5356236168183975,"99":0.05839462171382056}},"18":{"bias":-0.16824108052262768,"weights":{"0":-1.8799252036850702,"1":-0.05713196714923205,"2":0.4086262828700273,"3":0.006446218385624378,"4":-0.7575699400397609,"5":-0.7134546257556243,"6":-0.6832184611390144,"7":0.15715002682346063,"8":0.41931483048235463,"9":0.5253322324506113,"10":-0.5527359864884633,"11":0.6665536547639364,"12":0.4366987400383549,"13":-0.8635830355175397,"14":-0.7562333945995382,"15":-0.609866612144012,"16":-0.16595982987037433,"17":-0.009604122419427149,"18":-0.07774082141909523,"19":-0.4343401956720429,"20":0.48513191831623,"21":0.4921278542893608,"22":0.37015437354796177,"23":0.09178205009130663,"24":-0.7597978834578558,"25":-0.08310499111822135,"26":0.44255242939330514,"27":-0.06970364405039908,"28":0.18625929855814843,"29":-0.04636042472656489,"30":-0.3958323108404555,"31":0.46589735410712246,"32":-0.4081590076127781,"33":0.7897764813191437,"34":0.9241834322314074,"35":-0.4959947076056322,"36":0.5002456705678182,"37":0.5691358598478827,"38":0.3802697662172927,"39":-0.37160734855340855,"40":-0.44125921232555104,"41":0.5332913452022562,"42":0.13862339070412094,"43":1.3194013121574737,"44":0.1426081419873241,"45":-0.1757995674225967,"46":-0.1724493977003215,"47":-0.07387416525184022,"48":-0.6797653065644862,"49":-0.9302030827875692,"50":-0.08065837564368053,"51":0.6503588741489508,"52":0.28037465372372417,"53":0.45287134893383063,"54":0.7124945706382773,"55":0.2515761535288258,"56":0.31609195375684146,"57":0.434300248387483,"58":-1.197268326030333,"59":-1.0592771832435788,"60":0.567384938506951,"61":0.6212627182637487,"62":0.1668481338009625,"63":-0.4703721504093662,"64":0.18336519718934532,"65":-0.593576839236954,"66":-0.22651891941287272,"67":-0.35857872215858166,"68":-0.38811121262518133,"69":-0.8644914090363757,"70":0.6319665378192377,"71":1.1180449417310332,"72":0.6289922387463893,"73":-0.009631072302798005,"74":-0.4757043114321018,"75":-0.23973476818737602,"76":-0.27707317380881014,"77":0.2956207697117807,"78":0.18902840119366113,"79":-0.38538039912016325,"80":-0.5160229601709531,"81":-0.25488487745556865,"82":-0.0038320767610725455,"83":-0.3503921390847799,"84":0.3340038209641096,"85":-0.026219616939481268,"86":0.20584192497623277,"87":0.03898173908844007,"88":-0.009962220181555285,"89":0.1380684399568665,"90":-2.4581806133594384,"91":-1.1320259799055972,"92":-0.8527087458528694,"93":-0.7613721383162962,"94":0.23679943219781538,"95":0.7867226302166067,"96":0.831303226999624,"97":0.6275224182096486,"98":0.19958278858787756,"99":0.4171516735652776}},"19":{"bias":0.6813371627673659,"weights":{"0":0.36835952023267005,"1":0.7032076095801335,"2":1.1348102034800125,"3":0.9870985465982534,"4":0.21500083996402364,"5":0.6557510377873695,"6":-0.20345047331006308,"7":0.03912902624279056,"8":0.3632094066429279,"9":-0.19216664252938792,"10":0.40205990007935327,"11":0.22456246684588033,"12":0.09595476436671936,"13":0.4176353526142076,"14":-0.07588877442188252,"15":0.462630518065244,"16":-0.5469680356386967,"17":0.13767463936604402,"18":-0.09735240417449897,"19":-0.5340987687248308,"20":-0.2788236999084528,"21":-0.3363483604204769,"22":-0.02078653692723057,"23":0.05269696076820124,"24":-0.18393142742019034,"25":0.5183252720010731,"26":-0.6401914784523435,"27":0.2708709196821648,"28":-0.08212700683783286,"29":-0.5082246121838597,"30":-0.42393600899170475,"31":-1.0091630158205418,"32":-0.9054221744033626,"33":-0.8437023305471083,"34":-0.17015700850637386,"35":0.09776784453093108,"36":-0.9912215619400778,"37":-0.22169048641623215,"38":-0.16594539987934198,"39":-0.6909471774267743,"40":0.2345315445589943,"41":-0.10838314979023014,"42":-1.222645094423805,"43":-1.2766073913095566,"44":-0.4790900724602312,"45":0.21858971009627706,"46":-0.8899523079187103,"47":0.343209177597279,"48":-0.1300177879765981,"49":0.166795443565169,"50":0.697431867382794,"51":0.22002322867098917,"52":-0.26815420170946025,"53":-0.5253268196715545,"54":-0.013095823282401347,"55":0.39244523563255906,"56":-0.12530192363008755,"57":-0.04620504038518116,"58":0.1830896345473649,"59":0.06004295946454914,"60":0.19188609760296763,"61":0.028572140762690428,"62":-0.1304056088422538,"63":0.2763364131099679,"64":0.1330624194969316,"65":0.10763256992521422,"66":-0.17753430921908375,"67":-0.2489361490591921,"68":-0.18371024922286092,"69":0.021532704272646065,"70":-0.5819737471395752,"71":-0.2759828069238632,"72":0.15966148813909853,"73":0.3738759728201572,"74":0.14381762819515073,"75":-0.1115093252724143,"76":-0.5983290447060469,"77":0.02902084597971715,"78":-0.07587076405346249,"79":0.10988088518100493,"80":-0.6713417037636038,"81":0.16754789637445314,"82":0.10463911663893412,"83":-0.209968593676341,"84":-0.5453732306461931,"85":-0.9024360056334794,"86":-0.8364116339161143,"87":-0.3873804001604273,"88":-0.27436003152252103,"89":-0.14067365271348356,"90":-0.23141410763990455,"91":0.5500932783378354,"92":0.720137723037341,"93":0.6209802638228742,"94":-0.5295116702890214,"95":-0.7953413450519259,"96":-0.543686930707878,"97":-0.123857132103948,"98":0.0517200023378639,"99":-0.10756154123131084}},"20":{"bias":0.4079632959482166,"weights":{"0":0.5292716716210899,"1":-1.1127958052293176,"2":-0.04859622779165565,"3":-0.3410112147809768,"4":-1.0454899231592627,"5":-0.5542949332765138,"6":0.6037274548386774,"7":0.013505038710092447,"8":-0.6456379958418037,"9":-0.9751682781428755,"10":-1.6149499700849763,"11":-0.6426896668085772,"12":0.02611896342819871,"13":-0.12201809389297676,"14":-0.7592509575856674,"15":-0.8115609925571429,"16":-0.16693885972289185,"17":1.1603291306150987,"18":-0.31128916047798355,"19":-0.10683416838701273,"20":-0.6192994264106267,"21":-0.44499466825548284,"22":-0.041973535565350495,"23":-0.2396074260435203,"24":-0.3714518249716945,"25":-0.626705309369958,"26":-1.3868650938264326,"27":0.04314547477728821,"28":0.022359297813417243,"29":0.05389419037600122,"30":-0.3918807948409917,"31":0.2451469704360334,"32":0.2514863551328557,"33":0.12713023643123794,"34":0.390780314242196,"35":-0.0640422215118644,"36":-0.9459953774143124,"37":0.03860026228918074,"38":0.6505138356183432,"39":0.21060337407865146,"40":0.4591736018478871,"41":0.6950423086184333,"42":0.386691380544088,"43":-0.46956524364862734,"44":-0.4240075069971046,"45":0.4649404924647624,"46":0.0781625553566324,"47":0.08320317668171877,"48":0.573144926060421,"49":0.400216483362566,"50":0.3963849940456582,"51":0.25513233764745086,"52":-0.8013139597022118,"53":0.1543042079131109,"54":0.8305490767142993,"55":0.941165116553404,"56":0.12358594562990777,"57":0.36780372483172513,"58":0.4292196721854123,"59":0.5769645333637871,"60":0.6101607069731496,"61":-0.13699964899168202,"62":-0.5589472011308163,"63":-0.2014111097046362,"64":1.028701793770108,"65":0.3313620651424825,"66":0.360618693096184,"67":-0.07282309012363851,"68":-0.29544045009174247,"69":0.022735953772890925,"70":1.2174838773365433,"71":-0.2843029430512842,"72":0.20522381410783497,"73":1.1898552470642696,"74":-0.022648947101482058,"75":-0.08546971071013137,"76":0.11931909286660114,"77":0.271581079632354,"78":0.07043110393590632,"79":0.2997436917430042,"80":0.9863484763884826,"81":0.30008135129914687,"82":0.43854984355064514,"83":0.15351959909466115,"84":0.09608168325416276,"85":0.1553227495269104,"86":0.0352911494143205,"87":-0.0091452303871089,"88":0.2913941773079542,"89":0.05853656116128404,"90":0.5215226609840269,"91":0.4125591057031494,"92":0.22610636003340748,"93":0.12836521270012263,"94":-0.5644015258290643,"95":-0.683151174594112,"96":-0.5262180763366019,"97":0.08625759852364714,"98":0.11128472087333025,"99":-0.11991680954708825}},"21":{"bias":0.2545974114851076,"weights":{"0":1.2676736163551172,"1":0.6226994046659222,"2":0.6535023842809022,"3":-0.3982202432806769,"4":0.8932285733610272,"5":-0.33170613292945245,"6":0.8704208483511514,"7":0.4671636879387617,"8":0.42544659078173874,"9":-0.35529608144695485,"10":-0.6987408812398155,"11":-0.08314830476008896,"12":0.631575561423866,"13":-0.7370271152135549,"14":0.33714240248030675,"15":-1.0411762685972243,"16":0.5487807176577497,"17":0.13786863104297242,"18":0.4832536864458608,"19":0.010447111219643602,"20":0.1559195432348086,"21":-0.026540380707560686,"22":0.7014101372251691,"23":-0.20168158572543116,"24":-0.2726979773010069,"25":-1.1442782223060728,"26":-0.3458902762965525,"27":-0.2758391894935611,"28":0.2597898048981355,"29":-0.26936798959524183,"30":0.302840239519018,"31":0.29165342118743265,"32":-0.13938333259219982,"33":0.32066614530379844,"34":0.2510896459595044,"35":0.302564258710361,"36":0.5823884208482834,"37":-0.7187674698963069,"38":0.0764781139858627,"39":0.1869034145915489,"40":0.403499523914382,"41":0.8123677031247458,"42":0.08718864242915345,"43":0.17688367630988927,"44":0.07594392550708451,"45":-0.28893782268497065,"46":-0.3253782416412554,"47":-1.6145923712661965,"48":-0.12840126614374928,"49":0.3353335697650723,"50":-0.3723715746756808,"51":0.12936925946241906,"52":-0.2828325885633275,"53":-0.5979290603372216,"54":0.14624218996167113,"55":-0.06185009175121709,"56":-0.016449975693394823,"57":-1.3311286020154804,"58":0.028065544616129232,"59":-0.11144598168516143,"60":-0.01998167488086096,"61":0.7887280729755934,"62":-0.8291673088004698,"63":-0.6754954770946285,"64":1.0180685803231369,"65":1.3777275972480545,"66":0.22323585867223858,"67":-0.35633286557704785,"68":0.39565448221683314,"69":0.4264871917084587,"70":-0.0969220597782113,"71":-0.0027939821543546055,"72":-0.9766811484834165,"73":-0.030878220711104465,"74":0.570693037661753,"75":0.9968266393070779,"76":0.04462156267157375,"77":-0.43183128620235695,"78":0.12321105429943442,"79":0.1961817840813935,"80":-0.892911763601271,"81":-0.32871251327155865,"82":-0.2757882661070544,"83":-1.222384867335316,"84":-0.18926876106968227,"85":-0.8089318363965432,"86":-0.17058184697847237,"87":0.38338432698030606,"88":0.010606999583073425,"89":0.036216880279111505,"90":-0.4693990553031045,"91":-0.8897216927945276,"92":0.5127659799149727,"93":0.22571289228585686,"94":-0.28671265919666306,"95":-0.8386214682076232,"96":0.34656501040029897,"97":0.6183218276199322,"98":0.23390398415667454,"99":-0.10238580492412579}},"22":{"bias":0.3430369997191758,"weights":{"0":0.3621799895823143,"1":-0.4913730000110936,"2":-0.556129923816583,"3":-0.5098179771615998,"4":-0.4370942483702799,"5":-0.06895215128726606,"6":0.41392463036614274,"7":-0.3050498585755545,"8":-0.2629715627952294,"9":0.19351084534906593,"10":-0.8729468552859947,"11":-1.0690591712250803,"12":0.2844412904011407,"13":-0.0937217803568917,"14":0.106793945251508,"15":0.1395063995132518,"16":0.30720332342997747,"17":0.17115819528380594,"18":-0.17537925087384218,"19":0.06679987496969776,"20":-0.10076277143122071,"21":-0.2596397001308034,"22":0.5075741800294501,"23":0.8235730002327702,"24":0.2843718283790184,"25":-0.39361877372338316,"26":-0.7179058426806096,"27":0.22421841125219738,"28":-0.4480405229982856,"29":-0.4551519046983005,"30":-0.5815085361766961,"31":0.019234852836955044,"32":0.29960815951403086,"33":2.002339177624315,"34":1.745421839092846,"35":1.1222187457077017,"36":-0.19952830312899797,"37":0.9734115799783115,"38":-0.3399400513366535,"39":0.38438787771690763,"40":0.6701811573118996,"41":0.46314295254997734,"42":0.26837744949237163,"43":0.251791443457035,"44":0.5623988956677525,"45":0.5444032209315669,"46":-0.3167783642081445,"47":-0.8733873681407456,"48":0.7392045687642808,"49":0.3677792152939125,"50":1.4947699153846528,"51":0.38333865064289013,"52":-0.5523025849633055,"53":-0.6156376011592177,"54":-0.5714526939231853,"55":-0.2590155187978381,"56":-0.5985073976651535,"57":0.31156813456951626,"58":0.7115568180719921,"59":0.22389828854051472,"60":-0.36983674991367566,"61":-0.4794377626689179,"62":-0.9914148033498439,"63":-1.3236344932924071,"64":-0.49483987215600816,"65":0.07389643796966677,"66":-0.7867186404685428,"67":0.41600434266600533,"68":0.10464960910790039,"69":0.07081594142141726,"70":0.6491492934027485,"71":-0.5719487452782934,"72":-0.8363366347321382,"73":-0.5004875982739357,"74":0.12831711280208885,"75":0.4256260010433038,"76":-0.24613684968165414,"77":-0.14007019564115986,"78":0.018823939947961454,"79":0.3997681967998544,"80":0.48717089217649273,"81":-0.5195175035221397,"82":0.1355927534915962,"83":0.02532928186673811,"84":0.5516980756641631,"85":0.09873401862657402,"86":-0.02934001060659826,"87":-0.21072838308888164,"88":0.566525888351859,"89":0.7217188067276734,"90":-0.478244510806004,"91":-0.4035674970368472,"92":-0.28948420940898956,"93":0.04947120988399449,"94":0.2701248132464778,"95":0.09877756891457222,"96":-0.361214171933609,"97":-0.3475481478755159,"98":0.6114424947138665,"99":0.24340291491744923}},"23":{"bias":0.4357833158272285,"weights":{"0":0.3361926790959488,"1":0.5862687093024088,"2":0.2358855297085595,"3":0.23590033295453752,"4":0.18111207703818447,"5":-0.15003191509247474,"6":-0.004182194537951731,"7":0.718940899118382,"8":0.837804372396054,"9":0.6307592909462221,"10":0.25911292781554984,"11":0.49428387331400914,"12":0.5431314736808626,"13":-0.09525860381482668,"14":0.12274204217900554,"15":0.7364448214101692,"16":-0.6019510864563243,"17":0.5220469489433268,"18":0.20506513329466514,"19":0.9394988145246709,"20":-0.14734144499339819,"21":0.3247723313080264,"22":-0.03971025318394516,"23":-0.04876999326728281,"24":0.9269201532296035,"25":0.2528139791131275,"26":-0.5120745821556485,"27":0.6101914743729384,"28":0.5595088487228854,"29":0.7635787848106123,"30":0.18860799362928798,"31":0.3489769171032667,"32":-0.5456719314338662,"33":-0.0953166624067038,"34":0.24383953805986236,"35":-0.38593462836725556,"36":-0.7488450780866784,"37":-0.2959219256004473,"38":-0.1854216869669617,"39":0.09455827398615328,"40":0.298132025622638,"41":0.7098412756087225,"42":-0.15008350964026315,"43":-0.8406026148779263,"44":-0.9827373627922646,"45":-1.2746924686115568,"46":-0.6115032478467022,"47":-0.20382131564742545,"48":-0.1717185624552973,"49":-0.1352827557916448,"50":0.08866793042424531,"51":0.25132285712627583,"52":0.3968973354868139,"53":-0.7994359015601312,"54":-0.9895470170453339,"55":-0.8751280418039515,"56":-0.4620040592028176,"57":0.06382310621750434,"58":-0.27418954521933686,"59":-0.4697193097471611,"60":0.05554184708801045,"61":-0.35685117623260243,"62":0.5672141966807289,"63":-0.5992436370685491,"64":-0.4762883405484433,"65":-0.8895195078038365,"66":0.005906078683638829,"67":0.3934714827612072,"68":-0.39132810600813883,"69":-0.16008665028317406,"70":-0.3550926979053628,"71":-0.36286291031357176,"72":0.8051949589044294,"73":0.2742702101649432,"74":0.16822163727945214,"75":-0.013718581325252867,"76":-0.223061402339245,"77":0.5077968817099665,"78":-0.10479743088750794,"79":-0.2870755263029115,"80":-1.1666930643736781,"81":-0.8062365817640681,"82":-0.04061666815935231,"83":-0.1646975281099689,"84":-0.33663738346493116,"85":-0.28739602691030547,"86":0.004079694776059667,"87":0.06337497854890663,"88":-0.4224434545999961,"89":-0.4059209090014424,"90":-0.9080868828756461,"91":0.1413500476096308,"92":0.34036764676359754,"93":0.5372680262805327,"94":0.3294454703234044,"95":0.1784620415019745,"96":0.512194635604572,"97":0.18042690934811506,"98":-0.011525259527755145,"99":-0.25706913873236936}},"24":{"bias":0.677305999984981,"weights":{"0":-0.23191539349535856,"1":0.5624110151549855,"2":0.5122311832745283,"3":0.1846930822054166,"4":-0.3038268807284249,"5":0.8341970929479819,"6":0.07654296507627786,"7":-0.043215649400115845,"8":0.2847811578670466,"9":0.4201368672872197,"10":-0.12150296958021674,"11":-0.2226873905208306,"12":0.31447717796838737,"13":0.21741740744540283,"14":0.36909384368968123,"15":1.3271476197333356,"16":0.6180910482358877,"17":0.44426415095946603,"18":0.11006047159349919,"19":0.41993575498346547,"20":0.5838376030730595,"21":-0.13199783448547595,"22":-0.35883526871897675,"23":0.7207838430854008,"24":0.5113500761393504,"25":1.102021064592318,"26":-0.003345391798193476,"27":-0.11960563096559355,"28":0.18380785886054507,"29":-0.2274794807317416,"30":-0.19710672381199926,"31":-0.5564873284297838,"32":-0.6961859243207682,"33":-0.06279282174124161,"34":0.2356707841295611,"35":-0.6562973880478691,"36":-1.30091423990511,"37":-0.649951060300859,"38":0.29057957172773896,"39":0.012456033711355122,"40":-0.4793067003577459,"41":0.11617949970406191,"42":-0.5245569407408818,"43":0.2666479730226032,"44":-0.0070006636955776795,"45":-0.8853031810107698,"46":-0.5381435392482845,"47":0.15831823613158832,"48":-0.07871339727556567,"49":0.2091118126092274,"50":-0.6430698643535897,"51":0.46235733436342996,"52":0.014417341026796152,"53":-0.30731951429220233,"54":0.39489999224443706,"55":-1.0331614478390618,"56":-0.8981448668945422,"57":-0.14159116786513584,"58":-0.6648344918427146,"59":-0.48405311902591014,"60":0.188288281632055,"61":-0.7395164317852873,"62":0.15265923858808098,"63":-0.34359177507281596,"64":0.7721169667540971,"65":0.4471341681837602,"66":0.1378816871776036,"67":0.03489203251215441,"68":-0.17327323000067596,"69":0.1803092049711899,"70":0.367798533065113,"71":-0.007417054183599201,"72":0.8218224637317317,"73":0.5777558684547718,"74":-0.3758878238250402,"75":-0.17454892354369406,"76":0.5986660541749335,"77":0.5001788605161419,"78":0.1271946092455277,"79":0.4061726754658058,"80":-0.5366113501163697,"81":-0.6727522521445412,"82":0.0199249818007503,"83":-0.24076742679667276,"84":-0.7560034547423277,"85":0.28824286979966957,"86":0.7275926933701697,"87":0.9269883627355127,"88":0.4417574623599441,"89":0.49493382172321504,"90":0.2417915164604228,"91":-1.1194904746403356,"92":-0.7518195456181811,"93":-0.6368418688227503,"94":-1.1525413736636498,"95":0.026571871078127873,"96":1.493162134458762,"97":0.9502154598344722,"98":-0.38252046381644633,"99":-0.08423772138836895}},"25":{"bias":0.5617503944539418,"weights":{"0":-1.4208441375151608,"1":-0.10177574004489218,"2":-0.24980883646344643,"3":0.5163013045367532,"4":0.6974421028141647,"5":0.34521857278749174,"6":-0.6716228390383555,"7":-0.6487988037097946,"8":-0.48682927443940927,"9":-0.323730482352487,"10":0.1649626499061372,"11":-0.4718355250062518,"12":-0.4755646539111153,"13":0.15956832017286407,"14":0.10485704034391274,"15":-0.019255816854039147,"16":-1.0481098670763174,"17":-0.8502480680738648,"18":-0.8371827504875355,"19":-0.2514655099764691,"20":-0.09727812889593244,"21":-0.43092376486707135,"22":0.04466007412390903,"23":0.23644960590979053,"24":-0.3292343187735117,"25":-0.8371557084621722,"26":-1.0534210246746198,"27":-1.0166618077962204,"28":-0.475275614784467,"29":0.016307197781610275,"30":0.3632863644342175,"31":0.08315647474455384,"32":0.10495110197396404,"33":0.5419813041732666,"34":-0.38969764016250585,"35":-0.8314900887158599,"36":-0.7165719492029128,"37":-0.6382243916739057,"38":-0.2965548363187099,"39":0.297293694820838,"40":0.4601216424259801,"41":-0.16917218658427677,"42":-0.6410840610857653,"43":0.25888863158384706,"44":0.09749769193665661,"45":-0.6081619157435836,"46":0.24408201294027274,"47":0.35813912507693546,"48":-0.32940579472308346,"49":-0.026928764329309463,"50":0.09624019475159784,"51":-0.06043031212467138,"52":-0.49724159487933905,"53":0.0110024070263473,"54":0.30818243999580924,"55":0.05760834931165243,"56":0.5247015258257339,"57":-0.04154102373222328,"58":0.16545744504095766,"59":-0.06851217120196543,"60":0.3501594474388422,"61":0.4330572840092219,"62":0.4710475782334763,"63":0.22603573559722437,"64":0.22218794689662794,"65":-0.05314445998915896,"66":0.09411305564283488,"67":-0.007432405521247194,"68":0.20286480559579906,"69":0.08466008681238898,"70":0.3512352519105952,"71":0.2842660709282258,"72":-0.3552422771288263,"73":0.18409305815459193,"74":0.7101506837900508,"75":0.3634798613534784,"76":0.4296591264169881,"77":-0.5070423181699407,"78":-0.34394416093372754,"79":-0.5429571609935719,"80":1.0087178775197372,"81":0.18181420200200135,"82":0.25461570647164217,"83":0.6918667232597786,"84":0.43869761522100775,"85":0.641880318862005,"86":1.0201805137278348,"87":0.1406527762490111,"88":-0.07307722014310108,"89":-0.1977621611323241,"90":-0.11643918729910702,"91":0.22852885273495352,"92":-0.45026178004770695,"93":0.24996422291660866,"94":0.6926264718193521,"95":0.5831427962921804,"96":0.28897735776051753,"97":-0.4834627545886815,"98":-0.32072757564315424,"99":-0.38332368038225606}},"26":{"bias":0.199195960676573,"weights":{"0":0.9223131732647429,"1":0.21263212870678858,"2":-0.3856177690461431,"3":-0.8875960188520923,"4":-0.9428493348532824,"5":-1.385662671718874,"6":-0.21445807488520297,"7":-0.3217128093849019,"8":-0.5316893050907282,"9":-0.3458987461231027,"10":2.0310153166688147,"11":0.5123184427631464,"12":0.21776424435616104,"13":-0.48092142083756395,"14":-0.46624408761049413,"15":-0.5795569694608949,"16":-0.38365980749833417,"17":0.2497185014649401,"18":0.11032656763144348,"19":0.6186195435880496,"20":2.2240228328869343,"21":1.002101347329348,"22":0.19108274221480143,"23":-0.11581475166180272,"24":0.4541937401794283,"25":0.8918462558352644,"26":0.6774897552796795,"27":0.9045222959974532,"28":0.522970445170784,"29":-0.12242595025717545,"30":1.0828329758822572,"31":0.21626129545960202,"32":-0.8454270855489062,"33":-0.30084881027880966,"34":-0.5408266915410671,"35":0.11157097949768827,"36":-0.03463245776562438,"37":0.16735607561004245,"38":0.00806267603259248,"39":0.10098584743164189,"40":0.7371063479883497,"41":-0.11417007904980639,"42":-0.7042427513347869,"43":0.047582909687552924,"44":-0.1506222074561558,"45":-0.034115508210999,"46":-0.4617706081496472,"47":0.22601083689106977,"48":-0.7735040327160174,"49":-0.34825010192816025,"50":-0.6125914488798355,"51":-0.7282894504560465,"52":-0.4723825720939082,"53":0.1969323070810727,"54":0.07649291165607444,"55":0.24877384509415373,"56":-0.33870690372367973,"57":-0.3988895576919875,"58":-0.3589374377981838,"59":-0.2819628862582534,"60":-1.049858755413008,"61":-0.07351123889779826,"62":-0.49391485976704524,"63":0.929691390116298,"64":0.8091485690877034,"65":-0.15425560240075348,"66":-0.2959185742795494,"67":-0.3265620359836746,"68":-0.038950468565433764,"69":-0.6927943722662371,"70":-0.6300046341185851,"71":-0.4340122788788841,"72":-0.7900311872889229,"73":1.135577714838268,"74":0.6107897825536454,"75":0.0944583274721135,"76":0.16550764481544097,"77":-0.3560601946990665,"78":-0.1784992403391474,"79":-0.9178805445599194,"80":-1.0585778313092185,"81":-0.42813526396267315,"82":0.6577967754782016,"83":0.7635004718228656,"84":0.13658289077071295,"85":-0.11349973960270748,"86":0.1786290891865744,"87":0.3370791326036573,"88":0.5160923190168226,"89":-0.8461851622665855,"90":-1.3204081219190174,"91":-0.975119817581985,"92":0.5742826864577648,"93":0.9705728538682199,"94":-0.19828464681966199,"95":-0.9726399688355639,"96":-0.37832427162389387,"97":0.19631445563464373,"98":0.17928744544568756,"99":-0.30606095558183033}},"27":{"bias":0.17309776776426575,"weights":{"0":1.7722247199919372,"1":-0.03809279926324255,"2":-1.1086946382297942,"3":0.003195975924245645,"4":-0.06164753939734381,"5":0.3430852626282591,"6":-0.26227672027206217,"7":0.06727713299851769,"8":-0.01935721406301118,"9":-0.0957090687243739,"10":1.2461253041896099,"11":-0.5399490213676037,"12":-0.7041826758084478,"13":-1.0197617456073351,"14":-1.1730603477956283,"15":0.17018486683583994,"16":-0.6788604807902814,"17":0.37601258415935357,"18":0.28526773571958863,"19":0.26810842482282987,"20":-0.39222540331141476,"21":-0.10622876480188202,"22":-1.4117073164865122,"23":-0.81333528432592,"24":-0.7227117091526002,"25":-0.8513791204019496,"26":-0.6406297082686296,"27":0.3371590619978244,"28":-0.24862034420563547,"29":0.04724612998687786,"30":1.8442826372007872,"31":0.43753968798520804,"32":0.06045654835603227,"33":-0.1487355344104969,"34":0.7519017931233382,"35":0.15492805347952432,"36":-0.21322995081730653,"37":0.42233564859154593,"38":-0.06052821245839721,"39":0.39748761637897756,"40":1.3025926517862954,"41":-0.4719708324336566,"42":0.5450170486649902,"43":-0.5727541518777023,"44":0.4250453805589036,"45":0.2070739218738729,"46":0.23756618967854565,"47":0.7136928247180644,"48":1.8804108431290325,"49":0.3826084024079691,"50":0.22407726962809107,"51":-0.5153057594890613,"52":0.7399202868961255,"53":0.1545988989385907,"54":0.03906379143456581,"55":-0.5179395173724599,"56":0.0621695333663568,"57":1.0281748833316928,"58":0.14867622291117136,"59":0.5691184286416376,"60":-0.37114487692970527,"61":-0.2182568131633649,"62":0.7377957238553706,"63":0.09014225226978462,"64":0.028448603931318855,"65":-0.13130591692678306,"66":-0.35092367958133003,"67":0.08183437903965751,"68":0.2968156002196177,"69":0.621303455421944,"70":-1.02410990350353,"71":-0.07554556355989388,"72":0.23669804154515078,"73":0.38382997034161204,"74":0.2591474848320675,"75":0.03352620320196203,"76":0.20159144607894242,"77":-0.08754472400888501,"78":-0.2922436484294201,"79":-0.032050087490849734,"80":-1.4436583781825356,"81":-0.8469138591281387,"82":-0.39056644532446383,"83":0.28080699912614115,"84":0.6329118973174092,"85":0.4303575805309081,"86":0.2872617562351182,"87":-0.7115209541540862,"88":-0.704466607803313,"89":-0.8492050676892409,"90":0.9130850200214943,"91":-0.05483952114743898,"92":-0.9986128824665996,"93":0.837879219279326,"94":1.5022910731368027,"95":1.3740279567068148,"96":0.5689779658819885,"97":-0.0020889084087145626,"98":-0.3262611046621864,"99":-0.9100258780684699}},"28":{"bias":0.04931778799307732,"weights":{"0":-0.05771891815911721,"1":0.02056570585256443,"2":-0.7846859793039695,"3":-0.039938481498498886,"4":0.568543501989862,"5":0.5427072055516263,"6":0.04027886445444599,"7":0.3615756133956194,"8":0.4856425400158468,"9":0.08015854576839232,"10":0.6734900081420854,"11":-0.20023944639597116,"12":-0.8787843275806294,"13":0.9012897926763538,"14":0.052140179266771974,"15":-0.06642935107572111,"16":-0.04367780204226802,"17":0.2100298131327048,"18":0.14999048844588594,"19":0.3594080819697604,"20":0.18866594782002782,"21":0.21901788893473495,"22":-0.3250783078299386,"23":0.45176370109437103,"24":-0.47456231142049315,"25":0.07434759399270868,"26":-0.5983192116949976,"27":-0.5985436655969536,"28":0.3078916385923885,"29":-0.5085681094804619,"30":-1.13912232975459,"31":0.09437160038554027,"32":-0.3202077216255768,"33":-0.16107894372678008,"34":0.27877586266728804,"35":0.21267433826048304,"36":-0.25392186502873326,"37":-0.5443728445437068,"38":0.02450187309930489,"39":-0.5802054966510967,"40":-0.41322567849858743,"41":-0.08604565609955507,"42":0.2911271202770261,"43":0.6807634661715467,"44":0.3463444347721445,"45":0.8011896948130734,"46":-0.7744763027183069,"47":0.06939334379668695,"48":-0.2067443649386607,"49":-0.3491421228975807,"50":-0.957265310251971,"51":-0.27566801768001675,"52":-0.1920640751205419,"53":0.013592288314380687,"54":0.5835496414241301,"55":-0.10042535110941306,"56":-0.4515300402165104,"57":-0.66499587979297,"58":-0.561664652924924,"59":-0.6540225369817841,"60":0.37229902504057133,"61":-0.7263361421815826,"62":0.9995341951538859,"63":0.4971780079125249,"64":-0.5292928675886635,"65":0.19326883284926394,"66":-0.03441737854086818,"67":-0.5169805273757847,"68":-0.45914876042398134,"69":-0.5965628381843038,"70":0.1404994720787047,"71":-0.04303782191150717,"72":0.6764798015023764,"73":-0.3092963928630418,"74":-1.7613478801712952,"75":-0.9067599544439421,"76":-0.0464170838074649,"77":0.2563304851509527,"78":-0.15701870265750317,"79":-0.7793598610878334,"80":1.4634777969797992,"81":0.011618638478807475,"82":-0.011937018986803292,"83":0.25973471928873687,"84":-0.610164425881098,"85":-0.3591672883465918,"86":0.5926855898073385,"87":0.6078031054031156,"88":0.27092119238265905,"89":-0.08861007533481621,"90":0.4406808734068708,"91":0.03280881657602853,"92":-0.8467437383460855,"93":0.7700405659300321,"94":0.7825237590606228,"95":1.3110631021147436,"96":0.515033510487414,"97":-0.2807164797314238,"98":-0.19548676913014706,"99":-0.38153198221065354}},"29":{"bias":0.4883136030486245,"weights":{"0":2.292832428237409,"1":1.5936717243935916,"2":0.3240772922992752,"3":0.5659441575254199,"4":0.9850297720219949,"5":-1.001548112836512,"6":0.5322612970883683,"7":0.15996104600351616,"8":0.4113081147102294,"9":-0.8781263007605392,"10":1.4231553556394914,"11":1.0169404506907902,"12":0.14223131503971023,"13":1.153450666016716,"14":-0.006810457867869421,"15":-0.44552304891480915,"16":0.51146440230389,"17":-0.5940141246042054,"18":-0.04978761027074625,"19":-0.48311927302808844,"20":-1.2683625697479155,"21":-0.07212439903865757,"22":-0.02258217022230466,"23":-0.9267828470410637,"24":-1.0334710758136545,"25":-0.7437233572796056,"26":-0.5879475009380601,"27":-0.9569667253336475,"28":-0.38039261112792383,"29":-1.0369385538490081,"30":-1.2814143777494713,"31":-0.9115636182465647,"32":0.5216817916260259,"33":-0.2230631846118139,"34":-1.232952511505549,"35":0.0024520160248439884,"36":-0.2695042760096682,"37":-1.3644430546495174,"38":-0.20847465520531397,"39":0.28634901989147726,"40":0.16125018238801123,"41":-0.12640507632134132,"42":-0.9621692430102143,"43":-1.262794752881145,"44":-0.8430736811690569,"45":0.018699598960891996,"46":-0.7426548420281316,"47":-0.8298645034089308,"48":0.6103466667534778,"49":0.7497501999318882,"50":0.2379025668678437,"51":0.1895310521953978,"52":-0.7859128605255786,"53":0.5100851471048197,"54":0.3159388054429354,"55":0.4443982196168012,"56":0.29762653483419166,"57":-0.28064470609263076,"58":0.4637603049028271,"59":0.6229581483265023,"60":0.6128445892747503,"61":0.7079887455444303,"62":-0.8029987560742394,"63":0.49432687286284066,"64":0.406588302844673,"65":1.3472428371150253,"66":0.5534187958847973,"67":0.19579025319279258,"68":0.6948280832266054,"69":0.2654669373149241,"70":-0.3423342546418833,"71":-0.1796281426211545,"72":-0.3173356331254618,"73":0.31036373970813574,"74":1.0714108968063167,"75":0.5617363991208573,"76":0.3769086870452995,"77":-0.11923540237091411,"78":-0.8597144360584604,"79":-0.04713334353497833,"80":-0.8379435421807241,"81":-0.19538360908535887,"82":-0.1632891535241709,"83":0.4172934570833803,"84":0.260707340068841,"85":0.3086067571584436,"86":0.4909856403870581,"87":-0.4345631793764113,"88":-0.16144493076786745,"89":-0.4401160439392923,"90":-0.48063980086319996,"91":-0.32118511933204535,"92":-0.680121988815638,"93":-0.9598681951353532,"94":1.3378742765251102,"95":0.4763534803242709,"96":0.18074859879979435,"97":0.17195923744572428,"98":-0.2663551363202856,"99":-0.7543404552078933}},"30":{"bias":-0.08728876688590088,"weights":{"0":-1.3174498121998428,"1":-0.4053931491936116,"2":0.5676135892484029,"3":0.228303071534777,"4":0.042371535341673525,"5":-0.2462284906639743,"6":-1.47410239970512,"7":-1.4134976462684612,"8":-0.2159988664370824,"9":-0.32676643710512965,"10":-1.1266519761677993,"11":-0.3899488153506018,"12":0.2877290390129381,"13":-0.43805441869683626,"14":-0.5495700266374876,"15":0.4837844806488798,"16":-0.6984609084326425,"17":-0.7782870510176327,"18":0.42906195362298494,"19":0.46856582897847265,"20":1.3377452591783159,"21":0.16946385964488517,"22":0.06753695118658874,"23":-0.3251423521242368,"24":-0.5905017931778793,"25":0.7221874667260325,"26":0.5516605679006733,"27":0.3406234233053088,"28":1.0865476941052807,"29":1.0626426679555707,"30":0.16125392914044895,"31":0.14937241678302457,"32":-0.6364056564668225,"33":0.12097713997846857,"34":0.6342283292884591,"35":1.209934685268797,"36":0.8213360466647917,"37":1.1492417449923211,"38":0.6898512180576788,"39":0.35811041465080545,"40":-0.9446726833624087,"41":-1.1300392692095322,"42":-0.18555455246647742,"43":0.9442882040444861,"44":0.542680961930775,"45":0.8999130932450371,"46":0.36176416508523956,"47":-0.04136979800040336,"48":0.7819541352305451,"49":0.6193104781598557,"50":1.417365266991801,"51":0.4356132543214941,"52":0.43198441036308705,"53":0.2527227350714734,"54":-0.020744898429650802,"55":0.12904345125482955,"56":-0.3431127793151885,"57":-0.24188262144711775,"58":0.03181163376428702,"59":0.5402127357999297,"60":-0.48190067668836156,"61":0.7391951296128837,"62":0.030128129446863702,"63":-0.783217690870949,"64":-0.9306696942804256,"65":-0.6385961693898724,"66":-0.5994305873056359,"67":0.1748799431338557,"68":0.03305965737489211,"69":0.6612482260970938,"70":-0.039839764389788056,"71":-0.2749121635183639,"72":-0.9907805214133117,"73":-1.6675302136636716,"74":-0.31582943428042376,"75":0.015912144330924853,"76":-0.49778650516991596,"77":-0.09368150505721276,"78":0.43780221685661513,"79":0.22419280781411208,"80":-0.05900578061087625,"81":0.5194844262090931,"82":0.21980113305568602,"83":-0.3126173286172631,"84":-0.056392006785602716,"85":-0.18430340800606285,"86":0.3360082314930566,"87":-0.48895231280193824,"88":0.3010823240549263,"89":-0.28516621748119597,"90":0.8456699106157171,"91":0.6291449844664694,"92":0.1012590121512909,"93":0.16711925219495571,"94":0.6915605912930026,"95":0.27561492095231854,"96":0.16566019899606987,"97":-0.5593143682489616,"98":0.4407281580281394,"99":0.25571839501373633}},"31":{"bias":-0.3756706508316649,"weights":{"0":0.5889160009700273,"1":1.3049241206784177,"2":0.04964817691516259,"3":-0.4204443129635551,"4":0.6062331797461632,"5":1.2938038708323325,"6":1.4558092042262771,"7":1.258696480385723,"8":-0.23826664532153552,"9":-0.16135918256556614,"10":0.763077552046165,"11":-0.6796382450011172,"12":-1.3334625015831367,"13":-0.5988155766952747,"14":0.1190719266688745,"15":0.4109050388983402,"16":0.31354439625753444,"17":-0.10391263090235472,"18":-0.6848917677411821,"19":0.25362466736517086,"20":-0.18973605682392664,"21":-0.6114861608600121,"22":-0.8379104034725604,"23":-0.9711744346766681,"24":-0.26581809704437737,"25":0.3708496751038201,"26":0.24293739098339892,"27":-0.3401162254171323,"28":-0.5703881627897944,"29":0.05902736398234219,"30":0.362458892916228,"31":-0.17831654670588565,"32":1.103406963804802,"33":-0.5189674523275803,"34":0.004857545958921451,"35":0.1007708015958333,"36":-0.021277635031975918,"37":-0.31732633744928135,"38":-0.6508584949473261,"39":0.3034712474365745,"40":1.1467757617558376,"41":1.1534687197780218,"42":-0.0192350864450518,"43":-0.24669459160787705,"44":-0.3177867211156018,"45":-0.13325442294761086,"46":0.29784174969700206,"47":0.2965700288315386,"48":-0.07980184664053408,"49":0.0468314984631264,"50":0.6189988707716083,"51":0.3821359089106401,"52":0.30927306559114187,"53":-0.12017065007912467,"54":0.06506774295893078,"55":-0.5552209410600097,"56":-0.06885376577580686,"57":0.11199829484209912,"58":-0.02770084882177192,"59":-0.31262462231907023,"60":0.26500573387381543,"61":0.0828441569183516,"62":0.21613015164966107,"63":0.04320517109011069,"64":0.4989987936323789,"65":0.0007708964791573974,"66":0.25280815859808814,"67":0.29698985446410725,"68":0.5400529663113741,"69":-0.05732767324550854,"70":-0.776106391455077,"71":-0.040587632900575356,"72":-0.03909221727709964,"73":-0.296241077802121,"74":0.15686815596371217,"75":-0.5626826980749106,"76":0.5751219449390641,"77":0.5217387775661781,"78":0.47869574907523915,"79":0.2216751598011909,"80":-0.5800918839784902,"81":-0.5441167997177981,"82":-0.47746329482553335,"83":0.21022811688781415,"84":0.5742272233104134,"85":-0.1595252683627701,"86":0.44730206614863754,"87":0.433536642866066,"88":0.13248616529639315,"89":0.041098518571682514,"90":-0.7662525383580252,"91":-0.5120081469102696,"92":0.3336684573287119,"93":0.6053055648534923,"94":0.4345864173050234,"95":0.19327656154440456,"96":0.26264412071200305,"97":0.4905057554440303,"98":0.03544925183572614,"99":-0.16179217786940306}},"32":{"bias":0.5704450874513329,"weights":{"0":-1.3071164640294644,"1":0.14733085942765417,"2":0.23342451150097646,"3":1.1307380869609076,"4":1.1976329263584216,"5":0.32319172864814816,"6":0.5930709723509038,"7":0.8239490178971693,"8":0.5038842613498092,"9":-0.8388181881151465,"10":-0.7749660233286064,"11":-0.46661860762524204,"12":0.6236060710792152,"13":1.1825134944348026,"14":0.48970585699790736,"15":-0.23547673256557647,"16":0.6546527927886323,"17":0.7222013898426677,"18":0.40709005760969097,"19":-0.013512649280774508,"20":-0.43623032508783466,"21":-0.21097345477718654,"22":-0.5178294730641781,"23":0.919928638781975,"24":0.20825370589539285,"25":-1.4230013417039764,"26":-1.2433096434196815,"27":0.502744376899609,"28":0.6835366659912131,"29":0.6169302279283625,"30":-0.1835945064315361,"31":0.0012296469348249308,"32":-0.5904313267047698,"33":0.009172491465507008,"34":-0.0026357070565443345,"35":-0.3828151419128824,"36":-0.9404863739340504,"37":-0.574907683517786,"38":0.06701801426452964,"39":0.33390647101680393,"40":0.14718442439598106,"41":-1.0047049060605968,"42":-0.4519997957965865,"43":-0.9865500313636446,"44":-0.09445441455674013,"45":0.1540522424427677,"46":0.6697035786179778,"47":-0.37016720601280545,"48":-0.42229698510493013,"49":0.4376439731168842,"50":-0.7764287826992083,"51":-0.5788763835950693,"52":-0.145580378781464,"53":-1.6299487121710692,"54":-0.3933654137927369,"55":0.6633414702742907,"56":0.6856652143267009,"57":0.002566010438635396,"58":-0.04453391788851957,"59":0.25051788120989904,"60":-0.26859975973819183,"61":0.27437300432643374,"62":-0.22561507142359044,"63":-0.907682911717042,"64":0.2831841623292462,"65":0.6543207457177785,"66":0.033433344094572215,"67":-0.0761824867190074,"68":-0.3040793083213852,"69":0.13554807195942326,"70":1.1407571301470754,"71":0.6666961978720636,"72":0.1836403042980319,"73":-0.16554759626436077,"74":-0.6413398774824188,"75":0.9119428949578823,"76":-0.10461631200678731,"77":-0.6734293543618062,"78":-0.2443578141586554,"79":-0.543042291430396,"80":0.7473224398969129,"81":0.523697627351637,"82":-0.3454335491554059,"83":-0.01648698815354067,"84":0.032765660930746655,"85":-0.06052345101055801,"86":0.37536998350699213,"87":-0.5250677595648359,"88":-0.42503085865097956,"89":-0.5697438549962615,"90":0.4762677435946202,"91":0.28344740575346794,"92":0.600139055253701,"93":-0.027338435551061763,"94":0.20288294648368638,"95":-0.8424064060692269,"96":0.058524606961848705,"97":-0.28997241805941915,"98":-0.8954872265292395,"99":-0.5616826207759913}},"33":{"bias":-0.04685310023816965,"weights":{"0":-1.1020258216977559,"1":-0.35439613899564126,"2":0.36357868609678173,"3":0.9976537368763073,"4":0.13785085920316845,"5":-0.20973335446426,"6":-0.5304189631823757,"7":-1.580206771410101,"8":-0.40060557019814524,"9":-1.0813956580724027,"10":1.3313443951135615,"11":0.7119283759928132,"12":-1.1529978735166715,"13":0.1565445306591313,"14":0.7063579250987961,"15":-0.589086381223464,"16":0.060736244357143275,"17":-1.0247492944156136,"18":0.09940343244747266,"19":-0.648814992259043,"20":-0.07116876259424378,"21":0.07169795505531192,"22":-0.35403552108000225,"23":-0.07401270422508334,"24":-0.2691470709514349,"25":-0.8416223118112507,"26":0.48092205665247256,"27":-0.24837544162866984,"28":-0.08084812809427143,"29":-0.2664011102743549,"30":0.17963891665211823,"31":0.4514688845478145,"32":0.9464173037672345,"33":-0.1294111038071377,"34":-1.0968928874907884,"35":-0.4498631971949259,"36":-0.15198109918665448,"37":-0.02040025694473206,"38":0.22914995040214095,"39":-0.23573813696839224,"40":-0.41328222889240024,"41":-0.5942086035846599,"42":0.14490813062370864,"43":-0.416501559965265,"44":0.38444348943921236,"45":0.048766085457900475,"46":1.0485314198026705,"47":0.48463403095869223,"48":0.5483331512716302,"49":0.2034508642889301,"50":-0.7304262066604998,"51":-0.9306788785154151,"52":0.6830583659055259,"53":-0.91787067060698,"54":0.12897092643454233,"55":0.911743949379078,"56":1.55244855010097,"57":0.5302245204372138,"58":0.8606087885590475,"59":0.3141582638118879,"60":-1.2007325154630566,"61":-0.24528762905302948,"62":-0.3243745832592919,"63":-1.0279308894074284,"64":-0.27670619763590487,"65":0.7084769100466618,"66":1.115150348619058,"67":0.6777604337218047,"68":-0.14892703295116252,"69":-0.07373836847183673,"70":-1.0560121659836117,"71":0.011821354378314664,"72":-0.22624571174790342,"73":-0.5200558905215119,"74":0.6232417695692674,"75":0.1945680780066696,"76":0.7537869417772971,"77":0.08945451183995212,"78":-0.10175338412512547,"79":-0.3818852055065845,"80":0.7936491528341107,"81":0.549182861410026,"82":0.38415591663669096,"83":0.29967795826597626,"84":0.1434577969507348,"85":0.2485710464230929,"86":-0.5495437889637349,"87":-0.20048916953936005,"88":0.0049102835415371845,"89":0.013832462913557742,"90":-0.5683437209830164,"91":1.0258271271593515,"92":0.7716052446860423,"93":0.46289372229738396,"94":-0.8719687559952923,"95":-0.5280041440559092,"96":-1.2830398373114997,"97":0.010235076752215442,"98":0.2811749092417527,"99":0.3961158776987046}},"34":{"bias":1.3750173899032334,"weights":{"0":-0.44258540580799116,"1":-0.9710890719078052,"2":-0.3351727590552968,"3":0.19276185010012784,"4":0.6166007496918601,"5":0.5598654742831858,"6":1.0565376829214752,"7":0.44888643113674215,"8":0.5808026386105594,"9":0.314800477407911,"10":-0.2894370106604787,"11":-0.7630908507541725,"12":-1.0750422843601966,"13":0.5967657039864882,"14":-0.12208030492142222,"15":-0.2752757199091914,"16":0.6686995519841215,"17":-0.19791610145272362,"18":-0.12498360857879762,"19":-0.6900384271783015,"20":-0.6557154706153531,"21":-0.234552915498413,"22":-1.4247626389209265,"23":0.4023123649674939,"24":-0.029311306635982776,"25":0.16961285508490934,"26":0.940437544962721,"27":0.1528330459261088,"28":-0.2541949801179033,"29":-0.16477993652884856,"30":-1.3845137800312046,"31":-0.5828956571569482,"32":-0.38341248395540783,"33":0.026988758449715967,"34":-0.6095014901216245,"35":-0.6466149120454873,"36":0.5060438851453446,"37":0.029755365996219,"38":0.22330264202801936,"39":0.05595327760542491,"40":0.3819276483796008,"41":-0.6722351663484869,"42":0.4106036703122435,"43":0.21038216505414797,"44":0.7506568594429851,"45":0.11197517453407846,"46":0.13292170106231058,"47":0.4950096645348651,"48":0.5741142407927771,"49":0.26387051314511484,"50":0.11575318254889794,"51":-0.9361530437342356,"52":0.3338388371399228,"53":0.03765281718971942,"54":-0.15833620865930248,"55":-0.10058071532449986,"56":0.17440287496213674,"57":0.2199607185390948,"58":0.6376388008494631,"59":0.3001298311725344,"60":0.6487947365675605,"61":0.3941562134328752,"62":0.02946716986333966,"63":0.28308882706797933,"64":-0.23476317878630779,"65":0.3899524753269868,"66":-0.2027517367151048,"67":-0.4699631298971737,"68":-0.05186064876596083,"69":-0.11520190140185328,"70":0.2907500991861192,"71":0.7573716329177744,"72":0.41113856272906707,"73":-0.004056398749666501,"74":-0.04638213437377319,"75":-0.44488299108068946,"76":-0.35302599476603075,"77":-1.0022311458389037,"78":-0.3134016465949955,"79":-0.14816206684936753,"80":2.6037144339085665,"81":0.806894087714666,"82":-0.7240084954721243,"83":-0.43458820808774995,"84":0.10373786782484644,"85":-0.3084085155665981,"86":-1.006919607294957,"87":-0.9970824530876586,"88":-0.19239894557357243,"89":0.09024101315309509,"90":1.3644677243190273,"91":1.0238955284686608,"92":-0.6560170865255108,"93":-0.42053246857562143,"94":-0.03651922848964213,"95":-0.7788955741243252,"96":-0.9919937294533885,"97":-0.9525494229314123,"98":-0.009978807326233552,"99":0.3327959671008737}},"35":{"bias":0.48459503187493846,"weights":{"0":-0.710532047898638,"1":-1.6992812758485627,"2":-0.11747049101608417,"3":-0.11536434686367529,"4":-0.4381838855212096,"5":-0.7365697553643706,"6":-0.6034180128321328,"7":-0.1163009310702933,"8":-0.40565297936057026,"9":-0.30392877130448903,"10":0.018140416004323714,"11":0.015630995284564606,"12":0.14781744033685926,"13":-0.2516643054587132,"14":-0.6797013767846268,"15":-0.4187325741946674,"16":1.0511582423114483,"17":-0.011746772385154949,"18":0.3087222405971791,"19":0.23543648373996223,"20":0.9397377401386148,"21":0.48788601471282195,"22":0.9255521349994216,"23":-0.2996299862366233,"24":-0.2124650613882079,"25":0.49838542247517353,"26":1.222703942177477,"27":0.8168116897109075,"28":0.025158826655123537,"29":0.24845298763620566,"30":0.9248176869513042,"31":0.9582814229118398,"32":0.4176003599839303,"33":-0.5266583298911868,"34":-0.317934511268614,"35":0.5798092459256646,"36":1.5825582673522216,"37":0.4553804518678952,"38":0.052864313020058534,"39":-0.40917825671790836,"40":0.3049694114072883,"41":-0.28473841912875486,"42":0.9422750683860556,"43":0.5094541502032264,"44":0.9977345214010163,"45":0.3975722423216939,"46":0.30854022427584143,"47":-1.0062264661152378,"48":-0.46365324368172367,"49":-0.425518806680962,"50":0.2714405625544148,"51":-0.08032527058283188,"52":0.24569127317247766,"53":0.04200732112202558,"54":-0.6344391514659888,"55":-0.5900864422102778,"56":-1.1649423756616972,"57":-1.435994315189342,"58":-0.044647040573133165,"59":0.11698324357547307,"60":-0.17970713965048263,"61":-0.06016416949607333,"62":0.6474888383475831,"63":-0.968930918936595,"64":-0.7879871416360308,"65":-1.140557716178061,"66":-1.4889478443182769,"67":0.15003585376625214,"68":0.32483607134852927,"69":0.11816387211168514,"70":-0.6770840521752219,"71":0.09869253931963892,"72":0.07284245606291676,"73":-0.19024353100054342,"74":-1.137098205463354,"75":0.03486055849279766,"76":-0.4918999060122491,"77":0.1672406403626147,"78":0.294749284880984,"79":0.024585870378162417,"80":-0.35009975073659827,"81":0.2572887909705083,"82":0.08926950881461683,"83":-0.3036298555804702,"84":-0.2673211647244405,"85":0.2677747523191344,"86":0.27177237463364434,"87":-0.11418274428232905,"88":0.25328910152153916,"89":-0.022686180552288448,"90":-0.021906387340253214,"91":0.6329080452034513,"92":-0.33407994549055287,"93":-0.2542813424167441,"94":0.12965810118811785,"95":0.04976565225863142,"96":0.06941341083799427,"97":-0.6422311068195494,"98":0.06572022533099366,"99":0.1367942292305145}},"36":{"bias":0.18296867482445542,"weights":{"0":-1.1153821767047782,"1":-0.2633065557880342,"2":0.631260426347985,"3":0.3987579992766632,"4":0.34701687487982724,"5":0.9661930306427536,"6":-0.9052421746498169,"7":-0.4956907615889012,"8":-0.022295939731556216,"9":-0.1730022458005651,"10":-0.540190014269268,"11":-0.4730376694000661,"12":-0.35424444021819496,"13":0.5609258468465678,"14":0.8257907568038696,"15":0.994680809898827,"16":-0.7913227405271279,"17":-0.3549120075219986,"18":0.15921714494923728,"19":-0.47341912771332517,"20":-0.7866539362355102,"21":-0.07509059656305078,"22":0.8579204133433497,"23":0.7632707187054903,"24":0.267310627488855,"25":-0.22883699998031287,"26":0.16083859376800774,"27":-1.1953827386302671,"28":-0.6189457068816613,"29":0.34102808441048355,"30":0.010625991393805736,"31":0.0008499392154838784,"32":0.7650290202538099,"33":-0.11431023205271582,"34":0.08955315945459613,"35":-0.6795309791976863,"36":0.22471360219766903,"37":-0.02692042437900219,"38":-0.4523853235563066,"39":0.507311604428422,"40":-0.961932810672514,"41":-0.6941067644144606,"42":-0.7357219871600308,"43":-0.8167126761822456,"44":-0.5826452427046873,"45":0.15107267633576532,"46":0.26554450074717273,"47":-0.06979833551353806,"48":0.24811681424338833,"49":0.5844120881212228,"50":-0.2767540477535183,"51":-0.5145970109743718,"52":-0.5368074203272748,"53":-0.7249011482875568,"54":-0.8662943428977432,"55":-0.2299364583187397,"56":-0.2057678843685188,"57":0.2295866314711282,"58":0.5411434388264743,"59":0.35406768596438287,"60":0.5920894722989253,"61":-0.6781299605590846,"62":0.08787408730298503,"63":-0.2911947708196414,"64":-0.8764522203896056,"65":-0.016932340514848244,"66":0.13920036068653846,"67":0.12119951664268425,"68":0.36563741125320676,"69":0.29892712109948405,"70":0.5801949196111292,"71":-0.04247786662259905,"72":-0.776233766587338,"73":-0.21005773747808731,"74":0.17565332880000262,"75":0.43632522062768103,"76":0.47494235462034085,"77":0.5185731651724438,"78":0.49642946068274896,"79":0.2044321589561764,"80":1.1387516956466013,"81":0.39732944579102575,"82":-0.037248446021512525,"83":-0.2991339634320345,"84":0.20798279576493536,"85":-0.07227649727558626,"86":0.25573300912436125,"87":-0.2341379509696086,"88":-0.21691958282064036,"89":-0.09916127564449845,"90":0.4483494225057064,"91":1.4103547883376841,"92":0.8728810704486323,"93":0.17924363820148137,"94":-0.10277838882304319,"95":1.0916118139238244,"96":0.9437608085064683,"97":-0.2615391463031746,"98":0.22529229025277747,"99":-0.13685801782380622}},"37":{"bias":0.07312753322141004,"weights":{"0":0.3525506965552813,"1":-0.45812210682622906,"2":0.030773044487965612,"3":-0.2867349374718857,"4":-1.0748027267976674,"5":-1.3066343685552195,"6":-0.045302358803550206,"7":-0.2752585041834528,"8":0.5526569550380114,"9":1.0458530877282717,"10":0.020822175496761325,"11":0.3196515788621718,"12":0.11844172493298569,"13":-0.20455619618508186,"14":-0.6355253131542081,"15":-1.2671791307728506,"16":0.23106141453860726,"17":-0.3933459714607238,"18":0.15081486097554342,"19":0.32703879896929605,"20":0.30023491400555585,"21":0.6028163933830748,"22":0.5080649211508946,"23":0.9780109028760198,"24":-0.5455430202855959,"25":-0.305061973294004,"26":0.6935254792494359,"27":-0.6091532042607186,"28":0.21498480470443757,"29":-0.24720942702909757,"30":-0.4019820466151871,"31":0.22591517068119968,"32":1.227066386262782,"33":1.1369683711157037,"34":1.0815953841137442,"35":0.62863452071052,"36":1.394972865816231,"37":-0.2869486587876667,"38":-0.5153522164052255,"39":-0.11744736755970432,"40":-1.5452038115380884,"41":0.002890222654951365,"42":0.8553076174965649,"43":1.126805235745837,"44":0.9437516626511945,"45":0.30764324471969995,"46":0.34382119853791404,"47":-0.18261202718497774,"48":-0.8461113981287569,"49":-0.06132650370730551,"50":-1.1633727407681587,"51":-0.6349004985015186,"52":0.3094712027456025,"53":0.2747912349573148,"54":0.716084862511739,"55":0.2637203216046738,"56":0.28010268785813874,"57":-0.41338409201114756,"58":-0.8617123842097658,"59":-0.13311201582440374,"60":-0.1934417593686469,"61":-0.4267956985990667,"62":-0.14365475198016486,"63":-0.37817407037870515,"64":-0.06793666801008932,"65":0.37491325843974005,"66":-0.38388808318260187,"67":0.0466907464002611,"68":-0.5151452167964317,"69":0.03561825523842928,"70":-0.39638885404959356,"71":0.020197300227735623,"72":0.10268863203466908,"73":-0.5358489530704578,"74":-0.35773814997198067,"75":0.4491788045183731,"76":-0.052670902673009126,"77":-0.2575245606685514,"78":-0.39946069420559915,"79":-0.26522704717994616,"80":0.8873136819874439,"81":0.21980255739884014,"82":-0.46220136879825335,"83":-0.6535522367305915,"84":-0.22704505229295696,"85":0.3251618008022502,"86":-0.5422074989571931,"87":-0.13309469107211194,"88":0.04574686725839514,"89":0.3457349893525118,"90":0.020629688824238556,"91":0.3353926041021547,"92":-0.7867003186191102,"93":-1.5835007566505308,"94":-0.9519581622060238,"95":-0.019431761131944624,"96":0.08679912909020694,"97":-0.6652211977707372,"98":-0.04274255720496821,"99":0.41220431606853236}},"38":{"bias":0.6500051163386674,"weights":{"0":1.1654605379541663,"1":-0.6344673596021041,"2":0.21466768844473239,"3":-0.13654011219648815,"4":0.23831592843970226,"5":-0.13680428573780382,"6":0.06039037583071233,"7":0.015520650042365828,"8":-0.22452403914406982,"9":0.14996312190504246,"10":0.7346914008821007,"11":0.24203305719159332,"12":0.7165712368192896,"13":0.6706090048789775,"14":0.7611728531271368,"15":0.16536697641667175,"16":-0.12181375554724265,"17":0.04930711554861078,"18":0.1272804742248412,"19":0.16895295577534117,"20":0.18810542195501284,"21":0.12945904727746146,"22":0.7082658708781945,"23":0.6579297185273644,"24":1.4071322427119441,"25":0.4664894603540641,"26":0.3725136751366231,"27":-0.34141942223314825,"28":0.06825662598259495,"29":0.33009808476428215,"30":-0.5307651518147103,"31":0.09433489140016582,"32":0.9466617282935755,"33":-0.043282724001068015,"34":0.3080473223837741,"35":-0.563906595194989,"36":0.3092870046148476,"37":0.5880971107809387,"38":0.0032385886029032127,"39":0.2604789577550073,"40":-1.00440755780883,"41":-0.4420131449463699,"42":0.20869674442883634,"43":-0.6068842092162244,"44":0.24096729508413478,"45":-0.22486888148568002,"46":0.07508760221635827,"47":-0.375661370685503,"48":0.6333975966964405,"49":0.7466929992955192,"50":-0.7991350401746411,"51":-0.9992464066128873,"52":0.07494322392214664,"53":-0.760068498899709,"54":-0.23177373954769595,"55":-0.6945867463813407,"56":-0.3170385546109051,"57":0.1170143609044595,"58":0.19242423657145993,"59":0.5366325967423006,"60":-0.4526350504649546,"61":-1.2150868519429487,"62":-0.3621321819793162,"63":-1.2855321095877987,"64":-0.9793015753401078,"65":-1.0821681847608335,"66":-0.2743883471034078,"67":0.07060357841764674,"68":0.41982908319445833,"69":0.7799954063166863,"70":-0.7523432153633248,"71":-0.4944351488573933,"72":-0.03467092032418122,"73":-0.02221336826761578,"74":-0.007712290571427146,"75":0.5995093334455305,"76":0.21071839608763093,"77":0.6025633185956204,"78":0.12226956913170614,"79":0.3663569233727912,"80":-0.38402331128954165,"81":-0.19376027643031474,"82":-0.08471637288306225,"83":-0.22690294078277007,"84":0.23867400007079292,"85":-0.453590566919977,"86":-0.1469688309400144,"87":-0.3526730676843841,"88":-0.17609209945791032,"89":-0.6850295101864422,"90":0.17677582547789353,"91":0.4407229156559799,"92":0.2096406392030359,"93":0.2782744459734079,"94":0.5378800126121042,"95":1.3399567582900636,"96":-0.16973992822490166,"97":-0.5221451321267604,"98":0.1408120852792539,"99":-0.23593571468528154}},"39":{"bias":0.5591173613855726,"weights":{"0":0.1725048384866941,"1":-0.7157871403985436,"2":-1.2073343408184656,"3":0.009943148303319662,"4":0.08521443587806325,"5":-0.33293938282283564,"6":0.3609267688293308,"7":0.26641580167788736,"8":0.17263023740862113,"9":0.48800064314747155,"10":-0.5374479991513994,"11":-0.8705853598873425,"12":-0.01976006062006318,"13":-0.20828210484282572,"14":0.22413063029077562,"15":-0.026088219431825866,"16":-0.6003506737640223,"17":-0.006642057638027056,"18":-0.5584701445962859,"19":-0.032477411304295815,"20":0.623253162414886,"21":0.6164836773328474,"22":0.664728688061492,"23":0.11273645616409576,"24":0.7138033831616439,"25":0.7314614063904858,"26":-0.08184542601601183,